/*
 * Prerelease License - for engineering feedback and testing purposes
 * only. Not for sale.
 * File: callPredict.c
 *
 * MATLAB Coder version            : 26.1
 * C/C++ source code generated on  : 27-Mar-2026 22:43:19
 */

/* Include Files */
#include "callPredict.h"
#include "addBiasApplyActivation.h"
#include "elementwiseOperationInPlace.h"
#include "predict_soc_opt5_direct_types.h"
#include "omp.h"
#include <string.h>

/* Type Definitions */
#ifndef typedef_cell_wrap_6
#define typedef_cell_wrap_6

typedef struct {
  float f1[64];
} cell_wrap_6;

#endif                                 /* typedef_cell_wrap_6 */

/* Function Declarations */
static void c_matrixMultiply280017041908104(int M, int K, int N, int blockSizeM,
  int blockSizeK, int blockSizeN, const float *A, const float *B, float *C);
static int div_nde_s32_floor(void);
static int div_s32_floor(int numerator, int denominator);
static void macroKernel2800170419081041753(int M, int K, int N, const float *A,
  int LDA, const float *B, int LDB, float *C, int LDC);
static void microKernel13759744110132446474(int K, const float *A, int LDA,
  const float *B, int LDB, float *C, int LDC);
static void microKernel3204552230439055392(int K, const float *A, int LDA, const
  float *B, int LDB, float *C, int LDC);

/* Function Definitions */
/*
 * Arguments    : int M
 *                int K
 *                int N
 *                int blockSizeM
 *                int blockSizeK
 *                int blockSizeN
 *                const float *A
 *                const float *B
 *                float *C
 * Return Type  : void
 */
static void c_matrixMultiply280017041908104(int M, int K, int N, int blockSizeM,
  int blockSizeK, int blockSizeN, const float *A, const float *B, float *C)
{
  const float *ptrB;
  int b_i;
  int b_j1;
  int i;
  int i0;
  int i0_ub;
  int k0;
  int k0_ub;
  memset(C, 0, (unsigned int)(M * N * (int)sizeof(float)));
  if (blockSizeM >= M) {
    blockSizeM = M;
  } else {
    blockSizeM = div_nde_s32_floor() * 7;
    if (blockSizeM <= 0) {
      blockSizeM = 1;
    }
  }

  if (blockSizeN >= N) {
    blockSizeN = N;
  } else if (blockSizeN <= 0) {
    blockSizeN = 1;
  }

  i0_ub = div_s32_floor(M - 1, blockSizeM) + 1;
  k0_ub = div_s32_floor(K - 1, blockSizeK) + 1;
  for (b_j1 = 0; b_j1 < N; b_j1 += blockSizeN) {
    int N2;
    if (b_j1 > N - blockSizeN) {
      N2 = N - b_j1;
    } else {
      N2 = blockSizeN;
    }

    for (k0 = 1; k0 <= k0_ub; k0++) {
      int K2;
      int k;
      k = (k0 - 1) * blockSizeK;
      if (k > K - blockSizeK) {
        K2 = K - k;
      } else {
        K2 = blockSizeK;
      }

      ptrB = &B[k + K * b_j1];

#pragma omp parallel for \
 num_threads(omp_get_max_threads()) \
 private(i,b_i)

      for (i0 = 1; i0 <= i0_ub; i0++) {
        i = (i0 - 1) * blockSizeM;
        if (i > M - blockSizeM) {
          b_i = M - i;
        } else {
          b_i = blockSizeM;
        }

        macroKernel2800170419081041753(b_i, K2, N2, &A[i + M * k], M, ptrB, K,
          &C[i + M * b_j1], M);
      }
    }
  }
}

/*
 * Arguments    : void
 * Return Type  : int
 */
static int div_nde_s32_floor(void)
{
  return 9;
}

/*
 * Arguments    : int numerator
 *                int denominator
 * Return Type  : int
 */
static int div_s32_floor(int numerator, int denominator)
{
  return (int)((unsigned int)numerator / (unsigned int)denominator);
}

/*
 * Arguments    : int M
 *                int K
 *                int N
 *                const float *A
 *                int LDA
 *                const float *B
 *                int LDB
 *                float *C
 *                int LDC
 * Return Type  : void
 */
static void macroKernel2800170419081041753(int M, int K, int N, const float *A,
  int LDA, const float *B, int LDB, float *C, int LDC)
{
  int idxB;
  int j;
  j = 0;
  idxB = 0;
  while (j < N) {
    int i;
    int idxA;
    int idxC;
    idxC = LDC * j;
    i = 0;
    idxA = 0;
    while (i <= M - 7) {
      microKernel3204552230439055392(K, &A[idxA], LDA, &B[idxB], LDB, &C[idxC],
        LDC);
      idxA += 7;
      idxC += 7;
      i += 7;
    }

    while (i <= M - 1) {
      microKernel13759744110132446474(K, &A[idxA], LDA, &B[idxB], LDB, &C[idxC],
        LDC);
      idxA++;
      idxC++;
      i++;
    }

    idxB += LDB;
    j++;
  }
}

/*
 * Arguments    : int K
 *                const float *A
 *                int LDA
 *                const float *B
 *                int LDB
 *                float *C
 *                int LDC
 * Return Type  : void
 */
static void microKernel13759744110132446474(int K, const float *A, int LDA,
  const float *B, int LDB, float *C, int LDC)
{
  float c;
  int idxA;
  int idxB;
  int k;
  (void)LDB;
  (void)LDC;
  idxA = 0;
  idxB = 0;
  c = C[0];
  for (k = 0; k < K; k++) {
    c += A[idxA] * B[idxB];
    idxA += LDA;
    idxB++;
  }

  C[0] = c;
}

/*
 * Arguments    : int K
 *                const float *A
 *                int LDA
 *                const float *B
 *                int LDB
 *                float *C
 *                int LDC
 * Return Type  : void
 */
static void microKernel3204552230439055392(int K, const float *A, int LDA, const
  float *B, int LDB, float *C, int LDC)
{
  float b_c;
  float c;
  float c_c;
  float d_c;
  float e_c;
  float f_c;
  float g_c;
  int idxA;
  int idxB;
  int k;
  (void)LDB;
  (void)LDC;
  idxA = 0;
  idxB = 0;
  c = C[0];
  b_c = C[1];
  c_c = C[2];
  d_c = C[3];
  e_c = C[4];
  f_c = C[5];
  g_c = C[6];
  for (k = 0; k < K; k++) {
    float b;
    b = B[idxB];
    c += A[idxA] * b;
    b_c += A[idxA + 1] * b;
    c_c += A[idxA + 2] * b;
    d_c += A[idxA + 3] * b;
    e_c += A[idxA + 4] * b;
    f_c += A[idxA + 5] * b;
    g_c += A[idxA + 6] * b;
    idxA += LDA;
    idxB++;
  }

  C[0] = c;
  C[1] = b_c;
  C[2] = c_c;
  C[3] = d_c;
  C[4] = e_c;
  C[5] = f_c;
  C[6] = g_c;
}

/*
 * Arguments    : const coder_internal_DataHolder c_dlnet_InternalState_InternalV[4]
 *                const float inputsT_0_f1[50]
 * Return Type  : float
 */
float predict(const coder_internal_DataHolder c_dlnet_InternalState_InternalV[4],
              const float inputsT_0_f1[50])
{
  static const float b_inputGateWeights[12288] = { -0.038096458F, -0.027001515F,
    0.0016478598F, 0.00074230134F, 0.102115065F, -0.034610406F, -0.11156541F,
    -0.012122482F, 0.087767944F, -0.01091674F, -0.12156284F, 0.022247568F,
    0.056433827F, -0.12200016F, 0.08422056F, 0.04916288F, -0.10527691F,
    -0.0733311F, -0.02609606F, 0.056726992F, -0.03045848F, 0.100030854F,
    0.07017635F, 0.026404485F, 0.030757159F, 0.043082014F, 0.0038771778F,
    0.01927203F, 0.08127649F, -0.05892469F, 0.11160278F, 0.008634418F,
    -0.06509046F, 0.09452626F, -0.12063189F, 0.046020046F, 0.0033944547F,
    -0.034586996F, 0.11944458F, -0.094575316F, -0.027871296F, 0.050685838F,
    0.062200412F, 0.047649056F, -0.10998824F, -0.011870086F, 0.08188543F,
    0.05574055F, -0.06274578F, 0.028894365F, 0.12254445F, -0.07948838F,
    -0.052679628F, -0.012336269F, 0.018536478F, 0.06673072F, 0.050077006F,
    0.016979456F, -0.010790914F, -0.034038156F, -0.00048075616F, 0.0818035F,
    0.02882804F, -0.007696554F, -0.0557597F, 0.023810118F, 0.08805202F,
    -0.0108305365F, -0.054468125F, 0.007245302F, 0.10783754F, 0.10753454F,
    -0.030151263F, -0.10492407F, -0.012592107F, 0.045256168F, -0.09194453F,
    0.10542674F, 0.09311727F, 0.10425186F, 0.07877904F, -0.0452877F,
    -0.038997635F, 0.056028605F, -0.03636153F, 0.10176058F, 0.0583636F,
    0.02538076F, -0.053028524F, -0.088698566F, 0.11564475F, 0.078253835F,
    -0.101671115F, 0.086871296F, 0.12261109F, -0.07225476F, 0.10318357F,
    0.019513577F, -0.10927588F, 0.020550668F, -0.069867F, 0.07101455F,
    0.088075444F, 0.021867514F, -0.1247603F, 0.10715406F, -0.04068613F,
    0.119956195F, 0.059809893F, 0.050958022F, -0.05330552F, 0.10572189F,
    -0.0931205F, -0.07599886F, -0.02266565F, 0.032072037F, -0.070696026F,
    -0.08465733F, 0.08642425F, -0.081097126F, 0.058159128F, 0.06280197F,
    0.028171629F, -0.052701667F, 0.016500399F, -0.11189957F, 0.100590065F,
    0.020634443F, 0.043731347F, -0.018986404F, 0.06341161F, 0.11573793F,
    0.02252546F, -0.11872944F, -0.008956164F, -0.110889494F, 0.08133848F,
    -0.029584482F, 0.040338516F, -0.040393174F, -0.013396725F, -0.09877385F,
    0.053708434F, 0.08650641F, -0.053561375F, -0.03450136F, -0.034936294F,
    0.057232752F, -0.092674926F, 0.008609876F, -0.0015815049F, 0.11048986F,
    0.033669338F, -0.12005016F, 0.016251013F, -0.011277109F, -0.021866858F,
    -0.11579488F, -0.06856793F, 0.026813433F, 0.077914566F, 0.04102768F,
    0.07756242F, -0.11957005F, 0.09821522F, 0.11455572F, 0.011663541F,
    0.032739893F, 0.0047573F, 0.032008454F, -0.00032427907F, 0.054977506F,
    0.04955031F, 0.10048257F, -0.08841272F, -0.07157247F, 0.081711784F,
    -0.016350627F, -0.0638227F, -0.068148956F, -0.03466074F, 0.10202339F,
    0.11942485F, 0.03937851F, 0.018694848F, -0.0038686842F, 0.07314338F,
    -0.11055015F, -0.11969355F, -0.037372008F, -0.01451315F, -0.052304134F,
    -0.10446195F, -0.016626298F, 0.02610889F, 0.082038105F, 0.04508975F,
    -0.037169144F, -0.0016676635F, 0.0010362118F, -0.059942767F, 0.007606104F,
    -0.08835143F, -0.030461952F, -0.03830576F, -0.058078706F, -0.0730194F,
    -0.07715617F, -0.019356206F, -0.09131312F, -0.091517F, 0.07470851F,
    0.07870296F, -0.07422589F, 0.10801922F, 0.04778558F, 0.1105856F,
    -0.061931983F, -0.030637592F, -0.029581487F, -0.100562915F, -0.040380463F,
    0.09010042F, 0.123588815F, -0.10270496F, -0.04686004F, -0.10162881F,
    -0.006663993F, -0.099761605F, -0.057045355F, -0.026351422F, 0.08952658F,
    -0.021345496F, -0.08076239F, 0.12158923F, -0.10644448F, 0.031388104F,
    0.074860334F, -0.04874678F, 0.015673295F, 0.04953538F, -0.080488995F,
    0.062974036F, 0.12050049F, -0.06986667F, 0.04612352F, 0.097656906F,
    -0.017344236F, -0.0014393181F, 0.08825791F, 0.07394332F, 0.036567405F,
    0.022520065F, -0.077633455F, 0.021224797F, -0.06899384F, -0.109203175F,
    0.025027841F, -0.08756253F, 0.021196842F, -0.010974899F, -0.050048664F,
    -0.10047309F, -0.091812894F, 0.040399387F, 0.0012377053F, 0.03830731F,
    -0.07254484F, -0.057963327F, 0.024524093F, 0.019006908F, 0.06473172F,
    0.0016907305F, -0.011092648F, 0.0017280132F, 0.04527025F, 0.08346538F,
    -0.04736656F, 0.09296109F, 0.01080969F, -0.037602216F, 0.05293119F,
    0.017899036F, -0.07623558F, -0.022567779F, -0.0050327033F, -0.01001288F,
    0.09739946F, -0.0016293526F, -0.098556355F, 0.07271345F, 0.059897617F,
    0.019745842F, 0.025162533F, -0.08216354F, -0.075486526F, -0.06412424F,
    0.100621164F, 0.060295865F, 0.011637747F, -0.0882996F, -0.03066419F,
    0.0793027F, 0.03281553F, -0.02235718F, 0.12042089F, 0.105279416F, 0.1061213F,
    0.027824879F, 0.09057847F, 0.056294322F, 0.07445541F, 0.026893944F,
    0.08541624F, 0.08473536F, -0.09808515F, 0.06829567F, -0.046728313F,
    0.1176748F, -0.033501595F, -0.06899668F, -0.029672831F, -0.087160096F,
    0.070495784F, 0.04336135F, -0.088716924F, -0.028580323F, 0.011569515F,
    0.07036731F, 0.00046612322F, -0.009770542F, -0.113117754F, 0.029611021F,
    -0.07989536F, 0.12339291F, 0.121549964F, 0.05117014F, -0.057911128F,
    0.06077516F, -0.07482672F, -0.051084533F, -0.038052395F, 0.037346616F,
    -0.04653299F, -0.02510631F, 0.071962655F, 0.074451104F, -0.08430581F,
    0.035982594F, -0.020957395F, 0.11915244F, -0.032231346F, -0.017580584F,
    0.013780758F, -0.056275398F, 0.0014823675F, 0.087822825F, 0.05509442F,
    0.011270702F, 0.10540719F, 0.055353656F, -0.08685261F, -0.10355581F,
    -0.064851955F, -0.015147671F, -0.1000317F, -0.00259991F, -0.015108317F,
    -0.014482617F, 0.09193906F, -0.113989756F, -0.06262326F, -0.11248204F,
    0.087670535F, 0.12109545F, 0.1016846F, 0.11668594F, -0.095270455F,
    0.01888062F, 0.06485163F, -0.044833124F, -0.02596572F, 0.045081332F,
    0.03516586F, -0.09756301F, -0.098242894F, -0.10777108F, -0.10752326F,
    -0.05486396F, 0.043869257F, -0.103680775F, 0.00976789F, 0.031960115F,
    0.048382908F, 0.08200264F, -0.0425366F, 0.11349748F, 0.026773676F,
    0.01696688F, -0.032931194F, -0.11677477F, -0.09649576F, -0.016549364F,
    -0.07237135F, -0.10041061F, -0.1147199F, 0.09164527F, 0.12059221F,
    0.0045366436F, 0.082570866F, -0.039717063F, -0.03680648F, -0.0005878955F,
    -0.058795914F, -0.07903814F, 0.0018993914F, 0.009935856F, 0.00068707764F,
    0.062275946F, 0.004097596F, -0.044878244F, 0.11292477F, 0.11690344F,
    0.08336027F, -0.00025342405F, -0.09161906F, 0.11938131F, -0.07200809F,
    -0.11148736F, -0.046009243F, -0.08690633F, 0.118390486F, -0.04079181F,
    -0.08697106F, 0.1039201F, 0.019035012F, -0.05560951F, 0.08165574F,
    -0.115417F, 0.062610045F, -0.11316207F, 0.044460878F, 0.018044874F,
    0.09110701F, 0.0542538F, 0.08541304F, 0.06175925F, -0.03488688F, 0.06272729F,
    0.05700898F, 0.013142705F, -0.06073636F, -0.0241379F, -0.057181686F,
    -0.08059047F, -0.11076893F, 0.094987676F, -0.081907794F, 0.0045624524F,
    -0.035442114F, -0.11078507F, -0.05725035F, -0.11857921F, -0.05960916F,
    -0.048894033F, -0.106200114F, 0.026065156F, 0.074661955F, -0.030134171F,
    0.045154616F, -0.0130517185F, -0.009863764F, 0.123874724F, 0.035597056F,
    -0.10417761F, 0.06600134F, 0.003516525F, -0.06966776F, -0.03574449F,
    0.089898035F, 0.009993866F, -0.0766556F, 0.11269763F, 0.11676662F,
    0.093440324F, -0.09668361F, 0.03862028F, 0.004354283F, 0.031102791F,
    -0.049746096F, -0.09365447F, -0.12493105F, 0.0792446F, 0.03131129F,
    0.039225414F, 0.043987736F, 0.015409648F, 0.04987724F, -0.06868839F,
    0.014365137F, 0.079378575F, 0.1134702F, -0.060183436F, 0.074652985F,
    0.055729747F, -0.029014334F, -0.1215024F, -0.09833917F, -0.016142473F,
    -0.06483649F, -0.06756964F, 0.10403612F, 0.07975596F, -0.10397293F,
    0.1216277F, -0.015724912F, 0.08581917F, 0.04989122F, 0.121315524F,
    -0.0038396418F, -0.109858304F, 0.10800761F, -0.11693145F, 0.016392455F,
    0.08442859F, -0.07663371F, 0.12462078F, 0.0034104288F, -0.10131253F,
    0.010480776F, -0.0604178F, -0.10069877F, -0.059905812F, 0.057489872F,
    -0.09636499F, -0.016479984F, 0.005775109F, 0.12111409F, 0.07455397F,
    0.00673458F, 0.004643649F, -0.038694426F, -0.047735915F, -0.10340516F,
    0.05997424F, -0.016175687F, -0.106735155F, 0.12157568F, 0.06965354F,
    -0.019539982F, -0.07356405F, 0.070875466F, 0.06839408F, -0.013004646F,
    0.09697667F, 0.030564427F, 0.044266135F, 0.063285574F, -0.092977986F,
    -0.09920047F, -0.045820877F, -0.036327854F, -0.08820489F, -0.006419733F,
    -0.09224357F, -0.024900258F, 0.02951312F, 0.119530424F, -0.10808405F,
    0.052036658F, 0.05362685F, 0.10973354F, 0.11976637F, -0.04134485F,
    -0.11485627F, 0.069940895F, 0.10039529F, -0.12389405F, 0.029385582F,
    0.08565618F, -0.037739366F, 0.06995575F, 0.12165852F, 0.07517861F,
    0.122645885F, 0.1001441F, -0.06693858F, -0.12133211F, 0.054203898F,
    -0.11530967F, -0.10940367F, 0.023671359F, -0.039215207F, 0.11253928F,
    0.08055775F, -0.0602452F, -0.06284574F, 0.03614548F, -0.020532995F,
    -0.026190042F, 0.049021497F, -0.002843678F, 0.11479241F, -0.06490335F,
    -0.011552215F, 0.08103295F, -0.09548356F, 0.097389355F, -0.06222263F,
    -0.069453925F, 0.10135056F, -0.030317903F, 0.030737564F, 0.08642061F,
    -0.08484447F, 0.058440566F, 0.08939585F, 0.060010955F, 0.013729453F,
    0.007104814F, 0.041558266F, -0.118942976F, 0.0956357F, -0.049516395F,
    -0.04294613F, -0.030807883F, -0.036117435F, 0.08063389F, 0.038685232F,
    0.044816434F, -0.096742705F, 0.08363424F, -0.059003443F, -0.12023723F,
    -0.12251593F, 0.0154170245F, -0.09612003F, 0.05745405F, 0.07433462F,
    0.019043162F, 0.07311839F, -0.06646158F, -0.032319814F, -0.011376619F,
    -0.06232369F, 0.0319331F, -0.03997372F, 0.05182515F, -0.11115165F,
    0.086221516F, 0.05389002F, 0.103796735F, 0.05306703F, 0.014214963F,
    -0.107736245F, -0.042163923F, -0.032804742F, -0.06312746F, -0.036483765F,
    -0.07883048F, -0.097158074F, -0.053160712F, 0.029762402F, -0.060856625F,
    -0.08012088F, 0.0866255F, 0.096380234F, 0.090337515F, -0.00853233F,
    -0.09248066F, 0.11543676F, -0.068886206F, -0.05540441F, -0.11279403F,
    -0.07982141F, -0.01654081F, -0.10396604F, 0.060484305F, -0.039340705F,
    0.11168724F, -0.009130195F, -0.09386626F, -0.058055654F, -0.10880518F,
    0.010292202F, -0.06022933F, 0.114696294F, 0.04571046F, 0.1098669F,
    0.09429975F, -0.12471324F, 0.091508746F, -0.099222586F, -0.08629091F,
    -0.03731738F, 0.07496105F, -0.034722805F, 0.057720244F, 0.099350765F,
    0.017325819F, 0.02264072F, -0.07519676F, 0.07779467F, 0.034025997F,
    0.023661003F, 0.048751518F, 0.055591613F, -0.073981926F, 0.06623912F,
    0.08292726F, 0.081407204F, 0.009732291F, -0.028613493F, 0.11041181F,
    -0.014779732F, -0.09524123F, -0.05316326F, -0.070553586F, 0.08524254F,
    0.025260597F, 0.02413012F, -0.09237428F, 0.0046842843F, -0.06366536F,
    -0.039062873F, 0.08664693F, 0.0224462F, -0.024497077F, 0.04290612F,
    -0.0416338F, 0.023006797F, 0.053399935F, 0.053732514F, -0.09048471F,
    -0.100547284F, -0.10430713F, -0.038580284F, -0.01658763F, 0.094660446F,
    0.06245406F, 0.09913239F, 0.051835194F, -0.08887376F, -0.029967964F,
    0.055317402F, 0.08099125F, 0.023178041F, -0.07477698F, 0.09166731F,
    0.072877616F, -0.08641167F, 0.064031854F, -0.07089454F, -0.04114285F,
    0.011454985F, 0.0971065F, 0.12433168F, 0.09523007F, -0.061652437F,
    -0.11692549F, 0.000444144F, 0.11703843F, -0.01939556F, 0.10303961F,
    0.10344945F, 0.05474338F, -0.09657037F, 0.084243F, -0.107526064F,
    -0.11061421F, 0.0550199F, -0.06274903F, 0.112784624F, 0.017634407F,
    0.09565878F, -0.10772975F, 0.05316013F, 0.06894259F, -0.054132223F,
    0.0646954F, 0.10199526F, 0.04977575F, 0.015038341F, -0.011751443F,
    0.06288141F, -0.09612024F, -0.07684092F, -0.11624125F, -0.115972534F,
    -0.038980708F, 0.115479544F, 0.09833129F, 0.07035038F, -0.01767321F,
    -0.04855092F, 0.123293936F, 0.01699984F, 0.004325688F, 0.008578286F,
    -0.08545798F, -0.021386072F, 0.027798578F, 0.037740946F, 0.11573519F,
    0.030299202F, -0.114167005F, 0.12486084F, -0.095403984F, 0.040333107F,
    0.091746956F, -0.11829522F, 0.09055117F, 0.07001042F, 0.03311327F,
    -0.11061323F, 0.061091855F, 0.10219626F, -0.101211086F, -0.10191858F,
    -0.0012033135F, -0.024327978F, 0.11410087F, 0.0874868F, 0.09240125F,
    -0.047687948F, 0.0932723F, -0.042446896F, -0.03280349F, -0.075525984F,
    -0.07435928F, -0.09682621F, -0.008254617F, -0.020237103F, -0.045241162F,
    -0.12016742F, -0.08447215F, -0.09122917F, 0.01691398F, -0.046640247F,
    -0.018930733F, 0.039881542F, -0.01416862F, 0.10326579F, 0.040142864F,
    -0.024117872F, -0.059347227F, 0.0261814F, 0.027721837F, 0.10784197F,
    0.07572071F, -0.028791994F, -0.0060078204F, 0.08801773F, -0.040132746F,
    0.05800417F, 0.030326292F, 0.084673375F, -0.013469085F, -0.014169529F,
    0.032471716F, 0.036136746F, -0.021862432F, -0.06789696F, 0.07388039F,
    -0.094449505F, 0.05602084F, 0.06528334F, -0.070128724F, 0.041832566F,
    -0.04227878F, 0.044681236F, -0.027510926F, 0.10950053F, 0.09908587F,
    -0.05899176F, -0.07502271F, 0.03101717F, -0.060776114F, -0.0065938532F,
    0.06792426F, 0.10713877F, 0.08927949F, -0.08615342F, 0.042037174F,
    0.0610265F, 0.039290175F, 0.064792156F, -0.079762325F, -0.07200487F,
    0.009201065F, 0.099250644F, -0.057345256F, -0.10376102F, -0.1162691F,
    -0.08312087F, -0.08980951F, -0.12281297F, -0.008199722F, 0.087593004F,
    -0.113444984F, 0.08561769F, 0.028873503F, -0.081827775F, -0.11683044F,
    0.09753758F, -0.07723597F, -0.06495161F, 0.055515647F, -0.0535592F,
    0.08177902F, 0.07992895F, -0.028504074F, 0.033501074F, -0.0714546F,
    -0.03914523F, 0.011105716F, -0.023305446F, -0.06606139F, -0.101123035F,
    0.08102262F, -0.116184354F, -0.04513426F, -0.094461456F, -0.009127021F,
    -0.0057091415F, 0.112908855F, 0.0995525F, -0.11583747F, 0.049713865F,
    -0.06392619F, -0.061478764F, -0.036496222F, 0.114299014F, -0.10092355F,
    -0.019144878F, -0.11888386F, -0.11160864F, -0.0075458586F, 0.028718397F,
    -0.01758118F, -0.06958015F, -0.06759396F, -0.10695991F, -0.008547023F,
    0.038979262F, -0.08179276F, 0.11103962F, 0.026115298F, -0.06992227F,
    0.04343669F, -0.08362338F, 0.10249117F, -0.08846147F, -0.0400265F,
    0.09492254F, 0.11542146F, 0.033762902F, -0.06556444F, -0.057045683F,
    -0.024055317F, -0.11180206F, -0.06507693F, 0.023602441F, -0.08653039F,
    0.012034252F, 0.022647068F, -0.08954756F, -0.049600944F, -0.017717168F,
    0.022940546F, -0.085386574F, 0.022564515F, -0.06012371F, 0.09872903F,
    -0.07296859F, 0.07804389F, -0.06855664F, -0.02228795F, 0.089418605F,
    -0.037259758F, -0.04007551F, -0.048074454F, 0.025673792F, -0.048657462F,
    -0.09934658F, 0.08368404F, -0.06676251F, 0.017988846F, -0.07471068F,
    0.042136937F, -0.050101057F, 0.008292675F, -0.07861099F, 0.034496844F,
    -0.057252765F, -0.074826255F, 0.11772969F, -0.12369928F, 0.11721285F,
    -0.05567567F, 0.031745777F, 0.08243872F, 0.033595428F, -0.033781007F,
    -0.03861156F, -0.0155851245F, -0.120771736F, -0.006421894F, -0.02417627F,
    0.08317393F, 0.06218867F, -0.053119615F, -0.0859388F, -0.035939723F,
    0.10787451F, -0.05658476F, 0.112093F, 0.08472775F, -0.08731955F,
    -0.060417876F, 0.04576367F, -0.116217345F, 0.056789055F, 0.12166418F,
    -0.0062208474F, -0.07755008F, -0.07298556F, 0.07872856F, -0.019972295F,
    0.06946245F, 0.07438019F, 0.10434878F, 0.092899784F, -0.122347385F,
    0.014764875F, 0.0031871796F, 0.100187674F, -0.05748804F, -0.08632463F,
    -0.068765F, -0.06619462F, 0.031608373F, 0.038625315F, -0.0015185326F,
    0.0747339F, -0.07257427F, -0.09900625F, -0.009395778F, 0.016547546F,
    0.08250418F, -0.0877468F, 0.0762738F, 0.007601768F, 0.001170069F,
    0.052066132F, 0.0447042F, 0.032265544F, 0.030737504F, -0.0008763373F,
    -0.10640423F, 0.032151565F, 0.11846037F, 0.07122545F, 0.09817204F,
    0.016840324F, 0.09884755F, 0.009996563F, 0.11602992F, -0.10791674F,
    0.09427446F, -0.07332021F, -0.031858608F, -0.006558627F, -0.044019848F,
    -0.08539432F, 0.08091767F, -0.11177297F, -0.06145376F, 0.107934505F,
    -0.11912018F, -0.10312891F, 0.08378799F, 0.061033025F, 0.10257901F,
    -0.106585965F, -0.11176135F, -0.07063128F, -0.092507765F, -0.078450784F,
    -0.07262364F, 0.06972113F, 0.079832345F, -0.057871148F, 0.106173575F,
    -0.05246237F, 0.034437135F, -0.12211533F, 0.073391035F, 0.06992109F,
    -0.06834349F, -0.046148524F, -0.041424543F, 0.043814242F, -0.06163585F,
    -0.124151275F, 0.061255246F, -0.022245124F, -0.10744108F, -0.019694716F,
    0.020869419F, -0.007425368F, 0.09610726F, -0.010737076F, 0.073278904F,
    -0.058062345F, 0.10796453F, -0.08412753F, -0.032958373F, 0.022855043F,
    -0.10345535F, 0.08710784F, -0.01803404F, 0.08002786F, 0.022610277F,
    -0.025611639F, 0.09922774F, -0.055098683F, -0.026541665F, -0.07147917F,
    0.06283134F, 0.068243936F, -0.0647379F, 0.08938201F, -0.10869758F,
    -0.063233435F, 0.11720683F, -0.056082368F, -0.11775328F, 0.07478604F,
    0.09309557F, 0.11906853F, 0.025838852F, 0.07786608F, -0.100324824F,
    0.04135728F, 0.105415195F, 0.097014725F, -0.014291108F, 0.007159978F,
    0.104967624F, -0.027334303F, -0.04298827F, -0.11685532F, 0.10311666F,
    -0.10213563F, -0.1109826F, 0.029063255F, 0.035104573F, -0.12075691F,
    0.013958856F, -0.017629072F, -0.11980742F, -0.08686942F, 0.050406456F,
    0.021383137F, 0.04353425F, 0.05195509F, -0.06552175F, 0.088171765F,
    0.114341065F, -0.08727221F, 0.09025334F, 0.07927589F, 0.09019777F,
    -0.088902205F, -0.081180796F, -0.0123414695F, 0.12342125F, -0.040122762F,
    -0.038671166F, 0.06518185F, 0.056830138F, -0.022064239F, 0.017189443F,
    0.0964099F, -0.047295317F, 0.08077228F, -0.09645577F, 0.08345531F,
    -0.08371407F, -0.083765626F, 0.012399778F, -0.06622867F, 0.027665794F,
    -0.009894893F, 0.02300708F, -0.05496636F, 0.08975576F, -0.07179046F,
    0.064284876F, 0.008949682F, -0.025878638F, 0.104586795F, -0.05061333F,
    0.04219249F, 0.119821474F, 0.08055946F, 0.048481405F, 0.015596315F,
    0.0044731945F, -0.036355466F, -0.05704747F, -0.11647762F, 0.015208334F,
    0.110529065F, -0.07963143F, 0.11230801F, 0.0066055357F, 0.0677696F,
    -0.010803416F, 0.01815252F, -0.07400237F, 0.085819826F, 0.0050421655F,
    -0.12173636F, 0.07172829F, 0.10358843F, -0.05836712F, 0.03093034F,
    0.096071884F, 0.04574214F, -0.09833087F, -0.11965527F, 0.045429423F,
    -0.099850535F, -0.053690597F, -0.036102936F, 0.11701654F, -0.020502806F,
    -0.11024964F, -0.086730644F, -0.103899166F, -0.09795557F, 0.092986256F,
    -0.06285615F, -0.024055079F, 0.07967374F, 0.087216735F, 0.07778765F,
    0.049846947F, -0.01742801F, 0.048731104F, 0.108107895F, -0.07729527F,
    -0.091107085F, -0.056082338F, -0.019506514F, 0.013786793F, -0.0054852515F,
    -0.06973094F, -0.08801F, 0.062029123F, 0.10855827F, -0.120052025F,
    0.014259964F, 0.03657882F, 0.04975757F, -0.082001165F, 0.08208351F,
    0.004118651F, 0.062213957F, 0.1191767F, -0.05916655F, 0.053671718F,
    -0.10284421F, 0.113030106F, 0.01308535F, 0.050017655F, -0.0636739F,
    -0.0059328675F, -0.059133545F, -0.0102171F, -0.017249718F, -0.11413507F,
    -0.010785788F, 0.0789098F, 0.058899924F, -0.042344347F, -0.016675368F,
    0.09995644F, -0.11653213F, -0.055614337F, -0.04881586F, -0.12363896F,
    0.019929364F, 0.07700892F, -0.06045653F, -0.051166356F, 0.086501926F,
    -0.09209435F, 0.10486224F, -0.08404671F, -0.034936413F, -0.1163194F,
    -0.082328424F, 0.029300556F, 0.079178706F, 0.09149568F, 0.02806653F,
    0.10186778F, 0.051499754F, -0.07456109F, 0.019381642F, -0.043739125F,
    -0.013306513F, -0.030540317F, -0.03763348F, 0.065709576F, -0.060672775F,
    -0.011571944F, -0.007832542F, -0.050595567F, 0.01880522F, 0.033020616F,
    0.08163138F, -0.0117971F, 0.05666107F, 0.06947188F, -0.067607984F,
    0.036772683F, -0.0902324F, -0.02255404F, 0.054132074F, 0.09940721F,
    0.0028382093F, -0.071367726F, -0.11138411F, -0.06459193F, -0.057560503F,
    0.013094127F, 0.086581826F, 0.047422543F, -0.08765158F, -0.004002869F,
    -0.038851485F, -0.11012229F, -0.11835341F, -0.063510865F, -0.014839858F,
    0.08762275F, 0.09006889F, 0.097341746F, -0.10636106F, 0.021475315F,
    -0.09156105F, -0.076010734F, 0.0641129F, -0.089436606F, 0.0673635F,
    -0.004739061F, -0.00394319F, -0.019732878F, 0.09836668F, -0.037148595F,
    0.02139926F, 0.048932806F, 0.0642166F, -0.07948743F, -0.0920213F,
    -0.061907068F, 0.0875497F, 0.033216506F, 0.008223757F, 0.005381644F,
    -0.0064193606F, -0.1068199F, 0.10705662F, 0.051872656F, -0.02332829F,
    -0.12290414F, -0.05644679F, -0.053253055F, 0.028334871F, -0.055161178F,
    0.049835414F, -0.113738954F, 0.111213446F, 0.044475853F, -0.014272392F,
    -0.0724199F, 0.07388583F, -0.05654165F, 0.05069524F, 0.028729051F,
    -0.053099006F, -0.101263195F, 0.11339788F, -0.06922585F, 0.048854828F,
    0.0369965F, -0.071677014F, -0.0718393F, 0.046184584F, 0.112693235F,
    -0.10693765F, -0.09398109F, -0.032565862F, -0.04103291F, -0.068112016F,
    0.1108502F, -0.05757399F, 0.012151301F, -0.031680718F, 0.04870753F,
    0.064305946F, -0.018731743F, -0.017821565F, 0.060567275F, 0.0636823F,
    0.07175006F, 0.10083455F, -0.09079562F, 0.02939175F, 0.10333718F,
    0.015161306F, -0.0034284294F, -0.0803089F, 0.06678322F, 0.10722242F,
    0.06995803F, -0.049810454F, 0.063302994F, 0.11414702F, -0.10068044F,
    0.096664995F, 0.116483316F, -0.07659547F, -0.0614634F, 0.021598846F,
    0.120985135F, 0.0652823F, 0.09813915F, -0.12305662F, -0.016735509F,
    -0.01003854F, 0.036755815F, -0.066229254F, -0.12354559F, 0.10211955F,
    -0.048849583F, 0.028426439F, -0.11316724F, 0.12248653F, -0.03251788F,
    0.10651699F, -0.11535022F, 0.050788373F, 0.07356408F, 0.007564664F,
    -0.07256028F, 0.10417269F, -0.0849839F, 0.01776369F, 0.060220957F,
    0.12043598F, 0.10331686F, -0.0012768954F, 0.08021051F, 0.084006175F,
    -0.043286264F, -0.0054022223F, -0.080166265F, -0.07074253F, 0.05242929F,
    0.0004002005F, 0.053487033F, -0.054319933F, -0.0018138438F, 0.017061248F,
    -0.006905973F, -0.05675225F, 0.10605633F, -0.050647065F, -0.020374432F,
    0.099612415F, -0.07731767F, -0.06541538F, 0.047953963F, 0.06785405F,
    0.046328515F, 0.08087352F, -0.08025102F, -0.092981786F, 0.029386342F,
    -0.023731977F, -0.063666105F, 0.06630702F, 0.06696962F, -0.09403145F,
    0.03560613F, 0.023859575F, 0.026689574F, 0.11408891F, -0.08639033F,
    0.0005081743F, -0.10823098F, -0.054931417F, 0.07575908F, 0.06806846F,
    0.010819256F, -0.04275374F, -0.02959989F, 0.04850085F, -0.06132655F,
    0.08845757F, -0.11375852F, 0.04486987F, 0.11525923F, -0.023094326F,
    -0.094944865F, 0.08031416F, 0.098480135F, 0.013740435F, -0.10451123F,
    -0.0014447868F, -0.11247653F, 0.08208895F, 0.09434086F, -0.046569675F,
    -0.023698255F, 0.02106373F, 0.07305564F, -0.11399205F, -0.092368156F,
    0.03818558F, -0.046880603F, 0.08161768F, -0.06990501F, 0.004080519F,
    0.10220799F, 0.096971184F, 0.062190115F, 0.025296763F, 0.045990914F,
    -0.05168937F, 0.08971259F, 0.06867403F, -0.04551463F, 0.083724946F,
    0.004687354F, 0.0884759F, -0.0962106F, -0.0051308125F, 0.019905671F,
    -0.03662792F, 0.0044861585F, -0.035502106F, 0.08146784F, 0.110622644F,
    -0.05521339F, -0.026084617F, -0.043628395F, -0.037910327F, -0.015885025F,
    0.09665848F, -0.07200074F, -0.07197718F, 0.059180215F, -0.029294252F,
    -0.047426343F, 0.085259736F, -0.021185562F, 0.073091716F, 0.02206342F,
    -0.11024676F, 0.031910136F, 0.030819207F, 0.012051001F, -0.07740338F,
    0.032605737F, 0.031837255F, -0.021028027F, -0.09471986F, -0.0037821978F,
    0.004144177F, 0.055131137F, -0.1042463F, 0.049223125F, 0.11255874F,
    0.10908027F, 0.05732982F, -0.018955752F, 0.04679711F, -0.068104F,
    -0.0065511763F, -0.07310721F, -0.0061915964F, -0.101214096F, -0.007998019F,
    -0.024659619F, -0.11285579F, 0.08828828F, 0.029131964F, 0.0060314536F,
    -0.029569358F, 0.019689292F, 0.09781271F, -0.009361237F, 0.09903704F,
    0.0416549F, 0.00029423833F, 0.050514102F, 0.0047391206F, 0.042712957F,
    0.045115605F, -0.01817505F, 0.067130804F, -0.07969107F, -0.033883274F,
    0.10911445F, -0.058507726F, 0.037050232F, -0.0037863553F, 0.03154607F,
    0.0519619F, -0.04194352F, 0.08583455F, -0.09160781F, 0.072038025F,
    0.09577641F, -0.10345216F, -0.033067584F, -0.008615151F, 0.084545285F,
    0.0614675F, -0.10371618F, -0.035127252F, 0.03259833F, 0.09042765F,
    0.11341572F, -0.05944982F, 0.014605522F, -0.023938209F, -0.0034666806F,
    0.056315407F, 0.029666618F, -0.017149001F, -0.10189061F, -0.099872455F,
    -0.04525405F, 0.023894131F, 0.02954343F, 0.046403125F, -0.03621611F,
    -0.07507254F, 0.049009547F, 0.0971818F, 0.10895696F, -0.03604281F,
    -0.08404547F, -0.01538232F, -0.10654421F, -0.021949366F, 0.04982607F,
    0.111142695F, -0.10317944F, -0.049349964F, 0.04377778F, 0.04791829F,
    0.06277479F, -0.033619866F, -0.009269968F, -0.08650659F, 0.00831601F,
    -0.11955272F, 0.058100477F, -0.054505304F, 0.04788746F, -0.07713583F,
    0.042160794F, -0.04186085F, -0.09802392F, -0.08996971F, 0.02755031F,
    -0.04556869F, -0.12430319F, 0.057259545F, 0.006211385F, -0.044076994F,
    -0.1183625F, 0.058709487F, 0.0553703F, -0.019223645F, 0.085408255F,
    -0.12100582F, -0.051251158F, -0.08737752F, -0.071277976F, 0.10048589F,
    -0.0501761F, -0.09351167F, 0.1018094F, -0.016241252F, 0.042356238F,
    0.08164266F, -0.05279298F, 0.022123128F, -0.0060780197F, 0.111105934F,
    0.0824458F, -0.12171598F, -0.05929318F, -0.022184744F, 0.007773474F,
    -0.09870669F, -0.0026680827F, -0.05815944F, 0.071638614F, 0.0904406F,
    0.03989777F, -0.002877444F, 0.07716586F, 0.05457382F, 0.093475014F,
    -0.04753256F, 0.11833054F, -0.10087933F, -0.070162535F, -0.08005743F,
    0.07168558F, -0.074940756F, -0.07713632F, 0.05978231F, 0.090279475F,
    0.031104863F, -0.066588044F, -0.06522392F, 0.10786569F, 0.06156169F,
    -0.06509811F, 0.0961014F, -0.10155289F, -0.10940491F, 0.014329344F,
    -0.111039996F, 0.06787352F, 0.10261132F, -0.04405293F, 0.020660251F,
    0.06892356F, 0.097443596F, -0.123350725F, 0.0093847215F, 0.124031514F,
    0.0048837066F, 0.049812406F, 0.09143177F, 0.024043709F, 0.11203055F,
    -0.018444687F, 0.038858682F, -0.08930136F, 0.10011321F, -0.0667579F,
    0.09973757F, -0.09562187F, 0.11442651F, 0.044197276F, 0.11080401F,
    -0.047072947F, -0.095932335F, 0.098041F, -0.067969084F, -0.06820345F,
    -0.046110034F, -0.04059741F, -0.04551679F, -0.08203022F, -0.0145602375F,
    -0.06996083F, 0.07622127F, -0.095193386F, 0.098479345F, -0.11432256F,
    0.093361005F, 0.1053381F, 0.07973948F, 0.03983599F, 0.06318268F,
    -0.07572436F, 0.12206161F, 0.10686542F, 0.062879905F, -0.092286065F,
    0.08344993F, -0.007550463F, 0.07028955F, 0.012486324F, 0.10504298F,
    -0.001748696F, -0.041628733F, -0.07299402F, 0.002630487F, -0.05599831F,
    -0.011183083F, 0.057971567F, 0.06931764F, -0.016315088F, -0.09152353F,
    -0.09777811F, 0.00091169775F, 0.10293619F, -0.009871766F, 0.04488927F,
    -0.020148873F, -0.11330579F, -0.12397531F, 0.017747626F, 0.018137276F,
    -0.0037992895F, -0.09663619F, 0.07326846F, 0.08976725F, 0.06965636F,
    -0.021407321F, 0.10207769F, -0.09553531F, 0.09426424F, -0.07454619F,
    -0.11647563F, 0.083185F, 0.11644767F, -0.05529335F, -0.028204054F,
    0.088615194F, 0.09901044F, 0.01616919F, -0.004007995F, -0.0189071F,
    0.06753251F, -0.054086164F, 0.06862739F, -0.037711978F, -0.11748813F,
    0.030193552F, 0.097440556F, -0.08861992F, 0.050265357F, 0.09813839F,
    0.10654347F, -0.051976293F, -0.066836044F, -0.052587494F, 0.08790696F,
    -0.005694121F, 0.014594153F, -0.036612645F, -0.07377851F, 0.017645434F,
    0.008789465F, -0.061155006F, -0.089382514F, 0.08419165F, -0.109979734F,
    -0.029558912F, 0.027600244F, 0.044545636F, 0.053226992F, -0.006392345F,
    -0.11067514F, -0.1175542F, -0.04214798F, 0.06075588F, 0.12163223F,
    -0.012488857F, -0.031390905F, 0.073109806F, -0.0017283857F, 0.0025505722F,
    -0.07230951F, 0.073399276F, -0.112145066F, 0.0015996993F, 0.11792928F,
    0.09234998F, -0.03281395F, -0.113795236F, 0.0970301F, -0.062947914F,
    0.07373583F, 0.017138988F, -0.086512715F, -0.053534016F, -0.034768537F,
    0.117465705F, -0.054198235F, 0.11880532F, -0.026778668F, 0.06793526F,
    0.021151707F, 0.070188716F, -0.0123054385F, -0.06360555F, 0.03857255F,
    -0.06606212F, 0.03144078F, -0.0003747046F, 0.08547185F, 0.033709258F,
    -0.0411326F, -0.011025518F, -0.060280666F, -0.1091883F, -0.11149685F,
    0.07457553F, 0.119085014F, 0.013128519F, 0.009992912F, 0.008342847F,
    0.093322426F, -0.06690368F, 0.08672094F, 0.028167546F, -0.045604184F,
    0.027176812F, -0.043541983F, 0.04635842F, -0.02117981F, -0.0951585F,
    0.09916417F, 0.067143396F, -0.020761639F, 0.0075365603F, -0.112221345F,
    0.029122084F, 0.022689164F, -0.0002489388F, -0.10769543F, 0.060143217F,
    -0.09131917F, 0.0037700385F, -0.046175048F, -0.082025096F, 0.07069497F,
    -0.1075843F, 0.008889228F, 0.078163415F, -0.010652766F, 0.0416577F,
    0.0015646964F, -0.08510417F, -0.07540749F, -0.048944145F, -0.0967882F,
    0.007856384F, -0.12335256F, 0.049622953F, 0.090088576F, 0.027118847F,
    -0.121286705F, -0.11559017F, 0.06138909F, 0.08026235F, 0.06957914F,
    0.10692693F, 0.051893696F, 0.094357476F, 0.013257295F, 0.097201064F,
    0.10702382F, 0.020334825F, -0.08183324F, 0.044406638F, 0.027268276F,
    -0.013254076F, 0.028685719F, -0.110739455F, 0.11406155F, 0.01867938F,
    -0.044343337F, 0.006060049F, -0.020063937F, -0.10974379F, -0.11991869F,
    -0.040143713F, -0.05299093F, 0.020611212F, -0.09692466F, 0.087156996F,
    -0.06878857F, 0.022256792F, -0.089574784F, 0.018179998F, -0.09666884F,
    0.023089364F, -0.056708336F, -0.030010834F, -0.064562306F, -0.073960826F,
    -0.08907032F, 0.11616856F, -0.057091042F, 0.052704155F, -0.035939157F,
    0.049107432F, 0.046064094F, -0.10235663F, -0.046368524F, 0.023082599F,
    0.09260756F, -0.017074794F, 0.09715241F, -0.12243314F, -0.08159876F,
    -0.03401442F, -0.05873394F, -0.04006578F, 0.0049710423F, -0.050386563F,
    -0.05454296F, 0.108882144F, -0.06642769F, 0.09881753F, -0.101640806F,
    0.005443722F, 0.01752159F, 0.076427266F, 0.04848598F, 0.048080504F,
    0.09144904F, 0.1093708F, -0.11304551F, 0.087793544F, -0.08928625F,
    -0.10685888F, -0.05345449F, -0.07205731F, -0.05851893F, -0.10064179F,
    -0.122825906F, -0.020970136F, 0.12226029F, -0.04544027F, 0.005149007F,
    0.10719782F, 0.031500116F, 0.006863609F, 0.10455617F, 0.012509629F,
    -0.05624728F, 0.023683175F, -0.07375005F, -0.07052407F, 0.03326471F,
    -0.05769986F, 0.005728662F, -0.06268327F, -0.05749707F, -0.104185686F,
    -0.09032065F, -0.003831327F, 0.002210468F, 0.015372813F, 0.038527057F,
    0.011306956F, -0.040092394F, -0.11219293F, -0.10966414F, -0.049037248F,
    0.11991559F, 0.117277116F, 0.03547798F, -0.0948623F, 0.052657336F,
    -0.11508004F, 0.091348544F, 0.10750249F, -0.044535205F, 0.009959668F,
    0.11537154F, -0.107877955F, -0.086975545F, 0.1058175F, -0.04782477F,
    -0.08590488F, -0.027438655F, -0.0014688373F, 0.025354862F, 0.052397266F,
    0.012056068F, 0.009640008F, -0.1158265F, -0.015447348F, 0.030555695F,
    0.081134975F, -0.066829816F, -0.110569686F, 0.08764891F, -0.034552276F,
    -0.11533956F, -0.020753503F, -0.023893908F, -0.016906977F, 0.11909543F,
    -0.04504764F, -0.0064852536F, 0.106670305F, -0.0382189F, -0.097646564F,
    0.0013934225F, 0.09993854F, 0.06387752F, 0.07039036F, 0.11459848F,
    0.06035243F, 0.024386227F, -0.03026779F, 0.0027051568F, 0.07193765F,
    0.09787695F, -0.026148021F, -0.11147188F, -0.10244632F, -0.01940927F,
    0.061960638F, 0.011941776F, 0.022179201F, -0.049211696F, -0.08819981F,
    -0.010423467F, 0.0028392076F, -0.08671306F, 0.09286806F, 0.048574418F,
    -0.12048811F, 0.08327444F, -0.06237936F, 0.0022931248F, 0.066668525F,
    0.09141946F, -0.08785936F, 0.029701695F, 0.08220971F, -0.002123773F,
    0.11678377F, 0.04739073F, 0.037498936F, -0.09083131F, -0.09893346F,
    -0.031930596F, -0.050760627F, -0.055857748F, -0.078190684F, 0.12236862F,
    0.07798892F, -0.0061270148F, 0.026639402F, -0.029080793F, 0.031364977F,
    -0.008060843F, 0.0988566F, -0.096459806F, -0.025655836F, 0.08036375F,
    -0.05218987F, -0.004257068F, 0.10695799F, -0.08705449F, -0.08179286F,
    -0.04227847F, -0.10988949F, -0.044044837F, -0.111240804F, -0.06939398F,
    -0.10817252F, -0.07400726F, 0.09780553F, -0.07369237F, 0.03469418F,
    -0.12028694F, -0.019608468F, 0.01610601F, -0.07151246F, 0.0003296137F,
    -0.07091984F, 0.04275161F, 0.085008174F, -0.03786184F, -0.047271013F,
    0.029149577F, 0.0029654503F, -0.03916657F, 0.062059984F, 0.10133901F,
    0.07529108F, -0.0061818957F, -0.03130786F, 0.019594267F, -0.0075286925F,
    -0.064764366F, 0.098639324F, -0.112012684F, 0.00061513484F, -0.06483388F,
    -0.01302968F, 0.035769075F, 0.06103836F, -0.0018327683F, -0.07683408F,
    0.08274451F, -0.0001693666F, 0.033111885F, -0.058267206F, 0.045940742F,
    -0.015976787F, 0.028005987F, -0.060092255F, 0.051610872F, 0.0036935806F,
    -0.0258504F, 0.088303685F, 0.06602405F, 0.10852854F, 0.030612305F,
    -0.06969808F, 0.092992485F, 0.009678319F, 0.00951916F, 0.033620298F,
    0.10980764F, -0.078173116F, 0.09794746F, 0.08050151F, 0.082230866F,
    -0.077284396F, -0.021540105F, 0.069181755F, 0.023092002F, 0.09534362F,
    0.0067661703F, 0.09815912F, -0.040690154F, 0.022540644F, -0.039160103F,
    -0.015730008F, 0.121782556F, -0.08456083F, 0.072625905F, -0.060375646F,
    -0.110619724F, 0.076639965F, -0.031222016F, -0.079298824F, -0.0102059245F,
    -0.119836226F, 0.0932658F, 0.0040403306F, -0.115433425F, 0.053057045F,
    -0.019969761F, -0.043852046F, 0.013508886F, 0.07776989F, -0.055983588F,
    0.033512115F, 0.02169156F, 0.030121803F, 0.05111824F, 0.0076622814F,
    0.044994697F, 0.0312901F, -0.045969427F, -0.03546174F, 0.041727796F,
    0.11222848F, 0.11878197F, 0.08445011F, 0.10093543F, 0.112010226F,
    -0.041540712F, 0.09528312F, 0.0665365F, -0.061694458F, 0.10633233F,
    0.007938698F, -0.041784048F, -0.070896804F, 0.03456804F, -0.048755005F,
    -0.01424323F, 0.09377101F, 0.10239081F, -0.055761993F, 0.053976417F,
    0.03793104F, 0.11530608F, 0.06597695F, -0.121496424F, 0.05334954F,
    -0.10042448F, -0.034975544F, -0.09378588F, 0.12313989F, -0.067803636F,
    0.07160288F, 0.123570114F, -0.05517879F, -0.106123924F, 0.11851899F,
    0.0035430193F, 0.11204149F, 0.0867282F, -0.04113382F, -0.066051096F,
    -0.06535025F, -0.06500183F, -0.07836416F, 0.07786752F, -0.10084182F,
    0.07958835F, 0.0010004938F, 0.039640114F, 0.10389392F, -0.08937231F,
    0.019135952F, -0.08816597F, 0.10766041F, -0.029852375F, -0.11970168F,
    -0.10161884F, 0.0038098842F, 0.079197615F, -0.0043199956F, -0.062216222F,
    0.070869416F, 0.032993853F, 0.006027192F, -0.12369634F, -0.009914145F,
    0.11299485F, 0.06747529F, -0.022673398F, 0.1085341F, 0.101374656F,
    0.08282295F, -0.11040482F, -0.06766951F, -0.022010952F, -0.117852926F,
    -0.10877226F, -0.084650785F, 0.03143397F, -0.11713764F, 0.075784475F,
    0.006006494F, -0.08295998F, 0.06887004F, 0.10720913F, -0.039145485F,
    -0.09049675F, 0.118217334F, 0.06817572F, 0.029345691F, 0.061558664F,
    -0.056714863F, 0.03485903F, 0.08767907F, -0.0058891475F, -0.009180054F,
    -0.098215386F, -0.03195545F, 0.04385321F, -0.111625925F, -0.021737471F,
    0.06797227F, -0.013466179F, 0.09155719F, -0.10075608F, -0.023577377F,
    -0.09082569F, -0.035750195F, -0.04273145F, -0.10010849F, -0.12164004F,
    0.03583239F, -0.009320527F, -0.019674882F, -0.12126207F, -0.037202552F,
    0.045631334F, 0.032645106F, -0.018178716F, 0.06103994F, 0.004055798F,
    -0.077707455F, -0.043653265F, -0.11201528F, 0.043039173F, 0.09421207F,
    0.043754086F, -0.061416745F, -0.07359755F, 0.0879444F, 0.11021276F,
    0.0011553913F, -0.02909933F, 0.02392234F, 0.020099282F, 0.10796729F,
    -0.040486366F, 0.102765694F, -0.095206454F, 0.034601048F, 0.03108573F,
    0.073921055F, 0.06015618F, -0.018699199F, 0.11438888F, 0.108456016F,
    -0.045248136F, 0.06656453F, 0.07086454F, 0.11151378F, 0.03198354F,
    -0.06337559F, 0.06282228F, -0.11320232F, 0.011876687F, -0.040549174F,
    0.048992276F, 0.12010433F, -0.04218337F, 0.058306247F, -0.016430393F,
    0.00643456F, 0.007818267F, 0.08074394F, -0.059942096F, -0.037745073F,
    0.094417706F, 0.04012619F, -0.08209258F, 0.04006268F, -0.08042708F,
    -0.12482704F, -0.027654797F, -0.042104587F, -0.0043349415F, 0.06399429F,
    0.05956067F, 0.006738186F, -0.037242725F, -0.06604247F, 0.038226232F,
    -0.06969334F, -0.089222446F, 0.092507124F, -0.025040701F, 0.045789525F,
    0.012564376F, 0.01679486F, 0.016874745F, -0.0633315F, 0.04429008F,
    0.11171384F, 0.12247829F, -0.007283315F, -0.0060950667F, 0.12456441F,
    -0.106699705F, -0.02447547F, 0.06649178F, 0.07413858F, -0.085483775F,
    -0.08406654F, -0.045250982F, 0.02686654F, 0.123450786F, -0.02743505F,
    0.02998884F, 0.076419234F, 0.11499478F, 0.006488383F, 0.09477773F,
    0.012214616F, -0.059353292F, 0.007704556F, -0.011725262F, 0.024012223F,
    0.018507466F, -0.017730013F, 0.086603716F, 0.01554805F, -0.0014369339F,
    -0.050901443F, 0.041754186F, 0.05802135F, -0.09985426F, 0.03148879F,
    0.010473147F, -0.014921978F, -0.11008687F, -0.0949126F, 0.0753303F,
    0.117352515F, 0.012485459F, 0.059070095F, -0.056636527F, -0.032187477F,
    -0.12224232F, -0.07154702F, 0.09059283F, -0.039100602F, -0.11573894F,
    0.079905346F, 0.12166728F, -0.059096605F, -0.0411181F, 0.09702729F,
    0.1112383F, -0.0038189292F, -0.017623857F, 0.109175906F, 0.09243102F,
    0.026646003F, 0.009363115F, -0.037605822F, -0.10590851F, 0.119558245F,
    0.015269786F, 0.08232635F, -0.123149246F, -0.10279395F, -0.050672248F,
    0.119393736F, -0.079865426F, 0.05482015F, 0.056696683F, -0.060741648F,
    0.07266125F, -0.041386172F, -0.027269647F, -0.11162946F, 0.09297697F,
    0.10130347F, 0.032532066F, -0.019647717F, -0.04364334F, 0.009751916F,
    0.12228325F, -0.10923286F, -0.08766256F, 0.09681423F, 0.05110444F,
    0.0975903F, -0.07723628F, 0.0485259F, -0.0077928454F, 0.106785476F,
    -0.09048796F, -0.056598946F, 0.07960616F, -0.10793136F, 0.04605268F,
    0.039631024F, 0.112316F, 0.10922614F, 0.06203191F, 0.0074144453F,
    0.030616581F, 0.026189595F, -0.041420102F, -0.044679F, -0.098853424F,
    -0.10489249F, -0.12323943F, 0.066403836F, -0.05193883F, 0.016511992F,
    0.015654922F, -0.009880856F, -0.120017886F, 0.12225002F, -0.025392517F,
    -0.002698049F, -0.010914221F, -0.12118213F, -0.03276761F, 0.082847014F,
    -0.11723435F, 0.032357827F, -0.043132186F, 0.093234286F, 0.103730485F,
    -0.10649888F, 0.024689063F, -0.050337315F, -0.08969918F, 0.04994026F,
    -0.061448157F, -0.06641635F, -0.0032436699F, -0.08348222F, -0.12249F,
    0.0378211F, 0.0165357F, 0.050852418F, 0.017487481F, -0.11806761F,
    -0.1156185F, -0.013837561F, -0.059995234F, -0.016580924F, -0.028123617F,
    0.12157188F, 0.10272731F, -0.049800962F, -0.06973061F, 0.0399293F,
    0.060563907F, -0.044110134F, -0.0721537F, -0.08302766F, -0.03200458F,
    0.100456506F, -0.079000786F, 0.041227207F, -0.11061993F, 0.10769105F,
    0.09610632F, 0.050699905F, 0.016461208F, 0.09286176F, 0.08741258F,
    0.09096819F, -0.10717894F, -0.015852168F, -0.07540047F, 0.08053146F,
    -0.0275487F, 0.015057683F, -0.08746913F, 0.10596904F, -0.03389877F,
    -0.08474611F, 0.049717188F, 0.057019398F, -0.033568233F, 0.10361545F,
    -0.06914157F, 0.037525848F, 0.020024344F, -0.06863809F, 0.0927497F,
    0.027244106F, 0.10094252F, 0.10932118F, 0.11838621F, -0.07706158F,
    -0.035896614F, -0.053661913F, 0.11978486F, -0.0036761165F, 0.056286395F,
    -0.12404318F, 0.032572046F, 0.017864048F, -0.011965826F, 0.024098486F,
    -0.016343161F, -0.02922614F, -0.08467522F, 0.034311295F, 0.07118766F,
    -0.040315032F, -0.055850416F, 0.09317714F, 0.033595547F, -0.034521744F,
    -0.09011033F, 0.08472523F, 0.06101358F, 0.009180009F, 0.12266408F,
    0.05652976F, 0.064110756F, 0.11165063F, -0.04020372F, -0.07893652F,
    -0.08506134F, -0.068552405F, -0.0791495F, 0.02858217F, 0.10570678F,
    -0.083678454F, 0.007873803F, -0.081522495F, 0.029769033F, 0.06185189F,
    0.12300499F, 0.04235126F, -0.11244951F, 0.035430863F, -0.038456738F,
    -0.09493339F, -0.04565394F, 0.12100728F, -0.12248185F, -0.015100986F,
    -0.030821428F, -0.09878175F, -0.08357139F, 0.06011778F, 0.048773453F,
    -0.119441986F, 0.055959284F, 0.116186455F, -0.044598266F, -0.04480046F,
    0.0469705F, -0.058941558F, 0.04333152F, -0.048343137F, -0.09296903F,
    -0.03264931F, -0.022082731F, 0.113049984F, -0.11516376F, -0.06481725F,
    -0.04950273F, 0.064115286F, 0.08410962F, -0.015214041F, 0.11532986F,
    0.010296121F, 0.06237547F, -0.11364752F, -0.008705273F, 0.032222137F,
    -0.124236315F, -0.08104329F, 0.056941375F, 0.046775296F, 0.08566533F,
    -0.03567551F, 0.02975601F, 0.05550301F, -0.024824783F, 0.026555553F,
    -0.10017015F, -0.024420619F, 0.0796504F, -0.12326351F, -0.073552564F,
    0.075080276F, 0.027111456F, -0.04671672F, 0.106963456F, -0.1031339F,
    0.008629963F, -0.011744127F, 0.04389684F, 0.04697156F, 0.075751156F,
    0.120574385F, 0.08449772F, -0.123813346F, 0.0880214F, 0.014490485F,
    0.038158253F, -0.010713771F, 0.050738916F, 0.07107715F, -0.0023100227F,
    -0.069780186F, -0.06617695F, 0.10884312F, 0.01286751F, 0.049158484F,
    0.09614332F, 0.08728239F, 0.07550962F, -0.06408769F, -0.107365325F,
    0.07428785F, -0.04357487F, 0.018819824F, 0.0035322905F, 0.102608025F,
    -0.081602156F, -0.057985023F, 0.10651049F, -0.06869118F, -0.09572281F,
    -0.0106581F, 0.09278409F, -0.015567794F, -0.10495533F, -0.066468775F,
    0.08005124F, 0.045536265F, 0.11969043F, 0.0062994063F, -0.05094613F,
    -0.11374229F, 0.03748557F, -0.012183681F, 0.028910562F, 0.055673063F,
    -0.024882004F, 0.037917316F, -0.042739943F, -0.10162166F, 0.017488897F,
    0.095055595F, -0.07796951F, 0.07269502F, -0.017819017F, -0.0414062F,
    0.10910265F, -0.111069605F, -0.08136843F, -0.09355886F, -0.061269477F,
    -0.0069944113F, 0.110617295F, -0.015575811F, -0.10782711F, -0.056595042F,
    -0.11457157F, -0.034750655F, -0.10719362F, -0.06431323F, -0.035845578F,
    -0.031615928F, -0.019278392F, -0.033704594F, -0.0754749F, -0.06142442F,
    0.10369849F, -0.05439645F, -0.022838473F, -0.06042424F, 0.11320305F,
    0.008045793F, 0.05739066F, -0.016797304F, -0.02333653F, 0.061413795F,
    -0.09323776F, 0.11202948F, 0.03628394F, -0.12257339F, -0.067129984F,
    -0.006328866F, -0.05163777F, -0.070761055F, -0.08728036F, -0.1230547F,
    -0.009827286F, -0.08735533F, 0.032371104F, -0.07272707F, 0.008741856F,
    0.01104258F, -0.11604075F, -0.07870306F, -0.10882495F, -0.030918017F,
    -0.096337155F, -0.086211756F, 0.009922549F, -0.04984422F, -0.013249487F,
    -0.053050905F, -0.08099398F, -0.012825102F, 0.03559287F, -0.089028195F,
    0.032555386F, -0.009390146F, 0.015142083F, -0.0685143F, -0.015999421F,
    -0.10369067F, -0.04069768F, -0.08765435F, -0.06804831F, -0.01711148F,
    -0.03867708F, 0.011398315F, 0.100212306F, -0.07576713F, 0.07548641F,
    -0.0059913546F, -0.016643584F, 0.07691714F, -0.028062895F, 0.08713272F,
    0.08939271F, -0.05111526F, -0.1023795F, -0.011932418F, -0.107021734F,
    -0.07332796F, -0.095479295F, 0.07033633F, -0.07711373F, -0.07618891F,
    0.09654337F, -0.035510346F, -0.017016739F, 0.029841676F, 0.09807028F,
    -0.1103677F, -0.014429018F, 0.065593615F, -0.09634259F, 0.10372189F,
    0.048807234F, 0.020961002F, -0.09649615F, 0.0065083653F, -0.031024411F,
    -0.05433902F, 0.10971469F, -0.07055959F, -0.0034516156F, 0.11922929F,
    -0.09167318F, 0.0073920935F, 0.098905265F, 0.0012126714F, 0.017722026F,
    -0.017707497F, -0.061838254F, 0.10929388F, -0.11413014F, 0.033677906F,
    -0.07309304F, -0.122756004F, -0.033836752F, -0.04990323F, 0.07212593F,
    -0.012993768F, -0.0723789F, -0.037182733F, 0.042687625F, 0.09612197F,
    0.08668229F, -0.12248409F, -0.12434365F, -0.05548407F, -0.041449457F,
    0.059777126F, 0.007805243F, 0.033450186F, 0.0867375F, 0.03001593F,
    -0.028651014F, 0.049688146F, -0.006432593F, -0.011774018F, -0.07970473F,
    0.11605151F, -0.043048546F, -0.07689676F, -0.0021547377F, 0.025928572F,
    -0.011726603F, -0.11678134F, 0.039220884F, 0.09607005F, -0.062117353F,
    -0.043054044F, -0.016152754F, -0.10942963F, -0.047092736F, 0.093463674F,
    -0.018496782F, 0.069547415F, -0.11732754F, 0.023889154F, -0.12235658F,
    -0.11527033F, 0.086147055F, 0.08354057F, 0.1095539F, 0.07504478F,
    0.02844815F, -0.10815309F, 0.095415875F, -0.031078383F, -0.06855908F,
    0.014851928F, 0.012787044F, 0.026496083F, -0.039998308F, -0.044965133F,
    -0.015729934F, 0.00014156103F, 0.061290696F, 0.037767917F, -0.10542765F,
    0.08541709F, 0.07453488F, -0.033697963F, 0.08648023F, 0.022005424F,
    -0.058142096F, 0.11046374F, -0.023644745F, 0.05305107F, 0.08037159F,
    0.09279394F, 0.0025161207F, 0.124872565F, 0.040717885F, 0.0523289F,
    -0.07213828F, 0.007363826F, 0.050079063F, 0.050577223F, -0.038019165F,
    0.1241909F, 0.056398183F, -0.040992916F, -0.08328366F, 0.06692618F,
    -0.10889542F, 0.04851213F, -0.072968945F, -0.07048094F, -0.035360947F,
    0.1004619F, -0.08829813F, -0.016395465F, 0.11094861F, 0.08021371F,
    0.0011657923F, 0.12491216F, 0.006550789F, -0.05089146F, 0.0698432F,
    -0.059430122F, -0.09056006F, 0.11296232F, 0.06396538F, 0.0075071454F,
    0.0810224F, 0.11043592F, 0.04392734F, 0.033436805F, 0.0051478744F,
    -0.10603145F, -0.057305023F, -0.011238202F, 0.013896242F, -0.080978945F,
    -0.08903137F, -0.04679513F, -0.10293266F, 0.08406873F, -0.1075294F,
    -0.072144106F, -0.05453053F, -0.022373825F, -0.11079565F, 0.010103777F,
    -0.083635226F, 0.073615655F, -0.07426031F, -0.010636166F, 0.0022038072F,
    0.0061347336F, 0.017264277F, -0.12259813F, -0.064029396F, -0.0572588F,
    -0.08046636F, 0.005082622F, 0.101821795F, -0.022661343F, 0.02117072F,
    0.08992328F, 0.077382505F, -0.047556862F, 0.040108785F, 0.04494086F,
    0.09245457F, -0.11806938F, -0.035250515F, -0.12356858F, 0.08630556F,
    0.11224902F, 0.012051463F, 0.099668995F, 0.07938878F, -0.10786942F,
    -0.08928427F, -0.11261436F, 0.07648587F, 0.03360641F, 0.12035631F,
    -0.027268618F, 0.041006893F, -0.07021983F, 0.11495252F, -0.010187522F,
    -0.08699262F, -0.025744885F, -0.123701245F, 0.03280841F, -0.06250493F,
    -0.10828464F, -0.084093004F, 0.015776426F, -0.05668801F, 0.12339127F,
    0.06899804F, 0.06269066F, 0.06805821F, -0.030539572F, -0.09670189F,
    0.03818214F, 0.037714332F, 0.108428836F, -0.00079385936F, 0.0040442944F,
    0.09421152F, 0.10044983F, 0.042001754F, 0.10230149F, 0.049870476F,
    -0.07427584F, 0.11342566F, -0.106425285F, 0.026126266F, -0.030204654F,
    0.043785647F, -0.08204229F, 0.0441007F, 0.032623857F, 0.04833424F,
    -0.025117844F, -0.041414425F, -0.103788465F, 0.008974865F, -0.10460757F,
    0.054286644F, -0.0886295F, 0.027843758F, -0.036229268F, 0.08253722F,
    -0.0028612465F, -0.007566437F, 0.0890775F, 0.121073246F, 0.07733999F,
    -0.09969257F, 0.070663765F, 0.022043958F, 0.056269497F, 0.08264594F,
    -0.008439586F, -0.019581541F, -0.07915333F, 0.02180788F, 0.05326335F,
    -0.07480559F, 0.029803634F, 0.03443876F, 0.027666718F, 0.121882856F,
    -0.06654528F, -0.083844304F, 0.04394594F, 0.051091477F, 0.00081053376F,
    -0.062766954F, -0.08795661F, 0.122886196F, 0.079804376F, -0.015953839F,
    -0.09354338F, -0.10042746F, 0.09904586F, 0.0071870387F, 0.041545585F,
    -0.09444685F, -0.028623074F, 0.028172687F, -0.014610097F, -0.10141681F,
    -0.004960254F, 0.07709618F, -0.066538766F, 0.043425247F, -0.10955536F,
    0.08469404F, -0.00081814826F, -0.06303212F, 0.041899502F, -0.05922517F,
    -0.0044688135F, -0.021318227F, 0.100538105F, 0.124012366F, -0.0394018F,
    0.075069174F, 0.0726299F, -0.11960092F, 0.038600773F, 0.05733715F,
    -0.046984687F, -0.096698105F, 0.10784876F, 0.09536339F, -0.076892F,
    -0.09525569F, 0.039877653F, 0.054013938F, 0.07889359F, 0.08613093F,
    -0.10698381F, 0.110779524F, -0.11273551F, 0.06694256F, 0.11947611F,
    0.016590491F, -0.11869031F, -0.046952903F, 0.020987242F, -0.0808571F,
    0.10136296F, 0.035590097F, -0.08298513F, -0.11718999F, 0.074523315F,
    -0.04493016F, 0.02675137F, 0.029936492F, -0.09714289F, -0.03916852F,
    -0.10903202F, 0.08979447F, 0.02133803F, 0.11874618F, -0.10687445F,
    0.087442935F, -0.076942265F, 0.05705446F, -0.08866887F, -0.057108432F,
    0.0045779347F, 0.045566604F, -0.007701531F, -0.020056829F, -0.085817546F,
    0.091392666F, -0.06846258F, 0.11917429F, 0.1190875F, -0.035299927F,
    0.065490946F, 0.10443118F, 0.09882295F, 0.0065048337F, -0.10732338F,
    -0.008098096F, 0.05070816F, 0.06957804F, -0.080943376F, -0.11095008F,
    -0.005442381F, 0.06311326F, -0.10653983F, -0.06450571F, -0.05831459F,
    -0.06436047F, 0.015213296F, 0.013588831F, -0.080658734F, -0.05741501F,
    -0.07270166F, -0.01866369F, -0.09613295F, -0.108057454F, 0.035028785F,
    -0.040733114F, -0.092786476F, 0.05778575F, 0.10940848F, -0.01946117F,
    -0.040860713F, 0.043994904F, -0.06235604F, 0.047900885F, -0.07367632F,
    0.07492596F, 0.014110774F, 0.07873911F, -0.0030347705F, 0.10547884F,
    0.11217624F, 0.0005258322F, 0.07402164F, -0.07106683F, -0.04688911F,
    -0.116097644F, -0.028256223F, -0.090885505F, -0.009918377F, -0.014410242F,
    -0.010456905F, -0.04999031F, 0.023037627F, -0.0959982F, -0.0530605F,
    -0.06392746F, -0.097682625F, 0.009468764F, 0.07494789F, 0.118958384F,
    -0.10316196F, 0.048279196F, -0.026139885F, 0.06898588F, 0.017633498F,
    0.12487388F, 0.091281384F, 0.08297746F, -0.043416336F, -0.1188536F,
    0.10882108F, 0.083943844F, 0.111400306F, 0.0876296F, -0.089392245F,
    -0.070187F, 0.118903026F, 0.06800963F, 0.058893606F, 0.05026023F,
    0.115855545F, -0.042955518F, 0.09380835F, -0.07325998F, 0.041972414F,
    -0.061034963F, -0.0745419F, -0.06675047F, -0.1150216F, -0.0608017F,
    -0.094449595F, 0.05482252F, 0.12103604F, 0.014688969F, 0.013696581F,
    -0.100468785F, 0.015407816F, -0.1180267F, -0.040788993F, 0.11001526F,
    0.045895994F, -0.08388464F, 0.047362834F, -0.117323264F, -0.053705648F,
    0.11840354F, 0.04147625F, 0.11668554F, 0.011260465F, 0.0477691F, -0.0654507F,
    0.050056517F, 0.102062434F, -0.019646645F, 0.028927058F, -0.03895989F,
    0.06815119F, 0.028607339F, -0.06516792F, 0.044482753F, -0.06631042F,
    -0.10193139F, 0.026894748F, -0.103660494F, -0.052897587F, -0.04375425F,
    0.11612259F, -0.024703577F, 0.004695937F, 0.012427956F, -0.119484946F,
    -0.09784582F, -0.12110379F, -0.12288715F, 0.076060355F, -0.033234462F,
    -0.07744348F, -0.12056115F, 0.055077255F, 0.04948938F, 0.0045915097F,
    0.09205015F, -0.106974944F, 0.019726366F, 0.10344143F, -0.058330044F,
    0.10986982F, -0.025118843F, -0.045687765F, -0.04860978F, 0.071648166F,
    0.082345665F, 0.028749257F, 0.02953796F, -0.0699925F, 0.07526277F,
    0.08197099F, 0.089101195F, 0.034026265F, -0.081563815F, 0.043048635F,
    0.07712518F, 0.07937075F, -0.0025484115F, 0.037833437F, -0.018098071F,
    0.080012575F, -0.12356171F, -0.06513552F, -0.011266172F, -0.11197595F,
    -0.029258087F, 0.112788334F, -0.102531224F, -0.037930995F, 0.0031383336F,
    -0.011702493F, -0.1135273F, 0.0779406F, 0.044983417F, -0.016314F,
    0.0021116585F, 0.00052677095F, 0.1154394F, 0.0055508167F, 0.111735925F,
    0.054806963F, 0.10610098F, 0.015177667F, 0.038569957F, -0.0373421F,
    -0.02104108F, 0.0453327F, -0.048321754F, 0.08174512F, -0.06389406F,
    -0.049673334F, 0.08112766F, 0.07805061F, 0.06416471F, -0.054166287F,
    0.103735834F, 0.019726738F, 0.07022934F, -0.054607734F, -0.09514451F,
    -0.00028638542F, 0.0382818F, -0.025506496F, 0.014858022F, -0.08294919F,
    -0.1087967F, -0.051883295F, 0.07657911F, 0.08791885F, 0.054113448F,
    0.047331512F, -0.053301528F, 0.09818454F, 0.033799157F, 0.040624678F,
    0.013784885F, 0.104193166F, -0.0753565F, 0.0052696913F, 0.11992903F,
    0.009394631F, -0.004046187F, 0.009720564F, 0.09421758F, 0.0005578697F,
    -0.031303436F, 0.06866522F, 0.10689683F, -0.025164828F, 0.018908411F,
    0.008574069F, 0.083942965F, -0.11096883F, -0.0105341375F, -0.11294262F,
    0.101704925F, 0.057484925F, -0.015052706F, -0.014369056F, -0.0014178902F,
    -0.065423265F, -0.10579859F, -0.10984266F, 0.03822626F, -0.01685892F,
    -0.06779978F, -0.01511991F, 0.012042046F, -0.028733522F, -0.11815941F,
    0.041073844F, -0.0764731F, -0.045543864F, -0.10961346F, 0.038483694F,
    0.01886271F, -0.01718174F, 0.10277897F, -0.07387252F, -0.10655995F,
    -0.02262561F, 0.050384924F, 0.117140874F, -0.052676916F, 0.017533943F,
    0.05072543F, -0.01021108F, -0.040503323F, -0.087141395F, -0.026723549F,
    -0.07246643F, 0.014090657F, -0.12210849F, 0.040706933F, -0.07983054F,
    -0.085853115F, 0.091238245F, -0.0056210905F, 0.10673033F, 0.061485276F,
    0.09520972F, 0.017832696F, -0.06389049F, 0.11813991F, 0.10124904F,
    0.062328532F, -0.10292436F, 0.008229464F, 0.055603072F, 0.024457261F,
    0.06597473F, -0.057386786F, -0.09298855F, -0.069405064F, 0.07867083F,
    0.012948096F, -0.036402956F, -0.027422115F, 0.115159154F, 0.07687028F,
    -0.10962354F, -0.061913297F, -0.08652358F, 0.018410385F, 0.087781355F,
    -0.07180008F, 0.014977589F, 0.0067809224F, 0.06131974F, 0.093959376F,
    -0.11466183F, -0.00024795532F, -0.066094056F, 0.054673687F, 0.10590465F,
    -0.041638464F, -0.022802383F, -0.08133599F, 0.12273577F, 0.09272033F,
    -0.08830795F, 0.022387385F, -0.02630797F, 0.10623488F, 0.051501468F,
    0.036021188F, -0.030943856F, -0.11865276F, 0.115656644F, -0.068048075F,
    -0.09776425F, 0.11071949F, 0.075936005F, -0.055190593F, -0.08592199F,
    -0.12116201F, 0.09787254F, -0.03632565F, -0.09442642F, 0.047528327F,
    0.12148081F, 0.027899534F, -0.077953175F, 0.028158084F, -0.051326364F,
    0.01492475F, -0.044230014F, -0.06350395F, -0.08392426F, 0.11209847F,
    -0.0183122F, -0.05618812F, -0.05574812F, 0.121340424F, -0.10652378F,
    0.088023946F, 0.06503908F, -0.06076823F, 0.047933742F, 0.045205727F,
    0.12492292F, -0.06673531F, 0.122044995F, -0.10328527F, 0.022133246F,
    -0.04299079F, -0.12369792F, 0.10272141F, 0.08436887F, 0.11031321F,
    0.11606459F, 0.08221683F, -0.036797866F, -0.1074824F, -0.018743485F,
    -0.057781726F, 0.008519247F, 0.122923896F, -0.07426804F, -0.036511526F,
    0.07712926F, 0.0065004677F, 0.09277372F, 0.03747657F, -0.0996837F,
    0.042474777F, -0.101878315F, 0.11944972F, 0.021594852F, 0.04495524F,
    -0.07311955F, 0.096109584F, -0.009307444F, 0.08106592F, 0.074943885F,
    0.12260643F, -0.041206047F, 0.10290608F, -0.05196719F, -0.11059864F,
    0.1215194F, -0.09589784F, -0.064888075F, 0.104749426F, -0.002322629F,
    0.052953184F, 0.039796814F, 0.031763107F, 0.062674016F, 0.11166574F,
    -0.090478316F, 0.105799854F, -0.05056365F, -0.099945724F, -0.05789362F,
    -0.050470054F, 0.089926764F, -0.06833534F, 0.12043606F, -0.07057646F,
    -0.060676992F, 0.12015666F, -0.035955727F, 0.09973706F, -0.001308769F,
    0.112370074F, 0.02015628F, -0.11447041F, 0.0144761205F, 0.07600655F,
    -0.10367927F, -0.035287395F, -0.07962264F, -0.09633234F, -0.006802097F,
    0.023133814F, 0.015848145F, -0.11970836F, -0.086150914F, 0.1065352F,
    -0.02980633F, 0.06632307F, 0.101264626F, 0.0025571436F, 0.10008843F,
    -0.053703234F, -0.033315063F, 0.08254711F, -0.09875932F, 0.011675939F,
    -0.06316498F, -0.025850326F, -0.11345324F, -0.086488724F, 0.099905476F,
    -0.0032353401F, -0.04046747F, 0.0035080463F, -0.09910615F, 0.055700853F,
    0.038923755F, -0.11649145F, 0.006286323F, -0.10660653F, 0.093425795F,
    -0.11746615F, 0.11237466F, 0.09302679F, -0.06166926F, -0.09206836F,
    0.08369754F, -0.09411436F, -0.08117436F, 0.04828903F, -0.05154848F,
    0.11940718F, 0.03672135F, 0.0854463F, -0.08867015F, -0.09842521F,
    0.049215868F, -0.08806008F, -0.008021027F, -0.06717804F, -0.013132855F,
    0.03825818F, 0.04201086F, 0.018139854F, 0.013849035F, 0.029242218F,
    0.031894132F, -0.0773956F, 0.03387697F, -0.109656796F, 0.04021129F,
    -0.08462463F, 0.07449943F, -0.076978534F, 0.02036278F, 0.023728222F,
    -0.06706329F, -0.026942417F, 0.05645533F, 0.07611275F, -0.07586923F,
    0.047594562F, 0.025308177F, -0.066389665F, 0.05705233F, 0.09260993F,
    0.12091558F, 0.054803163F, -0.058356002F, -0.09129268F, -0.09826948F,
    -0.12493418F, 0.056497544F, -0.0102944225F, 0.107909486F, -0.015402943F,
    -0.05613078F, -0.022284552F, 0.079537824F, 0.008187771F, -0.03964986F,
    0.009801105F, -0.008587077F, -0.017308652F, 0.02437079F, 0.036542192F,
    -0.09298585F, -0.049470797F, 0.03874959F, -0.0265899F, 0.03860733F,
    0.03941217F, 0.0449913F, -0.07301302F, -0.017499372F, 0.04271108F,
    -0.097434044F, 0.09387456F, -0.025491819F, -0.009436786F, 0.018107936F,
    -0.040511206F, 0.11944388F, -0.00046415627F, -0.09403448F, -0.09387255F,
    0.12336448F, 0.08385953F, 0.102508724F, 0.11540161F, -0.06910615F,
    -0.0052193403F, 0.016900688F, -0.1248575F, 0.12275168F, -0.015300646F,
    -0.023065463F, -0.08083317F, 0.106378466F, 0.12415984F, -0.010136053F,
    -0.06210737F, 0.105968F, -0.12351102F, 0.08424103F, 0.01724863F, 0.1184089F,
    0.06515433F, 0.025109649F, 0.12109181F, -0.07907593F, -0.07610814F,
    0.107157126F, 0.02693507F, -0.09317687F, -0.019251749F, -0.05896771F,
    -0.11936182F, 0.04752992F, -0.10506107F, 0.07211718F, 0.06589916F,
    -0.021463186F, 0.06047088F, -0.036528602F, -0.08682117F, 0.08570285F,
    0.11780785F, 0.05494742F, -0.08863518F, -0.092084095F, -0.086471066F,
    -0.09969789F, 0.121918485F, 0.09592587F, -0.10325231F, -0.066671446F,
    -0.037528723F, 0.005461335F, -0.03214845F, -0.06139961F, -0.075261384F,
    0.106892586F, -0.077790976F, -0.03939219F, -0.035792336F, 0.11614503F,
    -0.10129234F, -0.065316975F, 0.024142161F, -0.035641298F, 0.07188277F,
    0.08200014F, 0.042820096F, -0.11095147F, -0.06664388F, -0.087516055F,
    -0.08554287F, -0.06652573F, -0.07193889F, -0.10453926F, -0.081914574F,
    -0.016596183F, -0.043262854F, -0.017090783F, -0.015287042F, -0.0007735789F,
    0.0011002719F, 0.030076161F, -0.1193106F, 0.03150347F, -0.11029039F,
    0.04576245F, -0.07449333F, 0.0391317F, -0.021787554F, -0.0069789886F,
    -0.094016F, -0.053842574F, 0.10938382F, -0.06509754F, -0.060999736F,
    0.03263615F, -0.097699225F, -0.08975352F, -0.053170517F, 0.031261817F,
    -0.07908757F, 0.10546696F, 0.12198062F, 0.017006278F, 0.02584675F,
    0.08168003F, -0.05773662F, -0.09410018F, -0.07136719F, 0.020190462F,
    0.0126990825F, -0.044434026F, 0.012667865F, 0.08411667F, 0.109794065F,
    0.019206285F, 0.0039607584F, 0.0106038F, -0.072549F, -0.017555699F,
    -0.0510668F, -0.034521386F, 0.11259729F, 0.007775128F, -0.019614935F,
    -0.049310833F, 0.012348741F, 0.07480697F, -0.06535944F, -0.010144666F,
    -0.039362147F, 0.050471038F, 0.026208997F, 0.08752985F, 0.09202948F,
    -0.021759957F, 0.05886972F, -0.051768735F, 0.10899307F, 0.06416723F,
    0.010837436F, -0.034840435F, 0.025959566F, -0.117152974F, -0.064309224F,
    0.029908389F, -0.078397885F, -0.015856624F, -0.033479646F, -0.037153557F,
    0.07802516F, 0.08903645F, 0.121457204F, -0.076838806F, 0.04711321F,
    -0.030926451F, 0.09916845F, 0.026529238F, -0.08053525F, 0.0028811395F,
    0.08097789F, 0.024611443F, -0.052636713F, -0.032788754F, -0.03262672F,
    0.039095342F, -0.015104905F, 0.0979927F, 0.071577236F, 0.08698049F,
    -0.074883595F, -0.034450874F, -0.09684552F, -0.06658159F, 0.105332896F,
    0.07710214F, -0.059266165F, 0.045316607F, 0.10445282F, 0.04930061F,
    0.10184722F, -0.010940611F, 0.08836967F, 0.075372934F, 0.009179607F,
    0.102733105F, 0.013931334F, -0.022544444F, 0.11794503F, 0.111678824F,
    -0.0007971227F, -0.0068746954F, 0.027586818F, -0.0332648F, -0.102921814F,
    0.00997822F, -0.06773901F, 0.019529477F, 0.08642022F, 0.06139344F,
    0.08133796F, -0.11399756F, 0.07120569F, -0.073003605F, -0.08852661F,
    -0.06715141F, -0.045706913F, -0.053130105F, 0.06290017F, 0.025325209F,
    -0.10306369F, -0.09582929F, -0.11695729F, 0.059013084F, -0.055570617F,
    -0.01323311F, 0.010418236F, -0.03268218F, 0.026423067F, -0.077213466F,
    -0.03765905F, 0.08308807F, -0.11696985F, 0.0072688907F, 0.10115312F,
    -0.07536107F, -0.07168631F, 0.0043399483F, 0.031808943F, -0.018283099F,
    0.08411789F, -0.117218256F, 0.05877234F, 0.091661125F, 0.007995531F,
    0.039970115F, -0.0032501966F, 0.09656106F, 0.1150762F, 0.010830432F,
    -0.007846236F, -0.020983383F, 0.04489298F, -0.07695073F, 0.11669655F,
    -0.046354964F, -0.115091205F, 0.09189835F, -0.012058824F, -0.09845261F,
    0.103959545F, 0.03309831F, -0.022541508F, -0.009150088F, -0.06288074F,
    -0.07712835F, 0.08617066F, 0.06158617F, -0.06239347F, -0.12390354F,
    -0.037659705F, -0.10419583F, -0.03956233F, 0.012068927F, 0.026641607F,
    0.041846156F, 0.12334412F, -0.08679825F, 0.047563583F, -0.08286731F,
    0.022082716F, 0.044058517F, 0.11872129F, 0.011143312F, 0.016733915F,
    -0.05088401F, 0.022032157F, 0.060818374F, -0.038469613F, -0.07578151F,
    -0.03108339F, 0.10151684F, 0.08792885F, -0.11193034F, -0.0016160458F,
    -0.024414986F, 0.044508904F, 0.031150773F, 0.04873489F, -0.10685152F,
    0.106600955F, -0.037724987F, 0.013518438F, 0.011913478F, -0.0963773F,
    0.07615855F, -0.07906182F, -0.091179475F, 0.016260847F, 0.10754442F,
    0.07163942F, -0.06335439F, 0.089129016F, 0.06915973F, 0.10511051F,
    -0.06642905F, -0.006182879F, 0.066046074F, 0.05632536F, -0.0004028678F,
    -0.07298015F, 0.11680755F, -0.08486764F, 0.116735324F, 0.1150205F,
    -0.00969632F, 0.0063254237F, 0.07726593F, 0.08046019F, -0.07677497F,
    0.09367974F, 0.11843963F, -0.028962761F, 0.02958116F, 0.116445065F,
    0.12436658F, -0.094209775F, -0.11237238F, 0.12475906F, -0.008857593F,
    -0.040052906F, -0.07058312F, 0.0007510185F, 0.10443452F, -0.049317896F,
    0.117632836F, 0.043670997F, 0.10950132F, 0.07928002F, -0.12161006F,
    -0.079027504F, 0.063032076F, 0.09123312F, -0.025241286F, 0.03405544F,
    -0.07432945F, -0.04114127F, 0.006922841F, -0.021674097F, -0.08193953F,
    0.023446992F, -0.016091526F, 0.11743449F, 0.026367724F, -0.07686573F,
    -0.06849842F, 0.063236535F, 0.029555082F, 0.0060501546F, 0.030916154F,
    0.02050154F, -0.109063536F, -0.121397F, 0.082387745F, -0.05552961F,
    -0.011932164F, 0.09132084F, 0.0074054897F, 0.03193997F, -0.12081367F,
    -0.060424417F, -0.08629805F, 0.09653793F, 0.011546418F, 0.0009838194F,
    -0.00036923587F, -0.11687289F, -0.027847841F, -0.12089467F, -0.11923854F,
    0.017820105F, -0.018218294F, 0.08434647F, -0.041111514F, 0.031477332F,
    -0.07904564F, 0.007924065F, 0.057753816F, -0.012304813F, 0.020492107F,
    0.039338753F, 0.103849426F, -0.11977483F, -0.08567642F, -0.03137374F,
    0.009182051F, 0.109453276F, -0.08443703F, -0.11282776F, -0.07321486F,
    0.005714029F, -0.10552645F, 0.07045399F, 0.12201512F, 0.081369534F,
    -0.068899676F, 0.102241084F, -0.096971944F, 0.04225883F, 0.003868714F,
    0.11019172F, 0.02707772F, -0.01657021F, 0.019214556F, 0.10699594F,
    -0.008956805F, -0.020098433F, 0.042429656F, 0.046143368F, -0.09063344F,
    0.00556235F, 0.05560337F, -0.065045804F, 0.06827353F, -0.06018704F,
    -0.0681155F, 0.02090618F, -0.07260038F, -0.037082598F, -0.010513753F,
    -0.084503695F, -0.06743556F, 0.029535517F, 0.004279688F, 0.054344952F,
    -0.08849102F, -0.07011528F, -0.05329123F, 0.024683163F, 0.07262416F,
    -0.12242444F, 0.023441166F, 0.09300709F, -0.10311407F, -0.09028746F,
    -0.10148156F, -0.09996569F, 0.101158515F, 0.1005847F, -0.08613627F,
    0.08213659F, -0.0202294F, 0.026256248F, 0.02351518F, 0.02846998F,
    -0.09681296F, -0.035127565F, -0.020814687F, -0.045664072F, 0.1084936F,
    0.10815728F, 0.019055247F, 0.07201323F, -0.08437514F, 0.10103591F,
    0.018638402F, -0.10061388F, -0.0530601F, -0.10111815F, 0.03265372F,
    -0.117509246F, 0.10159002F, -0.054117844F, -0.032916814F, 0.030081853F,
    0.11374764F, 0.0312711F, -0.00631693F, -0.07611731F, -0.053874224F,
    0.058141664F, 0.009855121F, -0.0221802F, -0.05311671F, -0.07754028F,
    -0.010050759F, 0.10957658F, -0.0488306F, -0.012283593F, 0.035142764F,
    -0.04209347F, 0.08906104F, -0.032206327F, -0.02863796F, -0.024193168F,
    0.0925245F, 0.042179763F, 0.095023096F, -0.095097736F, -0.051223025F,
    -0.089450896F, 0.043575093F, 0.013093561F, 0.05371073F, 0.08833557F,
    -0.102192804F, 0.062465876F, -0.06978205F, 0.017815888F, 0.11345123F,
    -0.03802733F, -0.042326972F, 0.109769344F, 0.082236245F, -0.09402537F,
    0.090278134F, -0.018006235F, 0.0034786612F, -0.014615759F, -0.11122142F,
    0.0078793615F, -0.086447164F, 0.070038155F, 0.04165286F, -0.0454413F,
    -0.082453385F, 0.069358274F, 0.09469348F, -0.068046466F, 0.019856885F,
    -0.042678773F, -0.0805648F, -0.0989663F, 0.06409158F, 0.08142525F,
    -0.051967144F, 0.048295036F, -0.06988451F, 0.12328893F, -0.12008318F,
    -0.10526876F, -0.06373462F, -0.063335314F, 0.011233762F, -0.038493708F,
    -0.01634115F, 0.08447662F, -0.093421176F, -0.026130557F, -0.038721636F,
    -0.019870386F, -0.09779985F, 0.12390545F, 0.06140533F, 0.09254047F,
    0.10314253F, -0.11928254F, 0.040554523F, -0.0997788F, 0.037707686F,
    -0.1217031F, 0.041933984F, -0.11438204F, 0.09077354F, -0.047205195F,
    -0.054360837F, 0.018858507F, 0.018170357F, -0.052234247F, -0.036991745F,
    -0.05787365F, 0.09011404F, 0.06064035F, 0.030732974F, 0.03195308F,
    -0.043778256F, 0.09166747F, 0.08704546F, 0.012837157F, -0.09300639F,
    0.11067355F, 0.005592674F, -0.04888341F, 0.082642525F, -0.033965275F,
    0.056479022F, 0.11816141F, 0.059298933F, 0.10235332F, 0.090050176F,
    0.106431484F, 0.044765934F, 0.06588641F, -0.0952107F, -0.1072315F,
    0.04924649F, 0.01598294F, -0.0842199F, -0.12138224F, -0.0127752125F,
    -0.035949603F, -0.11938918F, -0.030223653F, -0.072920635F, -0.043279454F,
    0.026059791F, 0.07902704F, -0.05981548F, -0.1246818F, 0.124910936F,
    -0.046319768F, 0.050536066F, -0.02474007F, -0.09189059F, -0.008964866F,
    -0.019114539F, -0.017219692F, 0.05653642F, -0.10227667F, 0.10718192F,
    -0.056419596F, -0.04201199F, -0.12096475F, -0.07035048F, -0.09261167F,
    -0.091859505F, 0.04113476F, 0.035034746F, -0.027401358F, 0.049320802F,
    -0.046840742F, 0.05128108F, 0.01144889F, -0.07038489F, -0.0015695393F,
    0.030458584F, 0.039222166F, 0.11300261F, 0.03270814F, 0.04028642F,
    0.07609907F, -0.056469142F, -0.01837954F, -0.0017147958F, 0.06556356F,
    -0.10119735F, -0.09017259F, 0.091242716F, 0.10889256F, -0.0074508935F,
    -0.018789828F, 0.06205477F, 0.062010765F, -0.00037825108F, -0.02385278F,
    -0.050757527F, -0.09605904F, 0.019417018F, 0.073306575F, 0.08666094F,
    0.06916316F, -0.093285024F, 0.059344172F, 0.038627878F, -0.028191745F,
    0.03666085F, 0.070858195F, 0.07146387F, 0.11698121F, -0.055754244F,
    0.07590069F, -0.049799368F, -0.040296987F, 0.11457384F, -0.106877476F,
    -0.013101831F, -0.12155388F, 0.08042903F, 0.05981414F, 0.088868156F,
    -0.058505997F, -0.03399217F, -0.11611867F, -0.014565051F, -0.08985539F,
    -0.04616089F, 0.04078865F, 0.061904877F, 0.05267982F, 0.023168236F,
    -0.011511669F, -0.037720338F, -0.09516865F, 0.07957247F, -0.0007780194F,
    0.0050837696F, -0.072862715F, -0.01671736F, -0.011778384F, 0.024136215F,
    -0.015153155F, -0.039616704F, 0.005892113F, -0.10113791F, -0.022060141F,
    -0.11247462F, 0.09880026F, 0.013595268F, -0.10631403F, 0.09777723F,
    0.028733358F, 0.06931095F, -0.0108153075F, -0.101845846F, 0.08659166F,
    -0.050141975F, 0.0051267445F, 0.066909656F, -0.03660983F, 0.094493955F,
    0.061939284F, -0.11011572F, -0.016544983F, -0.10958044F, -0.044180676F,
    -0.10170181F, -0.12005529F, -0.068438455F, 0.0770929F, -0.07530692F,
    -0.104793385F, 0.12025504F, -0.039451584F, -0.09112342F, 0.120645404F,
    0.09794517F, 0.055925265F, 0.10845092F, -0.002032876F, 0.06695776F,
    -0.028841719F, 0.024254933F, 0.0069502294F, -0.02060169F, 0.05451469F,
    -0.07488322F, -0.10734871F, 0.033037707F, -0.08229454F, 0.023334727F,
    0.08977349F, 0.083305955F, 0.0141913295F, 0.005674675F, 0.051072016F,
    -0.056271672F, -0.063192025F, 0.100345016F, -0.101263136F, -0.06652294F,
    0.11347444F, -0.10981688F, -0.0725729F, 0.059037596F, 0.0061814785F,
    0.12023574F, -0.112338275F, -0.11739114F, -0.11988814F, 0.014779657F,
    0.011232227F, -0.06751607F, -0.085222796F, 0.02722758F, 0.05951254F,
    -0.077434555F, 0.05323738F, -0.05566579F, 0.024076879F, -0.032835096F,
    0.053732455F, -0.047058135F, 0.040983766F, 0.07183826F, 0.12000586F,
    -0.04059729F, -0.030154511F, 0.10268645F, -0.050814837F, -0.05511126F,
    -0.008231968F, 0.02036713F, -0.009206936F, -0.04006134F, 0.042647317F,
    -0.122458205F, 0.12335648F, -0.11371262F, -0.02615264F, -0.11594559F,
    -0.07591522F, 0.036210775F, 0.10459852F, -0.059849918F, -0.117109016F,
    -0.014681086F, -0.0683918F, 0.059436083F, 0.08713855F, -0.033541963F,
    -0.07850818F, 0.099071026F, 0.027314946F, 0.022353202F, -0.016201422F,
    0.044825077F, 0.0030008405F, -0.01166372F, 0.10416247F, -0.016225845F,
    0.06802963F, 0.10862608F, -0.119513616F, 0.005219564F, 0.009374142F,
    0.091168985F, 0.0036849529F, 0.014030233F, 0.10173263F, -0.061555997F,
    -0.081521675F, 0.060940266F, 0.017611772F, 0.10567264F, -0.06905101F,
    -0.042240813F, 0.030508712F, 0.11404286F, 0.098214865F, -0.05659391F,
    0.016700298F, -0.059880733F, 0.10842377F, -0.0076356977F, 0.06592269F,
    0.070457816F, 0.041024372F, 0.09183502F, 0.0057293475F, -0.0043196976F,
    -0.082106665F, -0.11733104F, -0.056748673F, -0.09057678F, 0.08529486F,
    0.09957698F, -0.07659331F, 0.047732517F, -0.08509359F, -0.060290664F,
    0.007831633F, 0.08188555F, -0.061996624F, -0.08512454F, -0.101899505F,
    0.03652589F, -0.11839312F, -0.015300974F, 0.07345091F, -0.012480885F,
    -0.08043294F, 0.0031324178F, -0.02331829F, -0.08214915F, 0.01984337F,
    0.057053417F, -0.11245212F, 0.034873158F, -0.058026537F, -0.061538026F,
    -0.020812273F, -0.022504002F, -0.028626055F, -0.032532275F, 0.0811698F,
    -0.10993132F, -0.042768538F, -0.0072984546F, -0.099643305F, -0.075336054F,
    0.08952287F, -0.06409414F, -0.07374182F, 0.046350524F, 0.0027773678F,
    -0.12123847F, -0.07862078F, 0.013174951F, -0.0350945F, 0.0049871355F,
    0.0580671F, 0.084616706F, -0.019821286F, -0.027762294F, 0.061919093F,
    0.0021240264F, 0.07002397F, -0.007081628F, -0.03199044F, 0.08305439F,
    0.1013397F, 0.10171971F, 0.015488669F, 0.09161836F, -0.088231325F,
    -0.002658233F, -0.10061321F, 0.085171476F, 0.009281144F, 0.053898275F,
    -0.048261777F, 0.033058807F, -0.04579486F, -0.1043354F, 0.010788485F,
    -0.04036714F, 0.023564398F, -0.1090239F, -0.1163186F, 0.040654242F,
    0.06883232F, -0.02178292F, 0.109283015F, 0.046069697F, 0.061262414F,
    -0.09865035F, 0.07548235F, -0.09489913F, -0.09500781F, 0.07045972F,
    -0.044372916F, 0.023184434F, 0.11480023F, -0.08324768F, -0.0044678003F,
    0.046980575F, -0.09449647F, -0.10634743F, 0.11821857F, 0.12294562F,
    0.018429607F, -0.11023866F, 0.05610466F, -0.031604722F, -0.082938224F,
    -0.0822946F, -0.00029326975F, 0.06176956F, -0.027867243F, -0.08405569F,
    0.009713545F, 0.020880267F, 0.070487395F, 0.123254925F, -0.043853655F,
    -0.064367965F, -0.0015636533F, -0.024142206F, -0.10569945F, -0.06978412F,
    0.099742055F, 0.11734323F, -0.06693435F, -0.09262116F, -0.11007401F,
    0.05359988F, -0.11859393F, 0.0474858F, 0.12400325F, 0.110935286F,
    -0.020414367F, 0.10316405F, -0.04221171F, -0.0716435F, -0.09426944F,
    0.0010982305F, 0.059277147F, -0.0048611015F, 0.067105874F, -0.10820478F,
    -0.011696801F, 0.072469816F, -0.016852602F, -0.06000565F, -0.05874628F,
    0.08948371F, 0.0407947F, -0.085840374F, 0.06885065F, 0.0092713535F,
    -0.032201752F, 0.09283531F, -0.03248036F, 0.024556056F, -0.10765955F,
    -0.08801545F, -0.016705811F, 0.11504768F, 0.115728706F, 0.011643484F,
    -0.04297684F, 0.030610487F, -0.0023700595F, -0.058219865F, 0.052052632F,
    -0.117069826F, -0.034558162F, -0.124915496F, 0.091068074F, 0.0139796585F,
    -0.0056351274F, -0.05593811F, -0.033362716F, -0.04493706F, 0.0034701377F,
    0.036487505F, 0.10346854F, 0.119658545F, -0.113688916F, 0.03248927F,
    0.088653505F, 0.07857148F, -0.09385404F, -0.063873366F, -0.04852894F,
    -0.0049849004F, 0.07119642F, 0.08955982F, -0.0001283288F, 0.011675775F,
    -0.09617029F, 0.0062169284F, -0.117755935F, 0.11631775F, -0.042169303F,
    -0.055684805F, -0.064836234F, -0.06887254F, 0.11007398F, -0.07209577F,
    0.02062571F, 0.037664637F, 0.08278166F, -0.11483505F, -0.09231514F,
    -0.100636885F, -0.06805512F, -0.06938313F, 0.08900109F, -0.020239577F,
    -0.073161945F, -0.0033503324F, -0.026932716F, 0.066248804F, 0.101080015F,
    0.044753417F, 0.122921675F, -0.04764816F, -0.03564091F, 0.030795291F,
    0.05835691F, 0.055431604F, 0.0024238974F, 0.015627816F, 0.06775224F,
    0.062340528F, -0.0017226189F, -0.10570972F, 0.059920356F, -0.057022005F,
    0.0054093897F, -0.11350721F, -0.08579396F, -0.056281283F, 0.00068724155F,
    -0.06333463F, -0.0016446263F, -0.11803374F, 0.013176903F, -0.1051511F,
    0.12125006F, -0.0043750703F, 0.031776845F, 0.03246911F, 0.022438139F,
    -0.10367395F, -0.09299305F, -0.103656635F, 0.005268663F, 0.05473818F,
    0.10533154F, 0.046966285F, 0.09565075F, 0.09111124F, 0.04750219F,
    -0.070038974F, 0.058127522F, 0.118797004F, 0.053914934F, -0.064384446F,
    0.05101703F, 0.09087683F, 0.07684015F, -0.0074499846F, 0.12310387F,
    -0.077650875F, 0.058093384F, 0.096667394F, 0.01466611F, -0.09973946F,
    -0.046548545F, -0.06364851F, 0.039237246F, -0.057858482F, 0.020776048F,
    0.027552962F, -0.10984804F, -0.064208716F, -0.0021070093F, -0.101476744F,
    -0.049233913F, -0.05710487F, -0.050624654F, -0.051594228F, -0.10299708F,
    -0.10072592F, 0.045036465F, -0.09419459F, 0.018084139F, -0.12100525F,
    0.07229166F, 0.012477815F, 0.07984164F, 0.057258025F, -0.07020265F,
    -0.10415834F, -0.03567551F, 0.07843815F, 0.09570016F, -0.022470295F,
    -0.06690782F, 0.06391662F, -0.04511006F, -0.08307189F, -0.106268F,
    -0.03099148F, 0.06115684F, 0.057384714F, -0.08658469F, 0.048282743F,
    0.035719514F, 0.09325443F, -0.100999415F, -0.10542312F, -0.10774201F,
    0.09996253F, 0.041812807F, -0.06797837F, 0.012524918F, -0.121268466F,
    -0.020707607F, -0.095569044F, 0.07396498F, 0.073781386F, -0.024248272F,
    0.02773422F, 0.0018564016F, 0.096542105F, -0.10151161F, -0.090474784F,
    0.057510093F, -0.04481849F, 0.10765131F, 0.05589649F, -0.038363755F,
    0.113234505F, -0.11037435F, -0.0052494407F, -0.06283961F, -0.122419044F,
    -0.06680624F, 0.016048118F, -0.11650911F, -0.043934703F, -0.012660608F,
    -0.12281518F, -0.07113865F, 0.121936485F, 0.12349945F, -0.0017826557F,
    -0.11219399F, -0.06666255F, -0.011949211F, 0.10224676F, -0.09795123F,
    -0.01598294F, 0.09725642F, 0.09154856F, -0.02203241F, -0.11459844F,
    0.034394443F, -0.017646939F, 0.023106784F, 0.013978422F, 0.01229696F,
    0.11478105F, -0.037434697F, 0.11877157F, -0.021828339F, -0.07326925F,
    -0.057953775F, -0.099157155F, -0.12441358F, -0.10028939F, 0.12015429F,
    -0.09373793F, 0.020008966F, -0.104839385F, 0.034839645F, -0.070073664F,
    -0.06359622F, -0.08473772F, 0.04995194F, -0.078706264F, -0.044416174F,
    -0.026218995F, 0.024403438F, -0.10378222F, -0.113620505F, -0.10933401F,
    0.07124147F, -0.09482385F, -0.09932476F, -0.10894072F, 0.0819872F,
    0.08072609F, 0.04118091F, -0.11865781F, -0.023947403F, 0.09167111F,
    -0.07745133F, 0.038231075F, 0.038212165F, 0.06388226F, -0.0035154372F,
    -0.08227806F, 0.08601336F, -0.07295546F, -0.08137761F, -0.022831112F,
    -0.02117996F, -0.101475894F, 0.01999797F, 0.121154636F, -0.03565824F,
    0.038315997F, 0.03088075F, 0.081663415F, -0.04442574F, -0.038485676F,
    0.102048606F, -0.030312315F, -0.022205412F, 0.097146824F, 0.02201581F,
    0.10259247F, 0.07821223F, -0.052811384F, 0.11437918F, -0.011408001F,
    -0.11804643F, 0.0064998716F, 0.014674112F, 0.027591303F, -0.084110856F,
    0.015038371F, 0.06353597F, -0.07833862F, -0.010689482F, -0.00041250885F,
    -0.0925872F, 0.11315885F, -0.109383345F, -0.0036206543F, -0.101141766F,
    -0.035444304F, -0.0048879236F, 0.06656265F, -0.06437701F, -0.08221105F,
    0.025787711F, 0.08840445F, -0.117831886F, 0.11498037F, -0.0455101F,
    0.034040406F, -0.05760649F, 0.12281887F, -0.10237162F, -0.012972996F,
    0.11108893F, -0.08263801F, 0.08246656F, 0.067616865F, -0.11026639F,
    0.09781982F, -0.011966199F, -0.12478982F, -0.0025642961F, 0.05521618F,
    0.07098155F, -0.08511083F, -0.016183197F, -0.046054572F, 0.063277245F,
    0.023271292F, 0.014251992F, 0.01454249F, -0.084582224F, 0.07192396F,
    0.042887628F, -0.06953849F, 0.069101274F, -0.029720932F, -0.004285857F,
    0.039112404F, 0.09756161F, -0.10721432F, 0.10332708F, -0.11893611F,
    -0.068141446F, 0.07496975F, -0.03517425F, -0.091974914F, 0.02471684F,
    0.00031106174F, -0.04026003F, -0.09566234F, -0.024230182F, -0.02106002F,
    0.113880545F, -0.008100733F, -0.014867663F, -0.0036871135F, 0.07599673F,
    0.0982694F, 0.09679979F, 0.07806198F, 0.056489542F, -0.0001707375F,
    0.07409927F, 0.08414206F, -0.022075474F, -0.02291219F, -0.0314613F,
    0.01034148F, 0.056808755F, -0.03741774F, -0.09603153F, -0.08952315F,
    0.020944133F, 0.039563537F, -0.012806684F, 0.0016551912F, -0.12489414F,
    0.006140128F, 0.07695907F, 0.0016000867F, -0.0037064701F, -0.028862908F,
    -0.024096206F, -0.09532803F, -0.020963848F, -0.057612613F, -0.08378376F,
    -0.08670731F, -0.07157548F, -0.100555405F, -0.10859333F, 0.017341137F,
    -0.00051805377F, -0.11872189F, 0.098950505F, 0.083363846F, -0.049114153F,
    -0.032676175F, -0.10987981F, -0.0031929165F, 0.024944559F, -0.09710586F,
    0.12077676F, -0.10174297F, 0.024377048F, -0.09388974F, -0.0378419F,
    -0.10641962F, -0.059768572F, 0.08376986F, 0.0024801344F, 0.053165153F,
    -0.102167025F, 0.12028062F, 0.09457639F, 0.07267064F, 0.08727534F,
    0.055515632F, 0.06408575F, -0.0711253F, 0.04126267F, -0.057569206F,
    0.06968814F, 0.08262524F, -0.047213823F, -0.12081285F, -0.037851617F,
    -0.12191008F, 0.042834684F, 0.08853848F, 0.0042010546F, 0.023066536F,
    0.11824268F, 0.0564093F, -0.039915845F, 0.04121174F, 0.04880488F,
    -0.052743047F, -0.09526558F, 0.07639827F, -0.06911127F, 0.10935892F,
    0.026332736F, -0.05634819F, 0.056954235F, 0.003170684F, -0.008374095F,
    -0.045706406F, -0.021461934F, 0.010200322F, 0.017611414F, -0.10106343F,
    -0.036572173F, -0.027239978F, 0.048811853F, -0.045720577F, 0.014881283F,
    0.06716508F, 0.021107242F, -0.07981108F, -0.026664391F, 0.054770947F,
    0.004833609F, 0.07619807F, -0.079180956F, 0.026953712F, -0.118499994F,
    0.061694786F, 0.03763759F, 0.02633202F, -0.05042906F, 0.05862142F,
    0.008857384F, 0.07893257F, -0.0007505566F, 0.07825853F, 0.009806767F,
    0.021241963F, 0.036736086F, -0.058203995F, -0.00996989F, -0.02072528F,
    -0.08889456F, -0.06055653F, 0.1076816F, 0.03750515F, -0.10243705F,
    -0.05266264F, 0.044712722F, 0.07175833F, -0.078860566F, 0.035070345F,
    -0.037527844F, -0.0027575344F, 0.093580335F, 0.10090618F, -0.013012961F,
    0.017155811F, 0.03403786F, -0.103700384F, -0.08132413F, -0.009382367F,
    0.01704216F, -0.088566944F, -0.10809925F, 0.017771006F, -0.093918666F,
    0.004474044F, 0.1045329F, 0.036395118F, 0.029482141F, 0.08175872F,
    -0.016955242F, -0.08067182F, -0.115291014F, -0.011163861F, -0.037158355F,
    0.061883718F, 0.10049349F, -0.055795312F, -0.06175901F, 0.026274964F,
    0.02559939F, -0.004880443F, -0.06518844F, 0.0049228966F, -0.040039614F,
    0.06970772F, -0.063308105F, -0.008901998F, -0.074872866F, -0.05787736F,
    0.08822094F, 0.00085555017F, -0.10473482F, 0.08640276F, 0.02153404F,
    -0.08489025F, -0.08243354F, -0.025431499F, -0.104162395F, -0.06970146F,
    0.042353004F, -0.09193015F, 0.0011152923F, -0.0104486495F, 0.1099135F,
    -0.12026891F, -0.0050293207F, 0.12374075F, 0.07816455F, -0.08586359F,
    0.024659961F, -0.06986502F, -0.011489511F, 0.029270083F, -0.039686844F,
    0.064968735F, 0.12453656F, -0.07379286F, -0.073000565F, -0.050370544F,
    0.0005156994F, -0.11144908F, 0.052283764F, -0.008151665F, -0.0496303F,
    -0.10585387F, 0.030280873F, 0.0067444295F, -0.082065776F, -0.1141313F,
    0.04503326F, -0.091239974F, -0.08227466F, -0.017365545F, -0.08481613F,
    -0.042753503F, 0.0039792657F, -0.10004927F, 0.12282477F, 0.068819106F,
    -0.011408299F, -0.023620889F, 0.124204114F, -0.077016324F, 0.03296314F,
    0.09634532F, 0.086265996F, -0.02268073F, -0.11966202F, -0.12294364F,
    0.11368482F, 0.027786091F, -0.0686412F, 0.11653711F, -0.07817225F,
    0.10392903F, 0.11881371F, -0.064675644F, -0.10038127F, 0.054132044F,
    -0.054179475F, 0.080721095F, -0.076957F, -0.012409419F, -0.124135196F,
    -0.10671815F, 0.111833125F, -0.107808396F, -0.106245145F, -0.061244696F,
    -0.09263976F, 0.010750085F, -0.015778512F, -0.05007206F, -0.013373673F,
    0.037680373F, -0.12276274F, 0.023874745F, -0.016772375F, -0.033405423F,
    0.010413989F, 0.06794295F, -0.12176804F, -0.09656584F, -0.1246472F,
    0.01682818F, -0.11180365F, -0.08961207F, -0.11594422F, 0.05445908F,
    0.04675351F, -0.11273849F, 0.07537444F, 0.07714856F, 0.01107344F,
    -0.060495213F, 0.03756775F, 0.06304763F, 0.11133918F, 0.0670014F,
    -0.07041831F, -0.031307727F, 0.06725033F, 0.05949612F, -0.07349086F,
    -0.06551947F, 0.05984044F, -0.05225426F, -0.028867215F, 0.06082675F,
    -0.10920675F, -0.04712628F, 0.12473394F, -0.027717352F, 0.01210317F,
    -0.016175225F, 0.06261833F, -0.04377684F, -0.11573991F, -0.064271584F,
    0.08786303F, -0.035719186F, -0.013007432F, 0.088709235F, 0.10908307F,
    -0.031086236F, -0.049941465F, 0.09355399F, 0.12110163F, 0.011734545F,
    -0.008550242F, -0.11957565F, -0.0681452F, -0.100825414F, -0.11018586F,
    -0.09227729F, -0.055810228F, -0.014995411F, 0.004139945F, -0.007969484F,
    0.020048559F, 0.11091936F, -0.02779685F, -0.064789355F, -0.005728632F,
    -0.019340366F, 0.00072978437F, -0.061695576F, 0.07002166F, 0.03720665F,
    0.10767722F, -0.108527645F, 0.11524536F, -0.094485104F, 0.054363146F,
    -0.06941573F, -0.0407995F, 0.11994338F, 0.02009295F, -0.029079676F,
    0.0043855906F, -0.04652022F, 0.02837202F, -0.019137159F, -0.03095965F,
    0.048486367F, 0.07092422F, 0.06941892F, 0.0026163608F, -0.012497246F,
    -0.052479833F, -0.062466413F, 0.04818864F, -0.060545042F, 0.09190339F,
    -0.11608295F, 0.074183196F, -0.073005244F, 0.041300967F, 0.10910979F,
    -0.043370888F, -0.054724365F, -0.058622077F, 0.0047658235F, 0.027623594F,
    -0.031370983F, 0.07841146F, 0.009331241F, 0.019178972F, -0.031396568F,
    -0.04285322F, 0.053757653F, -0.09362826F, -0.059557438F, -0.013482273F,
    0.039968967F, -0.0062764585F, 0.07016209F, -0.05650486F, -0.06898706F,
    0.054785684F, -0.001086697F, -0.11791146F, 0.07014808F, 0.0024951696F,
    -0.054303065F, -0.07554871F, -0.096552566F, 0.058534414F, 0.0056628883F,
    -0.07113089F, -0.022396833F, 0.0820913F, 0.024323821F, 0.070642754F,
    0.094791114F, -0.049755618F, 0.052527666F, 0.095022246F, 0.02502662F,
    0.050534636F, -0.04740855F, 0.045429766F, 0.04033664F, -0.041503415F,
    0.11335975F, 0.035499528F, 0.107109606F, 0.060403317F, -0.04726644F,
    -0.02986294F, -0.10639669F, -0.030578285F, 0.0022293627F, -0.04286404F,
    0.048242286F, 0.05356194F, -0.09281866F, -0.036941275F, -0.092146024F,
    -0.0018859357F, -0.019136101F, -0.083764896F, 0.09614493F, -0.11963217F,
    0.014603332F, 0.017764136F, 0.08622533F, -0.04408373F, 0.0019733459F,
    -0.03449212F, 0.07633045F, -0.06918402F, 0.052775577F, 0.09292817F,
    0.06356862F, 0.037149966F, -0.015483186F, 0.118256345F, -0.06990811F,
    -0.07064676F, 0.103428364F, 0.12173134F, -0.0020848215F, -0.0031160563F,
    -0.019807681F, -0.020507455F, -0.037409663F, 0.100605726F, -0.058219776F,
    0.053247094F, -0.030238107F, -0.016584858F, 0.053630605F, -0.001835838F,
    0.055405945F, 0.08151661F, 0.056787193F, -0.11441642F, 0.12252867F,
    0.0873767F, -0.10337487F, 0.008860797F, -0.12205136F, 0.035436347F,
    0.028643966F, -0.03240259F, 0.11480966F, -0.0036492944F, 0.06306493F,
    -0.020360857F, 0.05560735F, 0.023801103F, -0.05547981F, 0.10473153F,
    0.07761195F, 0.029839367F, 0.10302046F, -0.121035784F, 0.061313793F,
    0.113040596F, 0.013857737F, -0.048854902F, 0.0051164776F, 0.12196782F,
    -0.06455335F, -0.10320485F, 0.123648345F, 0.11805056F, -0.017804757F,
    -0.112688646F, 0.061305895F, 0.05869341F, 0.06546733F, 0.015792668F,
    0.050832957F, 0.001952216F, -9.62913E-5F, 0.10915935F, 0.046061695F,
    0.023124978F, -0.046307504F, 0.054610267F, 0.035581693F, 0.027379557F,
    -0.002235353F, 0.05048752F, 0.066278726F, 0.057268843F, -0.06782943F,
    -0.05432892F, 0.08686422F, -0.10276006F, -0.047156364F, 0.008908853F,
    0.08629115F, 0.123775214F, 0.1140559F, -0.045868784F, 0.06859818F,
    -0.05226393F, 0.059418634F, 0.016573325F, 0.091451466F, -0.07884672F,
    -0.052446246F, 0.040439025F, 0.09898442F, -0.10849297F, -0.015135393F,
    -0.010054991F, -0.09456782F, -0.011192292F, -0.011821747F, -0.016086012F,
    0.01548247F, -0.07556833F, 0.05795589F, -0.041149154F, 0.089430645F,
    0.06916559F, -0.036757067F, -0.008735314F, 0.020960927F, 0.105202615F,
    -0.098311186F, -0.010120988F, -0.017152473F, 0.0376406F, 0.11708285F,
    0.018549487F, -0.017903045F, -0.016798958F, -0.052269116F, 0.101647735F,
    -0.0031405538F, 0.07366696F, -0.07733971F, 0.017782807F, -0.10954361F,
    -0.091601506F, -0.011596322F, 0.004364878F, -0.069207504F, 0.061561555F,
    -0.10638173F, -0.05109343F, -0.06479286F, -0.050931975F, 0.013405427F,
    -0.028119877F, 0.04578747F, -0.12368685F, 0.07279833F, 0.1039246F,
    0.12375088F, -0.03480938F, -0.09849273F, 0.072910935F, -0.10831937F,
    0.054267332F, 0.028856114F, -0.101183236F, 0.04256867F, -0.076075F,
    -0.04819867F, -0.049927115F, 0.11409865F, 0.10311197F, 0.020021692F,
    -0.0016469955F, 0.10906449F, -0.038597867F, -0.09920871F, 0.01979345F,
    0.11855668F, 0.054243684F, -0.081326574F, 0.063026235F, -0.11809172F,
    -0.07107589F, -0.058189884F, -0.021166101F, 0.01983513F, -0.05643317F,
    -0.057866067F, 0.12284291F, 0.093799576F, -0.10522032F, 0.09362906F,
    -0.013501763F, 0.091033965F, 0.0877382F, -0.057309806F, -0.036061004F,
    -0.034707695F, 0.07796252F, -0.04277593F, -0.07785283F, 0.06877723F,
    0.015959263F, 0.06701696F, -0.09343743F, 0.04467939F, 0.0054025054F,
    -0.09774844F, -0.05912234F, -0.08697407F, 0.0016551763F, -0.04577872F,
    -0.11643599F, 0.013473809F, -0.09958467F, -0.067346185F, -0.047279716F,
    -0.09025775F, -0.034255788F, -0.114548534F, -0.08560893F, 0.05942464F,
    -0.10802457F, 0.11344686F, 0.07662448F, -0.12273452F, -0.035730943F,
    0.033092618F, -0.09405251F, 0.12428801F, -0.10451585F, 0.10170673F,
    0.04303947F, -0.12219608F, -0.045379326F, 0.066608995F, 0.075838655F,
    0.09459481F, -0.0476923F, -0.026024193F, 0.11180447F, 0.038798824F,
    0.068727314F, 0.12243767F, -0.032909304F, 0.10077499F, 0.040581793F,
    0.06666778F, 0.020337224F, -0.019712716F, 0.07459389F, -0.024543136F,
    0.0716957F, 0.023431003F, 0.016298622F, 0.07468298F, 0.025206193F,
    -0.059277996F, 0.059416413F, 0.113302276F, 0.074232444F, -0.049783558F,
    -0.06832875F, -0.11620022F, 0.07722077F, -0.024054348F, 0.10218255F,
    0.01719138F, 0.10273421F, 0.003566116F, -0.06509735F, -0.100039914F,
    0.014492422F, -0.0811546F, -0.06422573F, 0.02780737F, 0.100082785F,
    0.0027396083F, 0.10179202F, 0.057923302F, -0.09416719F, -0.11525163F,
    0.10421176F, -0.0013257712F, -0.12165129F, 0.09746586F, -0.017031401F,
    0.080850124F, -0.0880145F, 0.05627778F, -0.030072004F, -0.0015949011F,
    -0.028142482F, -0.07055712F, -0.07586552F, -0.012612805F, 0.09133957F,
    -0.067160115F, -0.102003425F, 0.029526249F, -0.0047410727F, 0.11659244F,
    -0.11009444F, 0.07448915F, 0.11102174F, -0.06866713F, 0.024983287F,
    0.007735193F, -0.029209286F, 0.06404708F, 0.113327384F, 0.018922508F,
    -0.070631206F, 0.0763246F, 0.021198094F, -0.115098834F, -0.08123435F,
    -0.033581465F, -0.122799486F, -0.027125672F, 0.10547778F, -0.08573182F,
    0.12024483F, -0.024105117F, 0.07875627F, 0.05222234F, -0.051058754F,
    0.09232664F, -0.062788054F, 0.098707676F, -0.053166986F, 0.009294197F,
    -0.0865358F, 0.026687399F, 0.022876233F, -0.041462213F, 0.09226613F,
    0.046402916F, -0.0013051927F, -0.038706765F, 0.10886291F, -0.07065846F,
    0.11505149F, 0.03642483F, 0.046393722F, 0.014017776F, 0.07252279F,
    -0.08413163F, 0.023615241F, 0.10188149F, -0.0035074651F, 0.05127929F,
    0.09754805F, -0.0050486326F, -0.049764752F, 0.11369035F, -0.09408638F,
    -0.006815225F, -0.076384425F, -0.044984743F, 0.02106677F, -0.0032462925F,
    0.021981508F, 0.09411721F, 0.12209922F, -0.048295468F, 0.116422415F,
    0.007009104F, -0.020459965F, -0.08232841F, 0.096592635F, 0.046158F,
    -0.093005136F, 0.0160162F, 0.09721115F, -0.09341374F, 0.03486781F,
    0.0839106F, 0.042978704F, 0.09706336F, -0.10086799F, 0.02742362F, 0.119481F,
    -0.07183558F, -0.043870464F, 0.11131248F, -0.09040868F, -0.09044124F,
    0.06528133F, -0.0047486126F, 0.06614807F, -0.1179453F, 0.041756004F,
    -0.09415135F, -0.101978704F, -0.082813144F, 0.056355968F, 0.041749477F,
    -0.04340811F, 0.04485579F, -0.0537806F, -0.028407127F, -0.02057308F,
    -0.00047288835F, 0.030111894F, -0.10569844F, 0.1148451F, 0.069612265F,
    -0.06712648F, 0.010061055F, -0.030800149F, -0.03635682F, -0.027594715F,
    -0.021805286F, 0.05350338F, 0.040914074F, -0.11510745F, -0.014339253F,
    0.10479686F, 0.07035783F, 0.01520507F, 0.03484568F, -0.08360261F,
    0.04368089F, 0.1096102F, 0.063804865F, 0.026751027F, -0.04960011F,
    -0.01922816F, 0.06926231F, -0.002240926F, 0.014852136F, 0.052477866F,
    -0.0047665685F, -0.083805814F, 0.07732688F, -0.06391938F, 0.010887191F,
    -0.010405347F, 0.0125333965F, -0.0005528778F, -0.0021266341F, -0.08943629F,
    0.059453875F, -0.034317285F, -0.05988507F, -0.10074027F, -0.07968262F,
    -0.11622305F, 0.057444096F, 0.027832955F, 0.04213591F, 0.101668775F,
    -0.019508228F, 0.07853393F, 0.07398617F, -0.111474186F, 0.011617079F,
    0.06630106F, -0.004234463F, 0.09427394F, 0.063703805F, -0.09235516F,
    0.08634134F, -0.10602458F, -0.017137155F, 0.07175173F, 0.07931107F,
    -0.09961231F, -0.078417346F, 0.0813501F, -0.12298417F, -0.11790894F,
    -0.12004702F, 0.10176523F, -0.06186594F, -0.10556573F, -0.026891321F,
    0.030424058F, -0.06817655F, 0.032361493F, 0.08153224F, -0.08184114F,
    0.1088936F, 0.057279393F, 0.10339159F, -0.020493582F, -0.062354F,
    0.06633496F, 0.10046516F, 0.089655384F, 0.028404549F, -0.03662899F,
    0.10727909F, 0.020685747F, 0.10754502F, -0.0942654F, 0.054470316F,
    0.0474499F, 0.11723879F, -0.08675921F, 0.10777618F, 0.034713045F,
    -0.12191704F, 0.0069957674F, -0.032277703F, 0.10316013F, 0.04126343F,
    0.10565692F, -0.06822722F, -0.09781353F, 0.048169255F, 0.09603098F,
    -0.080927F, -0.122391954F, -0.12305011F, -0.100216255F, -0.11622216F,
    0.010723367F, 0.0064900666F, 0.02118595F, 0.06474927F, 0.093391046F,
    -0.09952308F, 0.059421137F, 0.09678307F, 0.051967055F, 0.06754659F,
    0.09336883F, -0.021768436F, 0.036853403F, -0.027174234F, -0.043758556F,
    -0.07239793F, 0.060994357F, 0.10309914F, 0.013502121F, -0.0012635291F,
    0.048555464F, -0.045421824F, 0.037180573F, -0.035647705F, 0.014789373F,
    -0.026200354F, 0.056934208F, -0.030557469F, 0.049877316F, -0.03539279F,
    0.023015663F, -0.091088906F, 0.015922308F, 0.11129162F, 0.07744095F,
    0.029418215F, 0.08975503F, -0.04856555F, 0.02256371F, -0.05128029F,
    0.0069707483F, -0.07885267F, 0.004739791F, 0.006022513F, 0.03427875F,
    0.090929076F, -0.12368864F, -0.039517492F, -0.011145607F, -0.05485341F,
    -0.08312781F, 0.11396678F, -0.07740609F, -0.044584498F, -0.07838425F,
    -0.10211603F, 0.07618764F, 0.09175408F, -0.0013704002F, -0.045145556F,
    -0.07532287F, 0.11021985F, 0.08849479F, -0.026572555F, -0.086588174F,
    -0.020452797F, -0.07628001F, 0.082527235F, -0.016202047F, -0.048145115F,
    0.11150864F, 0.058059677F, 0.0006187707F, -0.09825906F, 0.084457204F,
    -0.020318866F, -0.12179588F, 0.10927881F, 0.05391465F, 0.004442036F,
    0.059479207F, -0.04979357F, 0.113625884F, -0.106563434F, 0.03969866F,
    -0.02952917F, -0.00091537833F, 0.07385102F, -0.11639409F, 0.04631059F,
    -0.09197909F, -0.08465697F, 0.021603405F, -0.03997141F, -0.118177235F,
    0.05493106F, -0.06147428F, -0.08706972F, 0.055115357F, 0.08085579F,
    -0.0943909F, -0.09035222F, 0.09456755F, -0.11650616F, -0.046091586F,
    0.12456511F, -0.003971666F, -0.07084519F, 0.10080662F, -0.07985176F,
    -0.0800924F, -0.045677513F, 0.11168595F, 0.0032440573F, 0.084636375F,
    0.06920707F, 0.05549547F, -0.10779177F, -0.0033029467F, 0.07100247F,
    -0.123061135F, -0.06010045F, -0.00964047F, -0.1090014F, 0.024992317F,
    0.058525354F, -0.08871068F, -0.060742572F, 0.04988323F, -0.09348184F,
    0.04601364F, -0.07404326F, -0.11071706F, -0.071841255F, 0.1231626F,
    -0.08071256F, -0.076739594F, 0.065632805F, -0.10710409F, 0.041466504F,
    -0.03030479F, 0.029151559F, -0.024783999F, -0.06688538F, 0.07196729F,
    0.10789904F, 0.03669128F, 0.0077363253F, 0.123784214F, -0.03392601F,
    -0.12311737F, -0.10945748F, -0.1193054F, 0.10404062F, -0.105891034F,
    -0.094669F, 0.12135252F, -0.092512235F, 0.10202634F, 0.0031144768F,
    -0.00069499016F, -0.11233935F, -0.12292312F, 0.11141351F, 0.048168644F,
    0.013087168F, 0.11894438F, -0.018959194F, 0.027121231F, 0.051496938F,
    0.002341807F, -0.09112029F, -0.0118254125F, 0.05772236F, 0.12269756F,
    -0.027879551F, 0.070693254F, -0.0023575872F, -0.09316024F, 0.027508631F,
    0.087038055F, 0.022314265F, -0.0022782534F, -0.08771537F, 0.0025892407F,
    0.040632337F, 0.03726998F, -0.07338083F, -0.014434859F, 0.0025428683F,
    -0.07891424F, 0.1137059F, 0.016305521F, 0.09461202F, 0.092303574F,
    0.07022284F, 0.0804832F, -0.0715387F, -0.022488311F, 0.10857822F,
    0.09722555F, 0.0791174F, -0.03843759F, -0.025527358F, -0.05155042F,
    0.090634525F, -0.0713729F, -0.04201469F, 0.025622025F, 0.041835874F,
    0.04890822F, -0.081173286F, -0.028104097F, 0.025825143F, -0.022477746F,
