/*
 * soc_model_weights.h
 *
 * Auto-generated weights for LSTM-based State-of-Charge (SOC) estimation model.
 *
 * Model architecture:
 *   - Input:  5 features (voltage, current, temperature, delta_voltage, delta_current)
 *   - LSTM:   2-layer, hidden_size=64, batch_first=True
 *   - Head:   Linear(64->64) -> ReLU -> Linear(64->1)
 *   - Output: 1 (SOC estimate, 0.0 to 1.0)
 *
 * LSTM gate order (PyTorch convention): [input, forget, cell, output]
 * Each gate occupies rows [g*64 .. (g+1)*64-1] in the weight matrices.
 *
 * Biases: bias_ih and bias_hh are pre-summed into a single bias per layer
 * to save one vector addition at runtime.
 *
 * All arrays are row-major (C order).
 */

#ifndef SOC_MODEL_WEIGHTS_H
#define SOC_MODEL_WEIGHTS_H

/* Section attribute: use .rodata on ARM/ELF (bare-metal) targets, nothing on macOS/hosted */
#if defined(__arm__) && !defined(__APPLE__)
#define SOC_RODATA __attribute__((section(".rodata")))
#else
#define SOC_RODATA
#endif

/* --------------- Model dimensions --------------- */
#define INPUT_SIZE   5
#define HIDDEN_SIZE  64
#define NUM_LAYERS   2
#define SEQ_LEN      10
#define OUTPUT_SIZE  1
#define GATE_SIZE    (4 * HIDDEN_SIZE)  /* 256 */

/* LSTM layer 0: input-hidden weights [256 x 5]  (gates: i,f,g,o) */
static const float lstm_weight_ih_l0[1280] SOC_RODATA = {
    -5.68188727e-03f, 2.75463611e-02f, -1.24769762e-01f, -4.65943813e-02f, 8.75775963e-02f, -2.69702375e-02f, -1.22999117e-01f, 5.28122187e-02f,
    1.20673180e-02f, -9.42175537e-02f, -8.60040337e-02f, -1.16639853e-01f, 7.08422065e-02f, 1.07029244e-01f, -2.74895281e-02f, -1.96008384e-02f,
    -1.09752700e-01f, 7.67678022e-04f, -3.87129337e-02f, 9.78891104e-02f, -1.03811964e-01f, 1.00902021e-02f, 3.69577706e-02f, -7.23604262e-02f,
    4.71440405e-02f, 1.16305292e-01f, -9.71932709e-02f, 1.54271275e-02f, -2.38733143e-02f, 1.58197284e-02f, 1.12699896e-01f, 4.05484438e-03f,
    2.37956643e-04f, 8.89855027e-02f, -8.46566409e-02f, -1.02339193e-01f, -3.76733989e-02f, 8.47725421e-02f, 3.05148661e-02f, -8.23761821e-02f,
    1.07280672e-01f, -1.03867114e-01f, 1.58524364e-02f, 4.88478541e-02f, -3.36807966e-02f, -1.00791454e-01f, 1.40769929e-02f, 1.00392759e-01f,
    4.49472070e-02f, 1.06685534e-01f, -5.33344299e-02f, -7.16523081e-02f, 2.06996500e-03f, -9.74058062e-02f, -9.67559218e-03f, 5.28485924e-02f,
    -2.06217319e-02f, -5.41220307e-02f, -6.05237186e-02f, 5.02164066e-02f, 7.32991099e-02f, 9.25795734e-02f, 5.14496267e-02f, -1.01580173e-01f,
    9.47833806e-02f, 6.46731853e-02f, -5.67602664e-02f, 4.06205654e-04f, 2.79687345e-02f, -1.05891556e-01f, -1.00794494e-01f, 1.53562278e-02f,
    -6.31523281e-02f, 6.33015484e-02f, -9.00117159e-02f, 4.07082140e-02f, 7.12554157e-02f, -9.43683386e-02f, 1.09820127e-01f, 2.23517865e-02f,
    -7.65548348e-02f, -7.67196268e-02f, 4.98615056e-02f, -1.84108466e-02f, -1.15466565e-01f, -7.46977776e-02f, -2.81452686e-02f, -2.44781375e-02f,
    9.57027227e-02f, 3.88881564e-03f, -3.28544825e-02f, 6.51967525e-02f, -1.20188043e-01f, 6.87597394e-02f, -6.86489344e-02f, 1.20626390e-03f,
    6.79713190e-02f, 1.24984711e-01f, 1.16802245e-01f, -5.18665612e-02f, 2.96659172e-02f, 4.85024750e-02f, -1.21161908e-01f, -5.86867332e-03f,
    2.42642909e-02f, 2.69181281e-02f, 7.54380077e-02f, -8.28582048e-03f, -8.91464949e-02f, 1.15421161e-01f, 6.31264746e-02f, -2.05582529e-02f,
    4.42682505e-02f, 7.84410983e-02f, -1.06117025e-01f, 5.17776608e-02f, -1.16086602e-02f, 3.87761295e-02f, -3.73916179e-02f, 7.59311467e-02f,
    5.30214310e-02f, 7.72074163e-02f, 5.24456054e-02f, 8.69572014e-02f, 2.57795304e-02f, -9.61239040e-02f, 3.65290642e-02f, -2.06426531e-02f,
    -2.25788057e-02f, 1.53439492e-02f, 4.87259030e-02f, 1.00951746e-01f, -5.36901951e-02f, -2.86322385e-02f, 7.22110569e-02f, -6.23447746e-02f,
    -5.33669591e-02f, -1.03313193e-01f, 2.62834132e-02f, -1.16547748e-01f, -4.26002443e-02f, 1.92517638e-02f, 6.33925945e-02f, 6.56956583e-02f,
    8.26954544e-02f, -7.81004131e-02f, 2.82061398e-02f, 1.17978498e-01f, 9.67383683e-02f, 1.23284012e-01f, 1.16030201e-01f, 2.09123045e-02f,
    1.05668068e-01f, -9.40534323e-02f, -9.47152078e-02f, -6.69406652e-02f, 2.50241160e-02f, 8.56768042e-02f, -9.92524922e-02f, -6.99655563e-02f,
    -8.71027112e-02f, -1.03511021e-01f, -5.66077977e-02f, 9.89406109e-02f, 1.15051791e-01f, -2.73049921e-02f, 8.26270729e-02f, 4.90351319e-02f,
    -5.20872027e-02f, 2.45953202e-02f, 3.15248966e-02f, 5.26890308e-02f, -5.20521402e-02f, 7.82655627e-02f, 7.69242644e-03f, -5.60941994e-02f,
    8.36160779e-03f, -5.64339012e-02f, -4.48997021e-02f, -4.28943932e-02f, 1.20714605e-02f, -3.24796736e-02f, 2.06478387e-02f, 3.38990241e-02f,
    -1.21249259e-03f, -4.56744134e-02f, -4.49808836e-02f, -4.68202829e-02f, 4.48312163e-02f, -1.02432996e-01f, -9.96575803e-02f, -1.86520368e-02f,
    -3.57041657e-02f, -6.06745481e-04f, 2.01505423e-03f, -5.18966764e-02f, -7.62038380e-02f, -1.84025168e-02f, -1.06365144e-01f, -1.09717250e-03f,
    -1.91741437e-02f, 7.79623389e-02f, -7.17180073e-02f, -1.18634090e-01f, -8.45276564e-02f, -3.45378369e-02f, 3.31994742e-02f, -1.20843887e-01f,
    -1.09918445e-01f, -2.68823057e-02f, -1.01014838e-01f, 5.36689013e-02f, 4.54537719e-02f, -6.21637106e-02f, -8.46375525e-02f, -1.16519094e-01f,
    -8.20029527e-02f, 2.06320286e-02f, -8.69044662e-03f, 4.46900874e-02f, -3.74080241e-03f, -4.46157157e-02f, -5.44510782e-02f, 4.56000268e-02f,
    -1.18383721e-01f, -8.08340311e-02f, 5.51640689e-02f, 2.81904042e-02f, 3.35808098e-02f, -8.37623030e-02f, 9.92364734e-02f, -2.13424116e-02f,
    2.77257413e-02f, -1.18875235e-01f, 9.56137478e-02f, 8.65405053e-02f, 1.72033012e-02f, -1.06482103e-01f, 9.75524187e-02f, -1.05949000e-01f,
    1.46678388e-02f, -4.58265394e-02f, -6.74049556e-03f, 8.27377886e-02f, 1.52910352e-02f, 2.20896304e-03f, 3.19500118e-02f, 2.99201608e-02f,
    -3.80922258e-02f, 6.44799024e-02f, -1.39420629e-02f, -1.10279307e-01f, 8.15486908e-02f, -4.89611626e-02f, 4.47088629e-02f, -9.38057005e-02f,
    5.69579303e-02f, 8.09644163e-03f, -1.12646833e-01f, 3.10054868e-02f, -2.29112208e-02f, -8.36083591e-02f, -1.24625117e-02f, -9.89080966e-03f,
    3.86335403e-02f, 8.71741474e-02f, 3.28338146e-03f, -1.02169469e-01f, 3.13234478e-02f, -1.11236513e-01f, -5.71394414e-02f, -2.58702785e-02f,
    1.30495280e-02f, -1.24473274e-01f, -9.48729664e-02f, -3.66425067e-02f, 2.43781209e-02f, -3.50996852e-04f, -1.01593614e-01f, -6.03244007e-02f,
    3.51299942e-02f, -1.06076300e-01f, -6.03746623e-02f, -2.40301043e-02f, -1.02848351e-01f, -9.61133987e-02f, 1.17416799e-01f, -3.02001834e-02f,
    2.01700330e-02f, -9.52673405e-02f, 9.28599834e-02f, 8.88899267e-02f, -1.03289261e-01f, 1.92185491e-02f, 7.15902746e-02f, 5.22745252e-02f,
    1.09433472e-01f, 4.26518917e-02f, -3.43073905e-02f, 1.09310001e-01f, 1.27393603e-02f, 1.17900968e-03f, 1.03209749e-01f, -1.21988252e-01f,
    -8.18058848e-04f, 3.81915122e-02f, 5.22647798e-03f, 2.36369073e-02f, 5.10096550e-03f, -1.61021054e-02f, 9.70926434e-02f, 7.52367824e-02f,
    -8.15063566e-02f, -1.13091260e-01f, 9.90124196e-02f, 7.97652453e-02f, 5.38539290e-02f, 1.14276841e-01f, -8.05805624e-02f, -9.06581432e-02f,
    -5.67773730e-02f, 8.58257562e-02f, 6.44789636e-03f, -7.39838928e-02f, 8.03403705e-02f, -1.40880048e-03f, 1.07864469e-01f, 1.03623062e-01f,
    -1.71123445e-02f, -4.98307645e-02f, -3.67661864e-02f, -1.12494931e-01f, -9.11722630e-02f, 3.97348702e-02f, -2.84746289e-04f, 8.25398415e-02f,
    1.14153504e-01f, -5.91440648e-02f, -9.75265205e-02f, -9.55228508e-03f, -7.30801374e-02f, -7.45957345e-02f, 4.47645932e-02f, -7.23878294e-02f,
    2.17905194e-02f, 1.04250237e-01f, 9.20585543e-02f, -1.39288604e-02f, -3.20602506e-02f, 6.05235845e-02f, -9.83966887e-03f, -1.04448825e-01f,
    1.07729390e-01f, 5.87420613e-02f, 4.62431908e-02f, 7.56929815e-02f, -5.67612350e-02f, 2.58450210e-03f, 6.08364791e-02f, 5.26022017e-02f,
    5.65048605e-02f, -7.00930059e-02f, -6.80691898e-02f, 5.05335331e-02f, -9.17440802e-02f, -1.19901106e-01f, -4.20628935e-02f, 7.82990903e-02f,
    -2.01440901e-02f, 3.20260078e-02f, -5.74867874e-02f, 7.90697336e-03f, -8.75975192e-02f, -1.21422559e-02f, 5.29505163e-02f, 5.64448684e-02f,
    -1.20096892e-01f, 1.21755898e-01f, 4.01668549e-02f, 2.84845382e-02f, 1.19569361e-01f, -9.25816447e-02f, 1.00595295e-01f, 7.78900087e-02f,
    3.00013870e-02f, 3.76528502e-02f, -8.14127922e-03f, -1.13635212e-01f, -2.18992084e-02f, -1.23369366e-01f, -1.05919048e-01f, -4.97117788e-02f,
    -5.00284582e-02f, 6.68041110e-02f, 3.80293131e-02f, -9.58730429e-02f, -2.33870596e-02f, -8.77281576e-02f, 2.65200734e-02f, -6.11353070e-02f,
    -9.11201388e-02f, 5.77882677e-02f, -1.00092962e-01f, -4.04331535e-02f, -9.19763148e-02f, -2.56142467e-02f, 1.06486753e-01f, -1.16767749e-01f,
    -5.94191551e-02f, 4.02684957e-02f, 7.83548802e-02f, -3.67778242e-02f, -3.61811519e-02f, -2.00424194e-02f, -1.10582635e-01f, 7.17961788e-03f,
    1.22472808e-01f, -1.23145193e-01f, -1.17258281e-01f, 1.52257234e-02f, 2.91958451e-02f, -1.79819912e-02f, 9.58540887e-02f, 1.15159079e-01f,
    -4.28532511e-02f, -1.19718224e-01f, -3.83274108e-02f, -1.21956393e-01f, 3.43298912e-02f, 1.00656912e-01f, 1.18462577e-01f, -1.06520548e-01f,
    1.18820369e-02f, -4.51693982e-02f, 3.77251506e-02f, -8.44517350e-03f, 4.16693985e-02f, -9.42878872e-02f, 5.74311018e-02f, -1.05580464e-01f,
    -6.44806623e-02f, 4.67988998e-02f, -1.21077046e-01f, -8.42851847e-02f, 2.32003331e-02f, 1.05829939e-01f, -1.09902546e-01f, -1.32895708e-02f,
    8.78542364e-02f, -9.39043164e-02f, 1.48132592e-02f, 7.96902180e-02f, 1.04055703e-01f, -2.80508399e-02f, 1.85823739e-02f, 9.11013037e-02f,
    -6.29473031e-02f, 3.58158499e-02f, -9.11729783e-02f, 1.97863132e-02f, -3.62345576e-03f, 7.53763020e-02f, -1.01787373e-01f, -1.17698178e-01f,
    -6.49914742e-02f, -2.32348442e-02f, 9.96941328e-02f, -5.79538643e-02f, -5.49985021e-02f, 1.23458907e-01f, -9.14719701e-03f, -4.11994755e-03f,
    -2.60523558e-02f, -7.74670690e-02f, -9.64091271e-02f, -1.14016533e-02f, -5.60683012e-03f, -4.63812053e-02f, 5.29801548e-02f, 2.45695561e-02f,
    9.88429338e-02f, -6.34362400e-02f, 5.45054674e-02f, 5.06112725e-02f, -9.81282443e-02f, -5.98222017e-04f, -1.13773882e-01f, 6.66546375e-02f,
    -1.06348887e-01f, 1.06975839e-01f, 7.08747506e-02f, -1.00075737e-01f, -1.88424438e-02f, -6.47025853e-02f, -6.56221062e-02f, -4.06142622e-02f,
    -5.36202490e-02f, -6.54769093e-02f, -9.30342078e-03f, 4.68357205e-02f, -1.79641545e-02f, 1.04804307e-01f, 4.24577892e-02f, -1.09279364e-01f,
    6.50461763e-02f, -4.59778458e-02f, -1.22619122e-02f, -6.15338385e-02f, 3.30000967e-02f, -1.89583153e-02f, -1.17502227e-01f, 1.12144411e-01f,
    -8.50560367e-02f, 6.03585541e-02f, 1.51483566e-02f, 6.10414147e-03f, -1.09820813e-01f, -1.03403300e-01f, -1.07547611e-01f, 8.95090699e-02f,
    -1.36140883e-02f, -1.21046111e-01f, -1.14361495e-02f, 6.67581558e-02f, 8.60569626e-02f, 1.10361367e-01f, -9.93915349e-02f, 3.70958447e-03f,
    6.91084862e-02f, -5.57391346e-02f, -8.44742507e-02f, 2.13460475e-02f, 7.23205656e-02f, -6.37904257e-02f, 1.13608718e-01f, -2.21344829e-02f,
    -3.78485918e-02f, -2.33301520e-03f, 3.59332412e-02f, -3.07599008e-02f, 6.28664196e-02f, -5.44989109e-03f, 4.79234159e-02f, 5.26130497e-02f,
    -8.90630633e-02f, -2.84875035e-02f, 5.48700392e-02f, -5.18880486e-02f, 1.18857309e-01f, -5.14361560e-02f, -3.33192945e-03f, -1.11756951e-01f,
    5.20135462e-03f, 7.47623146e-02f, 6.52291328e-02f, 7.05041438e-02f, 7.98872113e-02f, -1.29731596e-02f, 5.68389893e-02f, 1.44638419e-02f,
    9.21939313e-02f, 1.23219684e-01f, 3.32693458e-02f, -1.83479488e-03f, -6.28159642e-02f, 4.84374017e-02f, -6.72121644e-02f, 6.87935352e-02f,
    -2.09458321e-02f, 2.85713375e-03f, -5.68242669e-02f, -3.72571498e-02f, 1.01067036e-01f, -3.19875032e-02f, -5.29044122e-02f, 2.78705955e-02f,
    9.94014442e-02f, -6.95570260e-02f, -2.26429254e-02f, 2.75142938e-02f, 6.20421916e-02f, -1.08397201e-01f, 7.30892718e-02f, 6.33809417e-02f,
    -5.30459434e-02f, -2.09090859e-02f, -1.77831501e-02f, 5.88229299e-02f, 6.18504435e-02f, 4.32824939e-02f, 2.06307471e-02f, 2.62204260e-02f,
    -5.91643304e-02f, -1.06465369e-01f, -7.05991983e-02f, 3.02681923e-02f, 5.20300865e-03f, 3.75256389e-02f, -6.39645755e-03f, -7.98362046e-02f,
    2.55233198e-02f, 7.73153007e-02f, -7.51017481e-02f, -4.19634432e-02f, 8.57983381e-02f, 1.92449987e-03f, -1.88032538e-02f, -7.84783065e-02f,
    -2.62426436e-02f, 1.23283476e-01f, 1.12520739e-01f, 2.69218087e-02f, 9.94877666e-02f, 6.68806732e-02f, -3.46278697e-02f, 1.21783242e-01f,
    1.17157549e-02f, 2.71291137e-02f, 7.29724765e-02f, 1.21283993e-01f, -2.66823918e-02f, 9.97995883e-02f, -2.44841427e-02f, -1.68199986e-02f,
    1.13846064e-02f, -2.05133557e-02f, -1.58972889e-02f, -7.11908191e-02f, 1.24450460e-01f, -8.18949193e-02f, -6.90326542e-02f, 3.69037092e-02f,
    1.09595060e-01f, -9.93336141e-02f, 8.80454183e-02f, 1.23243690e-01f, 7.77651072e-02f, -2.88651288e-02f, 1.15429938e-01f, -1.22683093e-01f,
    -5.88458180e-02f, -6.79919273e-02f, -1.16143197e-01f, -1.03397071e-02f, -2.74606943e-02f, -1.00907668e-01f, -2.87935436e-02f, -1.09729454e-01f,
    -9.19676572e-02f, -2.12564915e-02f, 8.56190175e-02f, -1.75583959e-02f, -2.85083950e-02f, 1.11400753e-01f, 1.05642974e-01f, 9.27284658e-02f,
    1.23938143e-01f, -1.23958334e-01f, 1.22326761e-02f, 6.55781776e-02f, -7.55064338e-02f, 1.11480460e-01f, -6.49038106e-02f, 2.61321664e-02f,
    1.20048225e-02f, 4.37550545e-02f, 8.51847976e-02f, -1.73208266e-02f, -4.39472049e-02f, -1.49345845e-02f, -5.28109223e-02f, -1.19048625e-01f,
    -2.87759751e-02f, -9.02550519e-02f, -1.15847066e-01f, -7.72712827e-02f, 9.46463645e-03f, -5.96535802e-02f, 3.95409018e-02f, 9.00852084e-02f,
    -8.16912651e-02f, 1.17464915e-01f, -1.67860389e-02f, 2.86520869e-02f, 1.11353770e-01f, -8.47171098e-02f, 6.59542829e-02f, 4.25437838e-02f,
    -1.23069167e-01f, -1.44784898e-02f, 1.22561336e-01f, 1.04036868e-01f, -7.87308365e-02f, 3.73126566e-03f, 5.33237308e-02f, -4.50141877e-02f,
    -8.73532891e-03f, -2.99453288e-02f, -9.27748084e-02f, 3.49034965e-02f, 7.64920861e-02f, -1.47934258e-03f, -2.93786675e-02f, -3.59101743e-02f,
    9.27673876e-02f, -3.11285555e-02f, -5.92892915e-02f, -2.76860595e-02f, -6.70474470e-02f, 7.78432190e-02f, -9.20257121e-02f, -4.31630611e-02f,
    -3.70148271e-02f, -6.20380789e-02f, 1.05367750e-02f, -9.33781117e-02f, -6.48974627e-02f, -6.90309554e-02f, -1.18684009e-01f, -6.12549633e-02f,
    7.59455860e-02f, 5.66766411e-02f, -1.59672797e-02f, -8.60830545e-02f, 1.31705403e-02f, -6.49250597e-02f, -2.31842697e-02f, -4.44740504e-02f,
    -4.70742583e-03f, -4.38187271e-02f, 3.09764296e-02f, 6.76221699e-02f, 1.21357083e-01f, 8.48788023e-02f, -8.30870867e-03f, 1.82824582e-02f,
    -7.14413673e-02f, -1.59925222e-03f, 5.31726032e-02f, 2.52711773e-03f, 2.08727568e-02f, -1.13304392e-01f, 4.47141379e-02f, -1.52692497e-02f,
    -3.04377526e-02f, 1.15895420e-01f, -9.03438628e-02f, 4.46694195e-02f, -1.09378263e-01f, -1.14187136e-01f, -3.49246264e-02f, 1.05929792e-01f,
    3.19027603e-02f, 1.04556590e-01f, -1.31252855e-02f, -1.09566063e-01f, 7.46612251e-03f, 1.03722274e-01f, 4.48613614e-02f, -8.96748006e-02f,
    -1.02053881e-01f, 3.88825387e-02f, 3.91220897e-02f, -7.83804208e-02f, 2.38718837e-02f, 9.95668322e-02f, -8.72005522e-02f, 1.22946694e-01f,
    4.96487021e-02f, 8.60598981e-02f, 6.94301873e-02f, 5.91593534e-02f, -8.64315331e-02f, 2.21072584e-02f, -6.38017952e-02f, -1.14319921e-02f,
    7.32208788e-03f, 9.76918638e-02f, 1.20352149e-01f, 5.87711781e-02f, 5.70909530e-02f, -2.54974365e-02f, -5.58618158e-02f, 9.56644118e-02f,
    1.14899918e-01f, 9.49113816e-02f, 1.13611311e-01f, 7.62498975e-02f, -2.57960260e-02f, -2.01595426e-02f, 4.93771285e-02f, -1.03613436e-01f,
    -9.86533016e-02f, -2.06494778e-02f, -7.28388280e-02f, -1.01817265e-01f, -5.31087071e-02f, 9.86972898e-02f, -8.16068649e-02f, -7.29269683e-02f,
    8.00435692e-02f, 1.05039224e-01f, 6.39060587e-02f, 4.38443124e-02f, 1.21940225e-02f, -1.15466326e-01f, 7.46512860e-02f, -1.00380406e-01f,
    -6.18712902e-02f, 9.11259800e-02f, -5.81602901e-02f, -2.54774988e-02f, 2.81562507e-02f, 3.22125852e-02f, 5.49588948e-02f, 6.96927309e-04f,
    -9.87200141e-02f, 7.92227536e-02f, 6.48684055e-02f, -9.91922170e-02f, 7.35047907e-02f, 4.27487791e-02f, 5.37002683e-02f, 9.38288271e-02f,
    5.96824735e-02f, 1.59780681e-02f, -1.00988224e-01f, -2.52716541e-02f, 2.99368799e-02f, 1.52626634e-03f, 7.08013624e-02f, -4.72495854e-02f,
    6.96761608e-02f, -8.01036954e-02f, -7.45060742e-02f, 1.46173090e-02f, -4.13237661e-02f, -2.78352499e-02f, -3.48558277e-02f, 1.20610833e-01f,
    -1.13119140e-01f, 1.18086934e-02f, 9.88815129e-02f, 3.36177945e-02f, -2.56007910e-02f, -4.02050167e-02f, 5.46357036e-03f, -8.02398920e-02f,
    -1.15890414e-01f, 5.19251823e-03f, 6.05040044e-02f, 2.26104707e-02f, 1.22485608e-01f, 1.23213172e-01f, 1.86328590e-02f, -9.93960798e-02f,
    -2.94815004e-03f, 3.71150076e-02f, 8.53564888e-02f, -6.12980127e-02f, 7.63771534e-02f, -9.59582776e-02f, -9.65680182e-02f, 1.04271472e-02f,
    9.56746340e-02f, 3.60207111e-02f, 3.09694111e-02f, -5.35167903e-02f, 1.02185577e-01f, 1.04655474e-01f, 1.19190216e-01f, -4.36397344e-02f,
    -1.46355629e-02f, 8.97247344e-02f, -1.81651115e-03f, -1.29671693e-02f, -9.89800692e-02f, -4.00613099e-02f, 9.78282541e-02f, -7.57439286e-02f,
    3.18710953e-02f, -1.42467469e-02f, -7.70466775e-02f, 6.84421808e-02f, -6.78846389e-02f, 9.48889107e-02f, 7.37912953e-03f, -1.59960240e-02f,
    -6.75079674e-02f, -4.68959510e-02f, 9.16130394e-02f, 9.56362486e-02f, -7.16844201e-03f, 1.20509550e-01f, 4.95110899e-02f, 8.27758014e-03f,
    -5.48893213e-03f, 1.01009861e-01f, 2.75135338e-02f, 8.09091330e-02f, 9.75676477e-02f, 2.02664733e-03f, 1.13387898e-01f, -8.87464136e-02f,
    7.31343478e-02f, 4.50947583e-02f, 4.74926233e-02f, 9.09179449e-04f, -3.53725702e-02f, -9.09447670e-04f, -6.72195107e-02f, 2.71640122e-02f,
    -5.43077290e-02f, 1.14684746e-01f, 7.45811462e-02f, -2.22794712e-02f, -6.86839223e-03f, 2.30928808e-02f, -1.05877891e-01f, -1.65832788e-02f,
    -6.82367980e-02f, -8.49300474e-02f, -1.06922358e-01f, -5.72656989e-02f, -1.79725736e-02f, 3.53634357e-02f, 8.57893676e-02f, -1.09066397e-01f,
    -8.92504603e-02f, -3.74042541e-02f, 3.05327773e-02f, 2.34682858e-03f, 7.88583755e-02f, -1.12396657e-01f, 4.07468230e-02f, 1.20243832e-01f,
    6.95683807e-02f, 1.65204257e-02f, 1.09467492e-01f, 3.09984684e-02f, 4.43697721e-02f, 2.93989480e-02f, -5.83394766e-02f, 7.00279623e-02f,
    6.94938451e-02f, -1.13691181e-01f, -3.30613852e-02f, -1.41947716e-02f, -1.72698051e-02f, 3.86597216e-02f, -1.26560330e-02f, -6.80457205e-02f,
    1.32154375e-02f, 8.68199915e-02f, 2.96779722e-02f, 1.00854024e-01f, -6.77646399e-02f, 5.57613671e-02f, 1.05310172e-01f, -1.12706318e-01f,
    -5.81615865e-02f, 1.24803618e-01f, 3.32206488e-04f, 6.92410022e-02f, 8.37115943e-02f, -1.13143191e-01f, -1.93038285e-02f, -5.54793328e-02f,
    6.56228065e-02f, -6.44004196e-02f, 3.86677980e-02f, -1.07648864e-01f, 6.79246485e-02f, -5.06074280e-02f, -1.89923346e-02f, 1.70958191e-02f,
    5.82485944e-02f, 8.23901594e-02f, 2.75956839e-02f, -1.73351169e-02f, 9.59026963e-02f, -9.84069109e-02f, -8.61160457e-02f, 2.02490389e-03f,
    -3.83013040e-02f, -1.23004213e-01f, -4.93277460e-02f, 1.04779720e-01f, -8.16373378e-02f, -6.02857471e-02f, -7.30631500e-02f, 7.26676434e-02f,
    4.36521918e-02f, 1.10671699e-01f, -3.19588333e-02f, -4.24288213e-02f, -9.11451131e-02f, 8.66384804e-03f, -6.04377687e-02f, 8.98680687e-02f,
    1.64579898e-02f, 5.45368195e-02f, 1.08661979e-01f, -6.86250627e-02f, 2.92889923e-02f, 2.51246393e-02f, -1.32904947e-03f, 6.30812347e-02f,
    -6.77390248e-02f, -9.52000916e-03f, -4.21723723e-02f, 1.83069408e-02f, 1.25534981e-02f, 7.41131455e-02f, -4.61641699e-02f, -3.99933308e-02f,
    -1.20835647e-01f, 1.18913069e-01f, 1.08693048e-01f, 1.15880653e-01f, -1.10637978e-01f, -1.10453457e-01f, -3.75286043e-02f, -1.07632190e-01f,
    8.37686062e-02f, 5.47063649e-02f, -8.54339898e-02f, -7.38588721e-02f, 8.32493901e-02f, -2.94525921e-03f, -3.83162796e-02f, -7.20366240e-02f,
    5.11788428e-02f, 9.26531106e-02f, -1.20125517e-01f, 4.70042825e-02f, 6.12204671e-02f, -1.03562191e-01f, 6.01357371e-02f, 7.72750974e-02f,
    8.22394788e-02f, 1.01313278e-01f, 2.36670822e-02f, -6.43644929e-02f, -9.72380340e-02f, -9.02348757e-03f, -9.38867778e-02f, 5.71300238e-02f,
    -3.48873138e-02f, 3.72468680e-02f, -1.22399628e-03f, -3.23944837e-02f, -7.38091618e-02f, -6.58680797e-02f, 1.31098479e-02f, 1.05517462e-01f,
    -9.06683505e-02f, 1.83074921e-02f, 3.11405361e-02f, 3.88365537e-02f, 3.51285040e-02f, -1.11010984e-01f, -4.38996404e-02f, -7.24843293e-02f,
    1.03701353e-01f, -3.28075737e-02f, 5.81599176e-02f, 8.96899998e-02f, 1.10318780e-01f, 5.82243502e-03f, 2.90408134e-02f, -1.23596892e-01f,
    2.01964825e-02f, -1.06554136e-01f, 1.13004029e-01f, -1.02300793e-01f, -1.21024504e-01f, 5.17857373e-02f, -8.71956348e-02f, -6.11600876e-02f,
    4.20626998e-03f, -9.51119959e-02f, -5.82637638e-02f, -4.46993560e-02f, 7.53227621e-02f, -2.65174955e-02f, 7.73687661e-02f, 2.68695652e-02f,
    -5.68318367e-03f, -5.81104755e-02f, 7.44696409e-02f, -2.30927765e-02f, -2.81768590e-02f, 1.20390460e-01f, 1.19497567e-01f, 1.05905041e-01f,
    7.45887309e-02f, 4.80396450e-02f, -6.17447495e-03f, 4.31995690e-02f, 3.40018272e-02f, 1.01005897e-01f, -7.76177794e-02f, 1.04500562e-01f,
    -5.09188920e-02f, -1.15873471e-01f, 7.48099983e-02f, 1.17935881e-01f, -3.99862975e-02f, 1.21395469e-01f, 4.98275459e-03f, 1.21522099e-01f,
    7.56266713e-03f, -7.14673698e-02f, -1.64208263e-02f, -4.21869904e-02f, 1.03163362e-01f, 9.01628435e-02f, -7.10555762e-02f, -3.27843428e-03f,
    1.04526863e-01f, 7.51139671e-02f, -9.47059393e-02f, -5.09024560e-02f, -7.86969960e-02f, 1.16646811e-01f, 4.46760058e-02f, 1.13067642e-01f,
    7.62950182e-02f, 1.24805793e-01f, -1.57891363e-02f, 7.36877322e-02f, 6.26425147e-02f, -4.06096280e-02f, 1.11030728e-01f, -5.30252010e-02f,
    4.76018935e-02f, -1.24956623e-01f, -1.10304192e-01f, -2.30469853e-02f, -7.33717531e-02f, 3.91405672e-02f, 8.66604894e-02f, 5.26030064e-02f,
    -1.08779579e-01f, 1.94834173e-03f, -7.93093145e-02f, 4.00323272e-02f, -1.18017495e-01f, -1.16265863e-01f, 9.87378955e-02f, 6.16633296e-02f,
    -2.40411609e-02f, -6.41441643e-02f, -3.46280187e-02f, 1.12458006e-01f, -1.07428163e-01f, 1.11208856e-01f, 9.34491903e-02f, -9.10801589e-02f,
    5.97098172e-02f, -1.02137864e-01f, -1.06042504e-01f, -6.01875633e-02f, -2.81169862e-02f, -1.89971179e-02f, -9.17165279e-02f, 6.83747530e-02f,
    -1.11514732e-01f, 4.97404039e-02f, 2.53743082e-02f, 5.53368330e-02f, 4.07597274e-02f, -1.20773017e-02f, -2.40152627e-02f, 2.67399400e-02f,
    9.30918902e-02f, -1.19973674e-01f, -7.28931874e-02f, 6.50320500e-02f, -1.10543355e-01f, 2.33163089e-02f, 8.06106925e-02f, 6.29212707e-02f,
    4.89553362e-02f, -1.08924821e-01f, 1.15181983e-01f, -1.05793267e-01f, -4.91457134e-02f, 1.05324581e-01f, -1.15077153e-01f, -7.81846792e-02f,
    1.67769641e-02f, 1.08908534e-01f, -3.60692590e-02f, 1.05885282e-01f, 3.57557684e-02f, 1.20960370e-01f, 5.90429306e-02f, 7.40795583e-02f,
    -1.26929879e-02f, 8.93165171e-02f, -1.19015872e-01f, 8.11767578e-03f, 4.88258004e-02f, 9.43439156e-02f, -5.80245256e-02f, 1.04673773e-01f,
    3.26804519e-02f, 9.09633785e-02f, 3.70947719e-02f, -4.68767285e-02f, 1.08263358e-01f, -4.96172756e-02f, 3.50624770e-02f, -7.87593722e-02f,
    6.15857542e-02f, -8.24694335e-02f, -2.49927789e-02f, 8.02569091e-02f, 7.56582022e-02f, -1.07471809e-01f, 1.10952660e-01f, 1.86430365e-02f,
    -4.51280475e-02f, -9.71946567e-02f, 1.05494663e-01f, -4.97677028e-02f, -8.36366415e-02f, 1.19374111e-01f, -1.05212137e-01f, 8.35992545e-02f,
    7.12430179e-02f, -3.08811516e-02f, 9.88839567e-02f, -1.16187096e-01f, 1.11915529e-01f, 1.01483375e-01f, 1.21633843e-01f, -5.27534336e-02f,
    9.13202763e-02f, 1.22412354e-01f, -9.07685757e-02f, -1.63085461e-02f, 1.98429972e-02f, 1.03530973e-01f, 3.82524282e-02f, 1.68644339e-02f,
    7.49375969e-02f, 1.24041334e-01f, -8.89130235e-02f, -3.23329568e-02f, 1.23908296e-01f, 1.16487235e-01f, 5.81819266e-02f, -1.15526497e-01f,
    1.02057099e-01f, 1.16890490e-01f, 2.36890316e-02f, 4.88691181e-02f, 4.75924760e-02f, 1.05120033e-01f, -1.13188192e-01f, -8.03359896e-02f,
    -9.92386490e-02f, -7.66950548e-02f, -9.44336951e-02f, -3.14127803e-02f, 5.41620404e-02f, 6.57402873e-02f, 7.13344067e-02f, 1.04050249e-01f,
    2.62551904e-02f, 2.66451687e-02f, 7.52382874e-02f, 2.87358463e-03f, -1.19265303e-01f, 8.37416947e-02f, -6.42178953e-02f, 4.60031629e-02f
};

/* LSTM layer 0: hidden-hidden weights [256 x 64] */
static const float lstm_weight_hh_l0[16384] SOC_RODATA = {
    -1.19548872e-01f, -6.76469505e-02f, -9.11470652e-02f, -1.12003282e-01f, -1.11440703e-01f, 4.85258996e-02f, 2.63473243e-02f, -8.63683224e-03f,
    8.23365152e-03f, -5.77027649e-02f, -1.12276673e-01f, 8.23968202e-02f, 1.18794933e-01f, 7.85046816e-03f, -1.07392699e-01f, -3.40364873e-03f,
    9.47163403e-02f, -9.81795639e-02f, -1.06260464e-01f, 5.04173934e-02f, 6.14778399e-02f, 1.06988698e-01f, -6.94478601e-02f, 1.03595391e-01f,
    7.82153010e-03f, 7.69475251e-02f, 7.75376111e-02f, 1.05875462e-01f, 1.56784803e-02f, -9.12594497e-02f, 8.41208100e-02f, -3.11522633e-02f,
    1.19418472e-01f, -6.18076026e-02f, 3.71464938e-02f, 9.51249152e-02f, 2.13595033e-02f, -2.47433335e-02f, -1.42550915e-02f, 8.78483057e-03f,
    3.14591080e-02f, 9.49526131e-02f, -5.72983176e-02f, -1.43653899e-02f, 7.91981816e-04f, 2.18895376e-02f, 6.64909482e-02f, -3.63810062e-02f,
    2.75246799e-02f, -1.28652602e-02f, -4.48728353e-02f, 1.22346699e-01f, -1.04497522e-02f, 4.09664214e-03f, -3.55169177e-04f, -6.75958395e-02f,
    5.73983639e-02f, -5.77453375e-02f, -2.79160887e-02f, 6.56341016e-02f, -6.93384707e-02f, 3.10103446e-02f, -1.80313587e-02f, 5.68515062e-03f,
    -5.11712283e-02f, 5.27304858e-02f, 1.12779126e-01f, 8.65812302e-02f, -1.23570964e-01f, 1.81741416e-02f, -5.33998758e-02f, 4.25295383e-02f,
    4.73792404e-02f, 2.21680999e-02f, 7.78012276e-02f, -1.04089230e-02f, -6.46924824e-02f, 7.83583820e-02f, -6.45776093e-03f, -8.74885023e-02f,
    3.65142673e-02f, 2.75048912e-02f, -7.67318010e-02f, 1.69430077e-02f, 9.26259160e-03f, -2.96158791e-02f, 1.85443014e-02f, -9.79119539e-02f,
    -1.23336568e-01f, 1.60732567e-02f, -3.41207087e-02f, -4.24256921e-03f, 5.52147925e-02f, 1.05118930e-01f, -8.80144238e-02f, -1.17118061e-01f,
    -4.53647971e-03f, -3.01865488e-02f, -1.18013874e-01f, 1.12289146e-01f, -1.07627049e-01f, -9.59395766e-02f, 1.40398741e-03f, 4.97408062e-02f,
    -5.88063598e-02f, -1.15843728e-01f, 2.08990425e-02f, 7.89007545e-02f, -1.78298652e-02f, 1.20375946e-01f, -4.82923537e-02f, 1.92193985e-02f,
    -8.10368657e-02f, -2.61496007e-02f, -5.25799096e-02f, 1.23677179e-01f, 6.77357316e-02f, 4.39458638e-02f, -1.18588701e-01f, -4.53192592e-02f,
    9.65182930e-02f, -5.05042821e-02f, 1.05041802e-01f, 1.19512603e-01f, 3.28926146e-02f, 1.76573992e-02f, 1.19385660e-01f, 3.07494700e-02f,
    -1.01005733e-01f, -1.85869038e-02f, 1.15457073e-01f, -1.83822215e-02f, -6.15497231e-02f, 1.09660849e-01f, 2.42258459e-02f, 2.51792818e-02f,
    5.71031868e-03f, -9.05330777e-02f, -5.38267195e-03f, 1.24420226e-02f, -2.28700042e-03f, -7.31512457e-02f, 2.55320370e-02f, -3.19983214e-02f,
    -9.69907194e-02f, 4.90864664e-02f, 4.21996713e-02f, 3.92706394e-02f, -2.75045037e-02f, -2.75033116e-02f, -3.93928885e-02f, 4.52381670e-02f,
    -3.80699039e-02f, -7.31684268e-03f, -8.98029655e-02f, 8.29740167e-02f, -1.76378042e-02f, -1.23048306e-01f, 7.42384791e-02f, 4.09945101e-02f,
    -6.86473250e-02f, -3.28024179e-02f, 5.54727018e-02f, -1.13325268e-02f, 1.10663086e-01f, 4.04461026e-02f, 6.63785040e-02f, 3.30892652e-02f,
    -7.98088014e-02f, -3.00561190e-02f, 2.14995444e-03f, -8.92277807e-02f, -8.87509137e-02f, -1.10251054e-01f, -3.16859484e-02f, -2.50093639e-02f,
    5.22881299e-02f, -2.57428885e-02f, -7.58299679e-02f, 6.37959540e-02f, 1.22787684e-01f, 9.43969190e-03f, 1.39947385e-02f, -4.09388244e-02f,
    9.68206078e-02f, 8.95898342e-02f, -1.09176397e-01f, -5.95572144e-02f, -8.95236582e-02f, 2.98311710e-02f, 1.01314932e-02f, -8.76126587e-02f,
    -9.71295387e-02f, -5.30618429e-03f, 4.71091717e-02f, 2.90107131e-02f, -2.01891810e-02f, -9.82303917e-02f, 8.09556395e-02f, -1.11390740e-01f,
    -1.60845518e-02f, 1.06144264e-01f, -6.37157559e-02f, -2.58074701e-02f, 3.81125957e-02f, -7.17130452e-02f, -6.86454773e-03f, 9.74681377e-02f,
    2.48974711e-02f, 8.13000351e-02f, -6.09782040e-02f, -5.73880970e-02f, -1.95074379e-02f, -6.96016401e-02f, 3.40452939e-02f, 8.72206688e-03f,
    -1.81815177e-02f, 2.07221955e-02f, 9.20770466e-02f, 1.20020434e-01f, -5.52874953e-02f, 9.55512673e-02f, -1.95784569e-02f, 7.45738447e-02f,
    -3.00539881e-02f, 2.65411437e-02f, 1.02239341e-01f, -9.38944370e-02f, -7.75673091e-02f, 1.11674517e-01f, -5.03910631e-02f, -2.11250484e-02f,
    4.67929840e-02f, 7.22804517e-02f, -1.07368588e-01f, 4.85072732e-02f, 2.31284797e-02f, -4.18978333e-02f, -6.47811592e-02f, 2.98656374e-02f,
    -3.91070992e-02f, 6.97674900e-02f, 1.35375559e-03f, 1.20634586e-01f, -7.32970238e-02f, -2.02491432e-02f, -9.26340520e-02f, -2.50975043e-02f,
    1.07483566e-02f, -1.75506026e-02f, 9.90584046e-02f, 5.75012565e-02f, -8.56049210e-02f, 6.32964075e-02f, -8.31487626e-02f, 5.32585829e-02f,
    -9.31611061e-02f, -1.14313811e-02f, -1.87107325e-02f, 1.21313676e-01f, -1.11602336e-01f, -1.95547789e-02f, -8.95336270e-04f, 2.76073366e-02f,
    5.65837622e-02f, -7.86492676e-02f, 8.42319429e-03f, -5.56820482e-02f, 3.64549011e-02f, -1.55784190e-03f, -8.45381618e-02f, -4.26687300e-02f,
    -1.13505796e-01f, 9.61040407e-02f, -7.49677271e-02f, -3.26760262e-02f, -7.00655729e-02f, 1.02883056e-01f, -9.99573022e-02f, 7.42626339e-02f,
    1.26421005e-02f, -1.52328312e-02f, -9.40115005e-02f, 3.17620486e-02f, -1.08539835e-01f, 6.75635636e-02f, 1.41803175e-02f, -1.74368471e-02f,
    -1.03769749e-01f, 3.70468646e-02f, -9.51709300e-02f, 7.17149973e-02f, 9.41699743e-03f, -8.79541039e-03f, 5.55024594e-02f, 4.28110659e-02f,
    9.25478488e-02f, -8.94649029e-02f, 3.18809897e-02f, -2.02674419e-02f, -1.89118832e-02f, 1.63548589e-02f, -1.94511265e-02f, 6.83750361e-02f,
    1.05023816e-01f, 1.18875757e-01f, 1.15362287e-01f, -7.06420243e-02f, -6.16420805e-03f, -1.13434359e-01f, -9.36242193e-02f, -1.70399696e-02f,
    -1.23159543e-01f, -3.46162766e-02f, 6.97663128e-02f, 3.07420045e-02f, -2.15169787e-02f, 9.20833349e-02f, -1.07848182e-01f, -8.10059011e-02f,
    9.00401026e-02f, -4.15346771e-02f, 7.18001425e-02f, -9.94614661e-02f, -9.78645384e-02f, -3.38645428e-02f, 2.31339335e-02f, -1.08835325e-01f,
    1.01574048e-01f, 4.75598872e-02f, 4.68981266e-03f, 6.79488331e-02f, -9.70192403e-02f, -4.46394980e-02f, 2.96551883e-02f, -1.16189122e-02f,
    -1.03643805e-01f, 1.16613403e-01f, -5.77627122e-02f, -2.56324112e-02f, -1.79552138e-02f, -9.23671573e-02f, -3.89187336e-02f, -1.08287141e-01f,
    1.01190582e-01f, 1.09599173e-01f, -2.30200291e-02f, -8.77322555e-02f, 5.98377883e-02f, 4.14592922e-02f, 1.06081367e-01f, -8.88458192e-02f,
    1.23140514e-01f, 8.17612261e-02f, -9.96424109e-02f, -2.09376812e-02f, -4.36322689e-02f, -7.46661425e-02f, 7.95269608e-02f, -2.67150998e-03f,
    9.37455744e-02f, -4.40752208e-02f, -7.05534071e-02f, -1.08436644e-01f, 2.69734710e-02f, -4.72765565e-02f, -3.93475294e-02f, -1.20679766e-01f,
    -6.06818497e-03f, -9.03553069e-02f, -7.13747293e-02f, -2.53378004e-02f, -8.70039612e-02f, -1.10195503e-01f, 5.24610877e-02f, 7.51566291e-02f,
    1.16200089e-01f, 9.53245312e-02f, 8.75767767e-02f, -1.54714137e-02f, 4.81313765e-02f, 2.06699967e-03f, -5.68602979e-02f, -7.70798326e-03f,
    1.92594528e-03f, 6.05091602e-02f, 1.22099668e-01f, 3.25497538e-02f, 6.36478066e-02f, -4.74673212e-02f, -1.09750360e-01f, -1.07088193e-01f,
    -7.58046657e-02f, -2.17588246e-02f, 5.22564054e-02f, 8.79409015e-02f, -7.51662105e-02f, -5.37017882e-02f, 4.89203036e-02f, 6.61837608e-02f,
    3.59013230e-02f, 3.94746661e-04f, -8.25677216e-02f, -1.09112188e-01f, 1.12231687e-01f, -6.95621222e-02f, -7.08461255e-02f, -1.48385763e-02f,
    1.01752475e-01f, 8.24834108e-02f, 4.59040254e-02f, 5.64389825e-02f, -1.02530077e-01f, 4.70049679e-02f, 9.58286226e-02f, -9.90307927e-02f,
    1.06946677e-02f, -2.75701433e-02f, -1.19206607e-02f, -1.51722133e-02f, 7.53019750e-02f, 7.72386789e-04f, -1.08149186e-01f, 7.59139657e-02f,
    2.38901079e-02f, 6.34981990e-02f, 6.59209490e-03f, -2.26057023e-02f, -1.46256238e-02f, 1.04318261e-01f, -1.00954443e-01f, 1.04708090e-01f,
    9.08918679e-03f, 1.13224879e-01f, -2.03982443e-02f, 1.10046417e-01f, -1.12843499e-01f, -9.60796028e-02f, -9.93541032e-02f, 1.04495406e-01f,
    6.01587296e-02f, -8.04297477e-02f, 1.15751192e-01f, 5.31091839e-02f, -1.07297242e-01f, -6.99469149e-02f, 2.43023336e-02f, -1.10849291e-02f,
    -4.89142984e-02f, -1.18410632e-01f, 3.74928117e-02f, -6.17873818e-02f, -8.95079672e-02f, -4.29195166e-02f, 9.84402746e-02f, -9.69996303e-02f,
    2.31106579e-03f, -1.09847009e-01f, -7.19734430e-02f, -1.10085472e-01f, -8.57021362e-02f, 1.32952183e-02f, -2.88758874e-02f, -4.23519462e-02f,
    -9.56352055e-03f, 7.67989159e-02f, -7.95773268e-02f, 6.57011271e-02f, 1.15289137e-01f, -1.03013173e-01f, 4.97957319e-02f, -6.45208508e-02f,
    9.10297036e-03f, 1.10622019e-01f, -5.35863340e-02f, 6.99913800e-02f, -1.15946010e-01f, 6.34155720e-02f, 1.59606636e-02f, 9.92604047e-02f,
    4.46946919e-02f, 3.65757048e-02f, 1.12629831e-02f, 4.32082415e-02f, 6.17605597e-02f, 1.42377615e-02f, -8.74251425e-02f, 6.87443614e-02f,
    -3.75194699e-02f, 9.93481278e-02f, -1.10026032e-01f, 5.12700677e-02f, 3.03938538e-02f, -5.38627505e-02f, -6.54543936e-03f, -7.90537596e-02f,
    1.19740233e-01f, 9.78553295e-02f, -7.37034082e-02f, 6.67290539e-02f, -8.50199014e-02f, -1.16526395e-01f, 8.15111399e-03f, 8.41811746e-02f,
    -2.55696476e-03f, 4.15935516e-02f, -1.49542242e-02f, 3.90693843e-02f, -6.55794889e-02f, -1.22417092e-01f, 1.09408289e-01f, -4.99177873e-02f,
    8.42600316e-02f, -1.14661485e-01f, -3.96478772e-02f, -1.69345587e-02f, 7.15099722e-02f, 7.13987201e-02f, -1.22347564e-01f, 7.72439688e-02f,
    -8.10731947e-02f, 6.07656538e-02f, 3.42029333e-02f, 3.69882286e-02f, -9.31749642e-02f, -5.81820458e-02f, 1.21314660e-01f, 3.37994695e-02f,
    1.13421068e-01f, -1.04249805e-01f, -1.03792757e-01f, -3.48853171e-02f, -5.20865470e-02f, 9.79145467e-02f, 5.07363975e-02f, -5.30839413e-02f,
    -9.01875645e-02f, -5.74313700e-02f, -6.99205697e-03f, -3.50540727e-02f, -9.69797373e-03f, -4.47421074e-02f, 8.47282261e-02f, 1.14916712e-01f,
    -1.02952659e-01f, -1.09139740e-01f, 4.37162220e-02f, 1.45236403e-02f, -1.24272957e-01f, 8.17896128e-02f, 9.93877798e-02f, 1.10897049e-01f,
    1.21918887e-01f, -1.72283649e-02f, 6.99955523e-02f, -1.13337517e-01f, 1.03715017e-01f, 6.17519468e-02f, -6.77264929e-02f, 8.33547562e-02f,
    -3.35628837e-02f, 6.39483929e-02f, -7.02066720e-03f, -1.23665482e-01f, 1.12411007e-01f, -4.96995598e-02f, -1.01058751e-01f, 1.24277383e-01f,
    -3.74156684e-02f, -1.17417485e-01f, -9.59062874e-02f, 2.41792053e-02f, 7.08113611e-02f, 1.19270623e-01f, 4.28975821e-02f, 9.01151896e-02f,
    1.77882314e-02f, 1.17787406e-01f, 8.97536874e-02f, -1.02427155e-01f, 7.99608678e-02f, 1.60728842e-02f, 6.22831136e-02f, 9.68471467e-02f,
    -3.35664749e-02f, -5.00939041e-02f, 4.43242490e-02f, 8.47643614e-03f, 1.49600804e-02f, 9.89557952e-02f, 8.90876055e-02f, 5.51211685e-02f,
    1.00437999e-01f, 1.16332337e-01f, -6.46692514e-03f, 6.99009150e-02f, 2.80280113e-02f, -5.70371747e-02f, 3.54951471e-02f, -9.83695984e-02f,
    -5.10084629e-03f, 3.57444733e-02f, 1.11001879e-01f, 5.20612299e-03f, 1.31432414e-02f, -8.14873576e-02f, -3.66884768e-02f, -6.41911477e-02f,
    1.01634055e-01f, -5.44437021e-02f, -1.01382881e-01f, -4.02363241e-02f, -5.17537892e-02f, -8.36242735e-02f, 7.16430694e-02f, 6.83813691e-02f,
    -1.12506062e-01f, 4.09374386e-02f, 2.23856568e-02f, 4.20942903e-02f, 6.40307367e-02f, -1.03382483e-01f, -3.64222378e-02f, -4.11900729e-02f,
    -2.27975696e-02f, -6.49514049e-02f, 1.08502001e-01f, -5.99007905e-02f, 3.62145603e-02f, 1.24226049e-01f, 3.42086852e-02f, 3.13902199e-02f,
    -1.18140891e-01f, -1.58075392e-02f, 4.97933626e-02f, -5.63755035e-02f, 8.32782239e-02f, 9.98271108e-02f, -1.04229301e-02f, -1.04034692e-01f,
    7.12433904e-02f, -3.70365232e-02f, 2.08648145e-02f, 5.44966012e-02f, -7.76119530e-02f, 3.44647765e-02f, 8.70540291e-02f, 4.11072373e-03f,
    4.58150208e-02f, -9.80789959e-02f, -1.16274253e-01f, -2.57368088e-02f, -1.22753486e-01f, 1.11027971e-01f, 5.03400564e-02f, -9.55383182e-02f,
    -1.02797538e-01f, 6.04992807e-02f, -8.89735222e-02f, -3.53945345e-02f, -1.24627247e-01f, -3.53591144e-03f, 8.62779915e-02f, 7.23873973e-02f,
    1.68426186e-02f, -1.95514560e-02f, 1.85158402e-02f, -5.53992838e-02f, -1.06643841e-01f, -8.36562067e-02f, -6.02510124e-02f, 1.03031144e-01f,
    -4.69962806e-02f, -2.49193609e-03f, 9.92705673e-02f, 6.98751211e-02f, 1.04561970e-01f, 1.03777453e-01f, -1.13986865e-01f, -5.49371094e-02f,
    -5.50967306e-02f, 9.44474339e-03f, -6.43592775e-02f, -1.01358429e-01f, 4.71818149e-02f, 1.09940946e-01f, -8.71068239e-03f, 7.32035637e-02f,
    -7.06946999e-02f, -3.53621989e-02f, 6.48675859e-02f, 7.37694800e-02f, -2.76278555e-02f, 1.92113221e-02f, -4.30766493e-02f, -4.26776111e-02f,
    -9.62385535e-03f, 1.86091363e-02f, 4.93582040e-02f, 1.20208144e-01f, 1.17824554e-01f, -1.47486627e-02f, 2.23182291e-02f, 3.22694033e-02f,
    2.42389590e-02f, 2.12741643e-02f, -5.65162003e-02f, -2.68334001e-02f, 9.72147286e-03f, -6.50188476e-02f, -2.79190987e-02f, 1.04868203e-01f,
    5.47787994e-02f, -9.10664946e-02f, -3.73127609e-02f, 5.18103689e-02f, -5.72964102e-02f, -9.05534327e-02f, -3.10992748e-02f, 3.12661678e-02f,
    -8.87079239e-02f, -1.09022692e-01f, -3.32624167e-02f, -1.05212495e-01f, -7.90537298e-02f, -1.47992671e-02f, 4.26005572e-02f, 1.71743333e-02f,
    -7.38921016e-02f, -6.51799887e-02f, 6.06135279e-02f, -2.51874328e-04f, 3.62971723e-02f, 6.99254572e-02f, 8.33641589e-02f, -3.22652906e-02f,
    8.43802094e-02f, -2.69836038e-02f, 2.42173225e-02f, -9.53430831e-02f, 8.44764709e-03f, 3.96911651e-02f, -5.89848906e-02f, 3.32521051e-02f,
    -5.54009676e-02f, -1.15555555e-01f, 4.15850431e-02f, -6.29689395e-02f, 1.23267591e-01f, -7.22647309e-02f, -3.00541967e-02f, 7.08345920e-02f,
    -2.62339264e-02f, 4.68591750e-02f, 3.40935439e-02f, 1.00925997e-01f, -9.26621258e-02f, -6.76924288e-02f, -2.91414410e-02f, -1.21796027e-01f,
    -1.86130106e-02f, 4.02184278e-02f, 5.65437824e-02f, -1.21299565e-01f, -7.41875470e-02f, -7.75118619e-02f, 5.66122681e-02f, -6.09116554e-02f,
    -1.13104388e-01f, 1.07081875e-01f, -3.95014435e-02f, 2.75290608e-02f, -1.03026047e-01f, -7.50124902e-02f, -3.79854441e-03f, -5.28021306e-02f,
    7.62757957e-02f, -4.24964428e-02f, 1.60065591e-02f, -7.53618777e-03f, 9.82594788e-02f, 9.51195508e-02f, -3.92348766e-02f, -8.88955146e-02f,
    -7.31247216e-02f, 7.76190758e-02f, 5.21258414e-02f, -6.24542683e-02f, -4.17878181e-02f, 1.23885602e-01f, 2.06775218e-02f, 6.82013482e-02f,
    1.03952870e-01f, -3.11001986e-02f, 7.16758817e-02f, 5.21262735e-02f, -5.83146363e-02f, -5.93791306e-02f, 9.76386666e-02f, 4.88483310e-02f,
    -4.37386185e-02f, -1.21514738e-01f, -2.48779804e-02f, -2.84850597e-02f, 2.59109139e-02f, 5.36599010e-02f, -3.00409794e-02f, -1.14914641e-01f,
    -1.13923952e-01f, 4.59041893e-02f, 2.01904774e-03f, -3.95204723e-02f, -1.11394823e-02f, 3.36678028e-02f, 1.00366056e-01f, -9.52215791e-02f,
    1.20939612e-02f, -2.91046947e-02f, -9.64398086e-02f, -5.08844256e-02f, 8.28219503e-02f, -1.17912814e-01f, 8.24178010e-02f, 1.06618240e-01f,
    -2.09901333e-02f, 1.04798391e-01f, 8.74166638e-02f, 1.14046186e-02f, 1.14571646e-01f, -6.76187426e-02f, 9.52065736e-02f, -1.06314465e-01f,
    6.68920875e-02f, -1.16779029e-01f, 8.24291855e-02f, -2.28434652e-02f, 4.61089611e-03f, -5.70545495e-02f, -1.22613460e-02f, 9.16688293e-02f,
    4.46631312e-02f, 5.72642386e-02f, -6.86154962e-02f, 1.21318236e-01f, -4.01174575e-02f, -4.16139215e-02f, -1.97670609e-02f, -6.85129464e-02f,
    9.25437659e-02f, 3.75680476e-02f, 7.94008672e-02f, 3.05846334e-04f, -8.58126134e-02f, -1.14698485e-01f, -3.91762406e-02f, -8.31571817e-02f,
    -7.37599283e-02f, 4.60129827e-02f, -2.84759104e-02f, 2.85766274e-02f, 1.00644827e-01f, -8.85399133e-02f, 1.18938819e-01f, -7.88656324e-02f,
    -8.42745453e-02f, -1.11505285e-01f, 7.01277852e-02f, -3.28493565e-02f, 1.16411939e-01f, -2.92257816e-02f, -3.13915014e-02f, 8.56215954e-02f,
    2.83591449e-03f, 1.12817436e-02f, 4.39678580e-02f, -6.85550421e-02f, 6.14714026e-02f, 1.23565093e-01f, -5.24268001e-02f, 2.13201195e-02f,
    8.78248066e-02f, 9.93530154e-02f, -1.73696876e-02f, -1.16268665e-01f, -1.07823312e-02f, -8.74885023e-02f, 7.08639920e-02f, 3.28412652e-02f,
    5.39836287e-03f, 5.33138812e-02f, -1.81850046e-02f, -1.17979079e-01f, -2.23761052e-02f, 1.14160746e-01f, -1.06312200e-01f, 5.18981814e-02f,
    6.88544065e-02f, 7.09247440e-02f, 1.48465931e-02f, -4.20821756e-02f, -5.02261221e-02f, -4.44716811e-02f, 1.19539842e-01f, -4.23167646e-03f,
    -7.20239133e-02f, 1.36764795e-02f, -5.63452095e-02f, -8.03333819e-02f, -1.20015979e-01f, -6.38431609e-02f, -2.97974348e-02f, -3.92986834e-03f,
    1.04444176e-02f, 6.69900626e-02f, 9.32989269e-02f, -1.13435894e-01f, -1.04347289e-01f, -6.49633557e-02f, 1.99644119e-02f, 1.24019921e-01f,
    -9.93494242e-02f, -1.13684639e-01f, -5.48487604e-02f, -1.20342314e-01f, 7.86744207e-02f, -2.63413787e-02f, 1.22611120e-01f, -4.31129932e-02f,
    7.74293244e-02f, 1.06490523e-01f, -4.98846620e-02f, -1.23213977e-01f, 6.78624809e-02f, -1.56802386e-02f, 6.60834908e-02f, -3.50551158e-02f,
    6.97665215e-02f, -6.19470477e-02f, 1.17794260e-01f, 8.62528235e-02f, -9.07329172e-02f, 3.82000953e-02f, -6.85371757e-02f, -4.49058264e-02f,
    -2.56076753e-02f, 5.02370894e-02f, -1.14404231e-01f, 1.27943009e-02f, 6.55923337e-02f, -7.62929469e-02f, -6.38582706e-02f, 6.84415996e-02f,
    1.21062860e-01f, -5.10624796e-02f, -3.39713544e-02f, 1.19095415e-01f, 1.06984630e-01f, 1.20152175e-01f, 1.23283505e-01f, -1.27062201e-04f,
    3.44645530e-02f, -8.08541626e-02f, 3.39695811e-02f, -5.42232394e-02f, 7.49841779e-02f, -2.10483819e-02f, -6.38237298e-02f, -2.43629366e-02f,
    -3.26455235e-02f, 2.34149545e-02f, 1.35758370e-02f, 5.48852384e-02f, 6.81354851e-02f, 4.79230136e-02f, 9.08123553e-02f, 1.19946674e-01f,
    -8.60773176e-02f, 1.05732843e-01f, -6.99551553e-02f, 9.95170623e-02f, 2.68313438e-02f, -3.94231081e-03f, -5.81713021e-03f, -3.01445872e-02f,
    -3.64127606e-02f, 8.73854458e-02f, 6.20110631e-02f, 3.23844105e-02f, -4.89505082e-02f, -9.65839326e-02f, -6.83854520e-03f, 1.00627840e-02f,
    1.17373437e-01f, -1.15441084e-02f, 1.18080825e-01f, -1.74004138e-02f, -6.27337843e-02f, -6.70908093e-02f, 3.23998332e-02f, 8.33502412e-02f,
    -4.88288701e-02f, 1.99967772e-02f, -1.21591911e-01f, -2.72068083e-02f, 8.71097744e-02f, 1.18396878e-01f, 9.92440730e-02f, -9.75347161e-02f,
    -3.28370035e-02f, 4.46696430e-02f, 6.27594292e-02f, -2.25574076e-02f, -2.76397169e-03f, -6.37328029e-02f, -4.31440175e-02f, 3.95760834e-02f,
    -1.49889290e-02f, 6.63314462e-02f, -1.16040155e-01f, -1.06772333e-02f, 9.19059664e-02f, 8.70370865e-02f, 7.38035142e-02f, 3.34818065e-02f,
    -5.72778881e-02f, 9.69998538e-02f, 3.12056243e-02f, -1.14955291e-01f, 9.19371694e-02f, -5.57731092e-02f, 6.46702498e-02f, -6.68512732e-02f,
    -1.98523104e-02f, -7.97719359e-02f, 5.01411408e-02f, 1.24844894e-01f, 2.90306807e-02f, -9.78397131e-02f, 4.94856536e-02f, 6.17925823e-03f,
    -4.57120836e-02f, 4.34395224e-02f, -2.29211003e-02f, 1.12982288e-01f, 8.40320736e-02f, -1.16263628e-02f, -8.05960596e-03f, 8.51655006e-03f,
    8.87060761e-02f, 3.08602452e-02f, 4.07606065e-02f, 3.57374102e-02f, 1.22885227e-01f, 9.40831602e-02f, 4.51588482e-02f, 8.31761807e-02f,
    -4.89818901e-02f, -6.37695342e-02f, 1.21491700e-02f, -9.34213996e-02f, 5.77567369e-02f, 1.15112871e-01f, 9.29723531e-02f, -1.06097072e-01f,
    -2.07588673e-02f, -4.55530882e-02f, -1.01797417e-01f, -7.68519938e-02f, -6.74826205e-02f, -5.30127287e-02f, 3.13551873e-02f, -1.11322045e-01f,
    1.08158112e-01f, 5.07156700e-02f, 9.83973444e-02f, 2.53961682e-02f, -1.00261509e-01f, -1.71064436e-02f, 9.12519842e-02f, 9.01822150e-02f,
    9.73188132e-02f, 9.78713036e-02f, -3.61588597e-02f, -1.13139793e-01f, 9.00297463e-02f, 1.08665913e-01f, 1.79977715e-03f, 3.61822098e-02f,
    1.74356401e-02f, -9.67378467e-02f, -2.85390913e-02f, 2.52835751e-02f, 1.16323486e-01f, 8.91432613e-02f, 9.50746983e-02f, 5.30795455e-02f,
    9.69549268e-02f, 8.84317756e-02f, -5.03906161e-02f, -9.59854573e-02f, -7.23880678e-02f, 3.24653089e-03f, 6.63236976e-02f, 8.20017159e-02f,
    -1.27181411e-04f, -6.71123564e-02f, 4.25321907e-02f, -1.06235892e-02f, 8.27974826e-02f, 1.73376352e-02f, 9.04942304e-02f, -1.01245791e-02f,
    -5.62133044e-02f, 7.06304312e-02f, -6.08721972e-02f, 3.18641216e-02f, 9.55836177e-02f, 9.16460901e-02f, -5.21648526e-02f, 2.55319029e-02f,
    -1.14193022e-01f, -8.22485685e-02f, 1.75112933e-02f, -6.00461364e-02f, 9.94532406e-02f, -9.33941305e-02f, 1.01702660e-01f, 7.37535954e-03f,
    -5.37991822e-02f, 7.92166591e-03f, 5.80233634e-02f, 2.09667534e-02f, 1.24557018e-02f, 9.42662060e-02f, -9.99689251e-02f, 5.57388663e-02f,
    -1.10270664e-01f, -3.21526825e-03f, -1.16702840e-01f, -1.24630481e-01f, 1.08303726e-02f, -7.87678212e-02f, -7.92413950e-03f, -8.58253688e-02f,
    6.97507113e-02f, -1.75065696e-02f, 9.26761329e-02f, -4.16329354e-02f, -7.15353489e-02f, 1.04688451e-01f, 7.31561333e-02f, 6.58565611e-02f,
    6.39669597e-03f, 4.92752939e-02f, 7.42034614e-02f, 8.82021040e-02f, 1.18925825e-01f, 8.90079290e-02f, 6.40379786e-02f, -1.07852459e-01f,
    -7.99826682e-02f, -2.67995149e-02f, 5.19665182e-02f, -5.10178506e-02f, 1.20297089e-01f, 7.65835941e-02f, 9.55129266e-02f, 1.16916001e-02f,
    8.68837535e-03f, -4.24826145e-03f, -3.97286266e-02f, -1.10304326e-01f, -1.75814182e-02f, -3.54088098e-02f, -1.11540526e-01f, -1.00391194e-01f,
    -4.36161906e-02f, 6.69136643e-03f, 2.77707577e-02f, 8.96241665e-02f, -7.43848681e-02f, -6.55002743e-02f, 8.35662931e-02f, 1.76960975e-02f,
    3.71811688e-02f, -1.18865073e-03f, 4.13868278e-02f, -8.87839198e-02f, 4.61037457e-03f, -6.57961518e-02f, -8.28430206e-02f, -1.09313473e-01f,
    1.46023184e-02f, -1.03118300e-01f, -7.51673281e-02f, 2.13413835e-02f, -8.51242989e-02f, -7.65574574e-02f, -1.06031135e-01f, 3.82042825e-02f,
    9.93641764e-02f, -1.04354471e-02f, 4.95996326e-02f, -8.36901516e-02f, -8.69071633e-02f, -7.78622180e-02f, 1.21974662e-01f, -1.64291561e-02f,
    1.00999773e-01f, -9.97335166e-02f, 1.23326644e-01f, 1.88261122e-02f, -3.10116410e-02f, -8.64017457e-02f, 8.67722929e-02f, 1.10815018e-02f,
    -1.14912495e-01f, -8.15903395e-02f, -1.13547996e-01f, -4.95212078e-02f, -9.44639742e-03f, -2.11830735e-02f, 8.63617659e-03f, 1.05592862e-01f,
    5.37195504e-02f, 6.20946288e-04f, 1.52812302e-02f, -2.34831274e-02f, -2.54875422e-03f, -9.20885801e-02f, 1.69717371e-02f, 4.23323810e-02f,
    9.22168791e-03f, -7.40773976e-03f, -9.78326797e-03f, -3.58458161e-02f, -9.18342471e-02f, -2.93962210e-02f, 4.81989831e-02f, 7.18977302e-02f,
    -1.24674588e-01f, 2.85611749e-02f, -8.44054818e-02f, 7.88674951e-02f, 2.08350569e-02f, -5.80787063e-02f, 7.63579607e-02f, 1.12563372e-02f,
    1.10217631e-02f, -9.26615894e-02f, 1.14912823e-01f, 6.72609955e-02f, -3.22597027e-02f, 4.44631875e-02f, 2.55511999e-02f, -9.99002606e-02f,
    -3.49461734e-02f, -1.19477734e-01f, 1.09708309e-03f, -3.29639912e-02f, -9.37122107e-03f, 5.20488769e-02f, -8.30684006e-02f, -1.70202553e-02f,
    -2.38883495e-02f, -1.20914310e-01f, 1.03506267e-01f, 5.52628040e-02f, -4.42395806e-02f, 7.08751231e-02f, 1.19229659e-01f, 3.45944166e-02f,
    1.23463258e-01f, 7.86609948e-02f, 6.26371801e-03f, 8.00049603e-02f, -5.90005517e-02f, 6.32288307e-02f, 6.99766874e-02f, 4.60906029e-02f,
    -1.04907528e-01f, -8.95775408e-02f, 2.12778449e-02f, -1.22259244e-01f, 9.43226963e-02f, 1.04219899e-01f, -1.01641431e-01f, 8.48436952e-02f,
    4.98209000e-02f, -8.90339613e-02f, -8.69460851e-02f, -4.91490215e-02f, 9.43910331e-02f, -2.50103325e-02f, -3.57974917e-02f, -3.47872376e-02f,
    -7.23836273e-02f, 3.91242951e-02f, -6.21491969e-02f, 6.00168109e-02f, 1.18091360e-01f, 1.24966785e-01f, -6.63854480e-02f, -1.12230003e-01f,
    2.26419121e-02f, 7.09254593e-02f, -1.12474561e-02f, -3.74168754e-02f, -6.40391409e-02f, -2.48984993e-03f, 1.03862882e-02f, -1.03931174e-01f,
    1.01365894e-01f, 4.11349088e-02f, -3.81029844e-02f, 9.42544341e-02f, -1.10867888e-01f, 1.23649389e-02f, 8.33193213e-02f, -1.12655446e-01f,
    8.84277523e-02f, -1.05917066e-01f, 2.06596553e-02f, 1.06935769e-01f, 1.21114701e-02f, 1.20129868e-01f, 4.04461771e-02f, 4.81674671e-02f,
    6.60571903e-02f, -8.18890184e-02f, 7.80074149e-02f, 1.24598131e-01f, -6.94800615e-02f, 4.42226529e-02f, -9.29786265e-02f, -9.90879834e-02f,
    -8.29239190e-03f, 6.43366426e-02f, 1.19898677e-01f, 3.33946645e-02f, 4.58079576e-03f, -8.04121792e-02f, 1.11754566e-01f, -1.09066367e-02f,
    -1.09965637e-01f, -7.66256750e-02f, 2.13078111e-02f, 3.24220508e-02f, 1.03499129e-01f, 8.38968009e-02f, -8.81701708e-05f, 6.37384057e-02f,
    -4.94326800e-02f, -3.35156769e-02f, 1.13839358e-01f, 8.67440104e-02f, -9.41633284e-02f, -7.92052746e-02f, 6.35485202e-02f, -5.05978912e-02f,
    1.15725264e-01f, -7.04848617e-02f, -1.06572434e-01f, -6.34908527e-02f, -3.50295007e-03f, 1.16375566e-01f, 2.69868076e-02f, -9.28688049e-02f,
    -7.74856210e-02f, -1.99330449e-02f, -1.04418084e-01f, -4.45149094e-02f, -1.35768950e-03f, -5.06161153e-02f, 1.19154230e-01f, 8.48321021e-02f,
    1.48901194e-02f, 6.61781132e-02f, -1.17033213e-01f, -5.19315898e-02f, 5.57974428e-02f, -1.20854512e-01f, 5.24631143e-03f, -4.22824025e-02f,
    1.12479463e-01f, 1.20128557e-01f, -6.58897758e-02f, -3.47517282e-02f, 1.13255233e-02f, -9.86021310e-02f, 1.16324618e-01f, -7.78042674e-02f,
    -1.19056121e-01f, 5.64328134e-02f, 5.88707775e-02f, -1.59805566e-02f, -5.25559783e-02f, 1.09106153e-02f, -1.84478164e-02f, -7.41854608e-02f,
    -3.22046131e-02f, -7.58527964e-02f, 1.86070055e-02f, -6.17917925e-02f, 1.20390341e-01f, -7.71415234e-02f, -1.09480262e-01f, 8.83066207e-02f,
    4.76097465e-02f, 1.08974144e-01f, -7.13644773e-02f, 7.00856596e-02f, 1.94184184e-02f, -6.80020452e-03f, -1.07326970e-01f, -6.94572926e-03f,
    2.50808001e-02f, -1.83005184e-02f, -1.02983519e-01f, -3.40412706e-02f, 8.90310556e-02f, 1.01579294e-01f, 1.15952671e-01f, -3.40612382e-02f,
    4.21327353e-02f, -3.54921073e-02f, -1.13519192e-01f, -4.17037457e-02f, -1.02377981e-02f, 4.67477590e-02f, 1.02594256e-01f, -3.54787856e-02f,
    8.04210603e-02f, 2.54851729e-02f, 1.53759867e-02f, 4.30318862e-02f, -3.45383883e-02f, -9.52163190e-02f, 1.01824820e-01f, -3.02476436e-02f,
    -1.02394283e-01f, -2.86826640e-02f, -1.59026235e-02f, 2.18710750e-02f, 4.59440053e-02f, -1.75721198e-02f, 1.09902024e-01f, 4.01243716e-02f,
    -5.53865284e-02f, -1.20548293e-01f, 7.09855556e-03f, 1.03225365e-01f, 5.44080436e-02f, -1.98244452e-02f, -1.15364492e-02f, -6.85336292e-02f,
    -6.00438863e-02f, 7.76396692e-02f, 9.10544693e-02f, 7.74763227e-02f, -9.02844369e-02f, 2.03461349e-02f, -1.13432825e-01f, -1.00052595e-01f,
    -1.07836202e-01f, 1.20745301e-01f, 9.48977321e-02f, 7.83702284e-02f, -1.17738411e-01f, 4.37595546e-02f, -1.56213641e-02f, -7.39857554e-04f,
    4.76024598e-02f, 1.02737561e-01f, -6.18453622e-02f, 9.15419608e-02f, -1.09803498e-01f, 7.64365494e-03f, -1.15128964e-01f, -7.50636011e-02f,
    -5.35004586e-02f, -5.71153015e-02f, -9.38916802e-02f, -1.01367265e-01f, -4.74774539e-02f, 4.55837250e-02f, 5.58350980e-03f, 9.72989053e-02f,
    -7.74982870e-02f, -4.44919765e-02f, 3.31815481e-02f, 5.51835299e-02f, -2.99456418e-02f, 1.68296844e-02f, 7.83411264e-02f, 1.18828103e-01f,
    -4.83906269e-03f, 1.06311604e-01f, -5.07713705e-02f, -4.41918969e-02f, 1.04672283e-01f, -2.40598023e-02f, -7.97733217e-02f, 6.00253195e-02f,
    1.80808306e-02f, -1.15046546e-01f, -1.13767892e-01f, 9.42052603e-02f, 8.83919895e-02f, 6.87425286e-02f, 8.27436894e-02f, -8.84607434e-03f,
    1.17949843e-01f, -2.07271576e-02f, -7.80830085e-02f, 6.57659471e-02f, -6.78307116e-02f, 3.99089009e-02f, -1.12231240e-01f, -9.48808491e-02f,
    -1.23551160e-01f, 2.26529390e-02f, 1.20445415e-01f, -7.51001388e-02f, -1.02154434e-01f, 1.08920336e-02f, 9.79872346e-02f, -6.22468293e-02f,
    8.01344216e-02f, 4.19579744e-02f, -7.66821504e-02f, -6.47354275e-02f, 9.33046043e-02f, -2.60044634e-03f, 1.01507336e-01f, 1.28870457e-02f,
    9.82904285e-02f, -8.83672684e-02f, 2.77291238e-03f, 1.20214656e-01f, -1.06758788e-01f, -8.09301138e-02f, -7.98112154e-03f, -1.26580000e-02f,
    -6.12861067e-02f, 4.82155681e-02f, -8.44555795e-02f, -4.34599519e-02f, -9.19077247e-02f, -1.01498231e-01f, 9.66350138e-02f, 1.09054610e-01f,
    4.41670418e-05f, 1.18592739e-01f, 1.24710470e-01f, -3.68662179e-02f, 1.06366962e-01f, 4.98780012e-02f, 7.35598952e-02f, 9.30458456e-02f,
    9.43526626e-03f, -5.53527176e-02f, 4.53348905e-02f, 1.03316501e-01f, 3.25724632e-02f, -8.18897486e-02f, -1.18482977e-01f, 1.18921801e-01f,
    -1.18604332e-01f, -3.17372382e-02f, -8.24396312e-02f, 2.06257850e-02f, 1.09442666e-01f, 8.01012516e-02f, 5.55322021e-02f, -7.80431181e-02f,
    6.74582273e-02f, -7.35660046e-02f, -1.21146321e-01f, 9.14475322e-02f, -4.28591669e-02f, -3.25718075e-02f, -8.78791213e-02f, 1.16234273e-01f,
    -3.56660783e-03f, -9.82979387e-02f, -1.16076186e-01f, 3.85537744e-04f, 2.67304629e-02f, -7.47042149e-02f, 9.93876606e-02f, 2.07428634e-02f,
    1.11952066e-01f, 1.02820545e-01f, -1.83333457e-02f, -8.09845328e-02f, 1.18903309e-01f, -1.91150159e-02f, -5.91737926e-02f, -8.94469023e-03f,
    3.91571969e-02f, -1.21102467e-01f, -8.47602040e-02f, -8.65664929e-02f, 2.90265828e-02f, 2.15323418e-02f, -7.90042281e-02f, 9.18685645e-02f,
    9.99892354e-02f, -8.71968418e-02f, 5.62190115e-02f, -1.93299353e-03f, -8.68846476e-03f, -5.66131473e-02f, -1.03664607e-01f, 8.02119374e-02f,
    -8.40882659e-02f, 5.98624796e-02f, 2.18095034e-02f, 3.12256366e-02f, 9.56834555e-02f, 9.33318883e-02f, 3.80831957e-02f, 1.20709032e-01f,
    -4.67065722e-02f, 7.15415478e-02f, 1.02832109e-01f, 7.51559436e-03f, 4.52272892e-02f, -1.85269862e-02f, -8.34062099e-02f, -1.64192915e-02f,
    6.00660741e-02f, -9.55625176e-02f, 6.34153485e-02f, -6.78181648e-04f, -8.45017731e-02f, -3.02676708e-02f, 3.74612212e-02f, -3.48881632e-02f,
    -6.78971261e-02f, 9.57487673e-02f, -1.20958656e-01f, 7.75802135e-03f, -2.19814479e-02f, 8.22869390e-02f, -6.19646907e-02f, -1.21149749e-01f,
    -3.60344499e-02f, -8.85791183e-02f, -1.09835550e-01f, -5.24727106e-02f, 2.00814456e-02f, 3.45985591e-02f, -4.54417318e-02f, -2.80877054e-02f,
    -5.30491620e-02f, -4.92940247e-02f, -9.52426493e-02f, 7.46995062e-02f, -1.67817622e-02f, -1.24479726e-01f, -1.23721674e-01f, -6.32342249e-02f,
    -8.37395042e-02f, -1.82699114e-02f, -1.14771396e-01f, 1.00413248e-01f, 1.07715532e-01f, -4.61657494e-02f, 4.24292684e-03f, -6.61032349e-02f,
    -7.75948167e-03f, 6.17494136e-02f, -5.99438250e-02f, 1.20459199e-01f, -1.24621838e-01f, 1.08655810e-01f, 6.64230734e-02f, -9.00903344e-03f,
    -3.74256670e-02f, -5.40348440e-02f, 5.52960038e-02f, -6.11881316e-02f, 7.48811066e-02f, 1.03015646e-01f, -1.22896060e-01f, -2.99798548e-02f,
    -9.05232877e-02f, -2.63752788e-02f, -4.16875184e-02f, 2.25144476e-02f, 3.60664576e-02f, -1.30655915e-02f, 5.00583053e-02f, 5.85786998e-02f,
    -1.14541069e-01f, -1.29713714e-02f, -1.95783377e-02f, 7.40318447e-02f, 8.15361887e-02f, -6.75062835e-03f, 2.84054577e-02f, 3.69413793e-02f,
    8.15468431e-02f, -9.84504819e-04f, 1.07229024e-01f, -1.16779223e-01f, -1.16039515e-01f, -2.96674371e-02f, 1.45617425e-02f, 7.84520656e-02f,
    9.76197720e-02f, -5.99266589e-03f, -2.31686532e-02f, -2.74733156e-02f, 4.13077027e-02f, -6.76611364e-02f, 9.36321169e-02f, 1.11572921e-01f,
    3.53291780e-02f, -2.97885239e-02f, 1.86899304e-02f, 5.29440492e-02f, 1.20607972e-01f, -9.50028151e-02f, -5.07545471e-02f, -7.18519241e-02f,
    1.04096547e-01f, -4.17990386e-02f, 1.24852449e-01f, 1.10270083e-01f, -6.52360916e-03f, 4.84122187e-02f, 5.17194271e-02f, 8.28896612e-02f,
    -5.23642451e-02f, -3.29548568e-02f, -7.20725507e-02f, -9.10246819e-02f, -5.36412001e-04f, 1.09194562e-01f, 1.08517081e-01f, 1.09127834e-01f,
    9.63067263e-02f, 1.63360983e-02f, -1.19972542e-01f, 3.29468697e-02f, -5.20218313e-02f, 2.51263380e-02f, -3.97404581e-02f, 5.67187220e-02f,
    -3.95263433e-02f, 4.78971303e-02f, -2.81886756e-03f, 1.19167343e-01f, 5.52090555e-02f, 4.86788750e-02f, 3.64708900e-02f, 4.59426790e-02f,
    -1.91113204e-02f, -7.32309818e-02f, -5.67842871e-02f, 5.64327091e-02f, -5.38381934e-02f, -1.12340018e-01f, -1.18916914e-01f, 4.72679734e-03f,
    -9.22363102e-02f, -1.22200653e-01f, -1.99760497e-03f, 9.27884281e-02f, -3.42924148e-02f, -9.48812068e-02f, -5.71195781e-02f, -6.56550676e-02f,
    -1.13939047e-02f, -8.42448622e-02f, 4.01165932e-02f, 4.89662588e-02f, 1.08507231e-01f, 1.96187198e-03f, -2.50719488e-02f, -2.27153152e-02f,
    1.00728810e-01f, 1.01844385e-01f, 1.12062305e-01f, -7.35009462e-02f, 3.05109918e-02f, 1.03293806e-01f, 3.75876129e-02f, -1.85631067e-02f,
    -5.39321601e-02f, -1.24674842e-01f, 6.60689473e-02f, 5.88718057e-03f, 1.02510154e-01f, 3.58197689e-02f, 6.61210567e-02f, -6.79910332e-02f,
    8.66633356e-02f, -1.13628268e-01f, -9.70001370e-02f, -2.61977315e-03f, -6.91125542e-02f, -8.52129161e-02f, -1.18402511e-01f, 8.73542428e-02f,
    1.09383598e-01f, 9.93869156e-02f, 1.12195745e-01f, 6.72012568e-03f, -1.22071892e-01f, -8.84731263e-02f, 2.64817029e-02f, 4.86158878e-02f,
    3.73579115e-02f, 5.48466891e-02f, 7.79775381e-02f, -1.11369669e-01f, 6.66774511e-02f, -8.22830796e-02f, 4.70885783e-02f, -6.56902492e-02f,
    -1.75578892e-02f, -2.94400156e-02f, -1.19134128e-01f, 7.10698366e-02f, 7.87718892e-02f, 1.86012983e-02f, -8.64639282e-02f, -1.65549070e-02f,
    1.02611959e-01f, 1.07056275e-01f, -3.35505903e-02f, 1.08671725e-01f, -7.97009617e-02f, 7.05671161e-02f, -9.35242027e-02f, 3.11975032e-02f,
    -1.00804254e-01f, 9.35441256e-03f, 4.03347313e-02f, -2.00623870e-02f, -4.36892658e-02f, -6.35328442e-02f, -9.60139632e-02f, -3.56845707e-02f,
    6.56298399e-02f, 7.69042224e-02f, -1.13609403e-01f, 4.54629809e-02f, 9.20395255e-02f, 8.54068249e-02f, -5.92037439e-02f, -1.17824227e-01f,
    9.59997475e-02f, -9.89034921e-02f, 5.06898761e-03f, -1.19378820e-01f, -9.94605720e-02f, 1.06469631e-01f, -9.68370736e-02f, 1.07254043e-01f,
    -5.51336557e-02f, 8.55194777e-02f, 3.11735570e-02f, -1.14178509e-02f, -2.80198455e-03f, -7.08809644e-02f, 6.23246729e-02f, -8.45036656e-02f,
    6.75186515e-04f, 2.38505304e-02f, -4.84563112e-02f, 4.95556742e-02f, -5.32134324e-02f, -9.94335711e-02f, -3.20209265e-02f, 3.51245999e-02f,
    -1.04984373e-01f, -1.16866678e-01f, 4.61134017e-02f, 6.72526956e-02f, 7.22402334e-03f, 5.28586805e-02f, -3.15719843e-02f, 1.17742226e-01f,
    -4.96259332e-02f, 2.88391113e-03f, -9.21370089e-02f, -8.48523825e-02f, -1.78559870e-02f, -3.37157398e-02f, 5.35523593e-02f, -1.17955968e-01f,
    -6.02803975e-02f, -8.58105719e-02f, 4.67866659e-02f, 6.31034076e-02f, -1.09037742e-01f, -7.16957152e-02f, -5.79857528e-02f, 8.22810233e-02f,
    -5.20278215e-02f, 2.59065926e-02f, 9.74056572e-02f, -8.63808841e-02f, 3.44804227e-02f, -4.03873473e-02f, -8.44190568e-02f, -8.75447094e-02f,
    1.23826548e-01f, 9.87824351e-02f, 5.87652624e-03f, -7.88210779e-02f, 7.83612877e-02f, 1.21705234e-01f, 9.23592001e-02f, -8.91895890e-02f,
    -1.02238372e-01f, -3.33042592e-02f, -1.04345024e-01f, 2.33263820e-02f, -1.24674261e-01f, 5.29448241e-02f, -1.09549731e-01f, -7.60364234e-02f,
    5.27006537e-02f, -1.08145341e-01f, 1.12141415e-01f, 1.21662781e-01f, -8.94562602e-02f, 1.16969571e-01f, 7.99804926e-03f, 6.20694458e-03f,
    9.15747285e-02f, -4.10437733e-02f, -8.92046243e-02f, -4.14083153e-02f, 1.10681638e-01f, -6.81551546e-02f, 3.42844576e-02f, 1.03002027e-01f,
    9.20955539e-02f, 7.72243738e-02f, -1.06127605e-01f, 6.64506704e-02f, -6.28132969e-02f, -1.23517141e-01f, -3.96975875e-03f, -2.80774683e-02f,
    1.19759277e-01f, -1.26436800e-02f, 1.09177724e-01f, -1.21289134e-01f, -9.09368694e-03f, 7.19156861e-03f, -3.35403234e-02f, -1.05521008e-01f,
    5.49033880e-02f, -1.24228984e-01f, -6.19242638e-02f, 5.17055392e-03f, -3.48489583e-02f, 6.22746497e-02f, -9.81933177e-02f, -3.04076523e-02f,
    4.29835320e-02f, 1.05204850e-01f, -3.70828658e-02f, -3.44492495e-02f, -7.10201412e-02f, -1.19201824e-01f, 6.59500360e-02f, 5.01389354e-02f,
    7.19033182e-02f, 1.15877613e-01f, 7.61488080e-03f, -2.92422026e-02f, 1.01281211e-01f, 4.49521840e-03f, 3.57709825e-03f, -8.02199095e-02f,
    2.24672407e-02f, 2.72243321e-02f, -2.45708674e-02f, 8.89156759e-03f, 7.64672309e-02f, 2.56586671e-02f, -8.22906643e-02f, -5.58273941e-02f,
    -1.91827118e-02f, -9.05821174e-02f, 9.55085456e-02f, -7.34017044e-02f, 4.74880487e-02f, -5.84105402e-02f, 7.09481984e-02f, 2.28290111e-02f,
    -8.31453353e-02f, 1.24898970e-01f, 3.50922942e-02f, -1.00137860e-01f, -5.36008328e-02f, -1.05557799e-01f, 2.17905492e-02f, -9.34632868e-02f,
    7.17532933e-02f, -9.40722227e-02f, 7.46660084e-02f, -1.01066843e-01f, -2.81213522e-02f, 3.21763009e-02f, 5.56617379e-02f, -3.39140147e-02f,
    -7.11322874e-02f, -4.09065187e-02f, -2.47372687e-03f, -1.08774677e-01f, 1.06230795e-01f, 3.90978009e-02f, 7.36875832e-02f, 2.13339478e-02f,
    5.69933653e-03f, 6.41669780e-02f, 7.09910542e-02f, -1.21114567e-01f, 1.15091652e-02f, 6.57472163e-02f, 1.20635673e-01f, -1.31371617e-02f,
    -4.02820706e-02f, -3.03683877e-02f, 1.24446899e-02f, -1.05410740e-01f, -5.57692349e-02f, 7.74069577e-02f, 1.07542098e-01f, 7.86900520e-04f,
    1.24527067e-01f, 6.02290034e-03f, 1.03814662e-01f, -8.43605250e-02f, -5.78493625e-02f, -1.24056533e-01f, -2.58987695e-02f, 1.19166002e-01f,
    -9.39759612e-03f, -2.11908370e-02f, 4.17792797e-03f, -4.88392711e-02f, -3.06760669e-02f, 3.06881964e-02f, -5.28375655e-02f, -3.36747468e-02f,
    5.38230836e-02f, 6.10682219e-02f, -6.03851825e-02f, -1.13149852e-01f, -7.13813007e-02f, -3.79658192e-02f, -1.21317595e-01f, 4.52172458e-02f,
    -9.12175030e-02f, -4.45234030e-02f, -8.65010172e-02f, 6.73512071e-02f, 4.02286202e-02f, -2.74526626e-02f, 9.43355113e-02f, 1.00198179e-01f,
    -9.96693373e-02f, 7.85419196e-02f, -1.16146505e-02f, -1.25028491e-02f, -6.65524006e-02f, -1.41977370e-02f, 5.21257073e-02f, 7.03166425e-03f,
    4.10530418e-02f, 2.57065892e-03f, -6.63015544e-02f, -1.15026832e-01f, 1.70163661e-02f, 8.42807293e-02f, -1.36973858e-02f, 1.03470519e-01f,
    -2.12101489e-02f, 1.84112638e-02f, -1.04034305e-01f, -8.89676809e-03f, -1.08527064e-01f, -8.01713765e-02f, -1.11660630e-01f, 7.77103901e-02f,
    -1.22856051e-01f, 5.92128634e-02f, -1.18753672e-01f, -2.18268186e-02f, 1.07992962e-01f, 8.47345442e-02f, -6.39322400e-03f, 3.66888940e-02f,
    -7.28828311e-02f, 3.46415490e-02f, 3.14727426e-04f, 5.05955666e-02f, 5.52703440e-02f, -1.00421056e-01f, -8.42384994e-03f, 1.23197570e-01f,
    -1.80257857e-03f, -7.91107863e-02f, 1.17173120e-01f, 3.39450240e-02f, 9.61586833e-02f, -4.78992015e-02f, 1.06128484e-01f, 2.66014189e-02f,
    -7.14272261e-02f, 2.68980116e-02f, -1.12804249e-01f, 1.87187195e-02f, -3.63575071e-02f, -1.11150995e-01f, 5.89247495e-02f, -3.92607599e-02f,
    -5.95419854e-02f, -4.45539802e-02f, -1.20649844e-01f, 2.78035402e-02f, -5.03111184e-02f, 1.00386456e-01f, 8.52149874e-02f, -6.87664449e-02f,
    3.67671251e-04f, -3.18308175e-02f, 5.10936975e-03f, 7.78742284e-02f, 1.14242330e-01f, 1.00679144e-01f, -1.22742057e-01f, 5.04266918e-02f,
    3.76745909e-02f, -7.98757225e-02f, -2.88583934e-02f, 2.61739492e-02f, 1.03917673e-01f, -2.90995985e-02f, -3.24853361e-02f, 5.83947897e-02f,
    1.87094659e-02f, -6.91703707e-02f, 5.74969053e-02f, 6.82762861e-02f, 3.54588777e-02f, 8.53805989e-02f, 4.68021333e-02f, -1.10147998e-01f,
    7.96727687e-02f, 3.35080177e-02f, -1.24926388e-01f, -1.13271922e-01f, 2.48455554e-02f, -8.70021284e-02f, -4.54644561e-02f, 4.62786257e-02f,
    -1.64276809e-02f, -1.11154839e-01f, -3.64727229e-02f, 1.02251008e-01f, -7.99861103e-02f, -1.15300193e-01f, -9.59537178e-02f, 1.08607173e-01f,
    6.21726513e-02f, -1.17982045e-01f, 1.05137676e-01f, 4.72619534e-02f, -9.60522890e-02f, 8.20100605e-02f, -7.51951486e-02f, 1.86047256e-02f,
    -1.80167109e-02f, -2.15406269e-02f, 4.45444584e-02f, -9.36746597e-03f, -3.41571420e-02f, 2.29444802e-02f, -1.69239938e-02f, 2.55315900e-02f,
    -8.18180889e-02f, -1.11966044e-01f, -1.19385645e-01f, 1.23207867e-01f, -8.78244340e-02f, -7.66396523e-02f, -9.31054950e-02f, -1.05229020e-02f,
    -1.23369277e-01f, 6.66154176e-02f, -1.19067818e-01f, 6.28516078e-04f, 1.20879292e-01f, 7.74222612e-03f, -5.30283749e-02f, -1.10571593e-01f,
    8.57500881e-02f, 6.14031702e-02f, 7.44809508e-02f, -2.37633437e-02f, -9.20470208e-02f, -1.19334340e-01f, -8.61652941e-02f, 1.74571574e-03f,
    6.52185977e-02f, -7.58897215e-02f, -8.93195719e-02f, -8.62790644e-02f, 1.03202954e-01f, -1.09413669e-01f, 7.94692338e-03f, -1.28379911e-02f,
    5.13465703e-03f, 9.23815221e-02f, 6.08366132e-02f, 6.06821626e-02f, 8.41783881e-02f, -2.41936147e-02f, 8.47208798e-02f, 8.86051357e-03f,
    -3.17289829e-02f, -1.58425719e-02f, -7.15769380e-02f, -6.97796494e-02f, 2.35873461e-03f, 1.94066018e-02f, -6.05953783e-02f, -1.10583961e-01f,
    -4.67459708e-02f, 5.77369034e-02f, 1.12491518e-01f, 7.01063424e-02f, -3.93216163e-02f, 1.17484778e-02f, -4.00989801e-02f, -7.10835159e-02f,
    3.30595672e-03f, 4.68864590e-02f, -6.39925301e-02f, 4.58525866e-02f, 9.85057503e-02f, -7.65826404e-02f, 1.01710677e-01f, 1.15983322e-01f,
    1.53724253e-02f, 1.50308162e-02f, 1.20658875e-02f, -1.48600638e-02f, 6.09742105e-02f, 6.75758719e-02f, 3.74962389e-03f, 4.25205827e-02f,
    -5.38104475e-02f, 4.37895954e-03f, -3.96921486e-02f, -2.82322615e-02f, 1.34408474e-05f, 7.71003664e-02f, 1.07464746e-01f, -7.41407871e-02f,
    1.67753845e-02f, 2.97365040e-02f, -1.00647166e-01f, 8.72363746e-02f, 7.86511600e-02f, -7.00768232e-02f, -6.40960783e-02f, 7.64600486e-02f,
    8.73412192e-03f, -4.19582576e-02f, -8.88772905e-02f, 6.07124567e-02f, 1.23568684e-01f, -8.26287717e-02f, 2.71170586e-02f, -3.92114073e-02f,
    1.09946862e-01f, -7.42017031e-02f, -7.54752010e-02f, -2.02766061e-03f, -2.97434926e-02f, 8.90105963e-04f, -6.92164898e-03f, -6.58869594e-02f,
    9.34066176e-02f, 3.40044200e-02f, -9.28418338e-03f, -1.71788186e-02f, 1.08967856e-01f, 2.36844569e-02f, 5.22805601e-02f, -8.54115933e-02f,
    -1.91158801e-02f, -1.16010979e-01f, 1.10280648e-01f, 1.06963143e-01f, 1.20492309e-01f, 2.85610855e-02f, -2.97545642e-02f, 5.25388420e-02f,
    -4.47481126e-02f, 1.87069923e-02f, 1.16836339e-01f, 8.00222903e-02f, 1.17220119e-01f, 9.66753513e-02f, -9.82306153e-02f, -1.19945139e-01f,
    7.21193552e-02f, -2.16937214e-02f, -1.15665346e-02f, -5.74632883e-02f, 1.24821961e-01f, 9.34795737e-02f, -6.08292967e-02f, 2.64284611e-02f,
    7.32663125e-02f, -9.57061797e-02f, -1.19702742e-01f, 8.01801234e-02f, -1.14542082e-01f, -4.06340659e-02f, 9.54599828e-02f, -4.24204469e-02f,
    -8.78349692e-02f, 7.93371797e-02f, -1.54018402e-03f, -7.22739100e-03f, -8.53139460e-02f, 1.23832330e-01f, 6.81955367e-02f, 2.60663778e-02f,
    -1.02405220e-01f, -8.46446306e-02f, -7.22470134e-02f, -7.62222558e-02f, -5.20215929e-02f, 9.71934795e-02f, 1.08469963e-01f, 1.21302128e-01f,
    9.80416387e-02f, -8.50045681e-03f, -9.00875628e-02f, -7.32416213e-02f, 2.57601738e-02f, 7.36117810e-02f, 4.66745496e-02f, -1.90568566e-02f,
    -1.18678495e-01f, 9.13890898e-02f, -1.21494919e-01f, 4.63452041e-02f, 3.97158712e-02f, -8.22499394e-04f, -3.59625667e-02f, 8.02857876e-02f,
    -7.97696859e-02f, -1.63557678e-02f, 2.07261145e-02f, 3.68133634e-02f, -9.92578864e-02f, -8.05104971e-02f, 2.43561715e-02f, 1.21657342e-01f,
    -2.88860649e-02f, 5.82354516e-02f, -1.11227944e-01f, 3.08463871e-02f, -4.94939536e-02f, -4.88957167e-02f, -5.86465448e-02f, 1.08398095e-01f,
    8.06598067e-02f, 6.64334148e-02f, -4.69145030e-02f, 3.63838971e-02f, 8.73000026e-02f, 2.33090222e-02f, 6.03076518e-02f, 6.96792603e-02f,
    5.74661344e-02f, 6.25402480e-02f, 7.15964735e-02f, -1.34978294e-02f, 2.07021683e-02f, 8.09383392e-03f, 8.83595049e-02f, 4.65640426e-03f,
    -1.08997717e-01f, 1.18123099e-01f, -3.34846973e-02f, 3.97105664e-02f, -1.05053335e-01f, 1.12694502e-03f, 7.63989985e-02f, 7.56165087e-02f,
    1.16496041e-01f, -9.39047933e-02f, -2.24877894e-03f, -1.14785939e-01f, 3.81179154e-02f, -8.97393227e-02f, 1.05267137e-01f, -1.02961808e-02f,
    -1.09349772e-01f, -1.21264547e-01f, -9.47693437e-02f, 2.86055505e-02f, -5.58211654e-02f, -3.41359824e-02f, -3.03272903e-03f, -1.41005814e-02f,
    8.22719932e-02f, 5.53447902e-02f, 7.37681836e-02f, -7.31050819e-02f, 7.62697905e-02f, 1.24850243e-01f, 4.53621149e-04f, -9.50625092e-02f,
    -1.22879535e-01f, 5.31296432e-02f, -1.24081671e-02f, -7.19889849e-02f, 6.87535107e-03f, 8.16365778e-02f, 4.78023291e-03f, -8.99570882e-02f,
    -1.10390484e-02f, 2.58133858e-02f, -4.46167886e-02f, -1.17996126e-01f, 6.52549267e-02f, -4.93452251e-02f, 4.00801003e-02f, 1.11086920e-01f,
    1.16412908e-01f, -1.05201721e-01f, 9.45997238e-02f, 1.22525379e-01f, -1.07108146e-01f, 4.68381047e-02f, 4.32936251e-02f, -3.42112780e-03f,
    7.84784406e-02f, -4.61387038e-02f, 1.75222754e-03f, 1.09036297e-01f, -7.74807036e-02f, -8.06961954e-02f, -8.89590383e-02f, 1.18772537e-01f,
    4.92870808e-02f, 5.29021025e-03f, -1.38609856e-02f, -7.61893094e-02f, 4.14843261e-02f, -9.92783308e-02f, 5.73002100e-02f, -1.05810419e-01f,
    1.00169122e-01f, -4.62122113e-02f, 1.20180398e-02f, 5.91979921e-03f, 4.78468835e-03f, 5.46830893e-02f, -4.64637429e-02f, 1.10874787e-01f,
    1.80381089e-02f, 1.05619535e-01f, 4.15818095e-02f, -1.03119746e-01f, -9.41349864e-02f, 2.19329894e-02f, -3.91703397e-02f, 1.20695025e-01f,
    1.13218755e-01f, 7.84842521e-02f, 1.46263093e-02f, 1.12222657e-01f, -1.84020549e-02f, 5.29735386e-02f, 1.09977648e-01f, -1.20045066e-01f,
    5.19032627e-02f, -7.94408172e-02f, -2.30377167e-02f, -1.23357162e-01f, -1.22130498e-01f, 6.79323971e-02f, -1.09611437e-01f, 5.67946732e-02f,
    2.55843997e-02f, -5.71208149e-02f, -1.16026163e-01f, 1.15471482e-01f, -5.66455573e-02f, -4.11280394e-02f, 7.89353848e-02f, -8.70701969e-02f,
    -3.09000164e-02f, 6.43244237e-02f, -7.99337924e-02f, 6.01111948e-02f, -8.66505951e-02f, 3.53032947e-02f, -2.86302865e-02f, 4.96482402e-02f,
    5.69432825e-02f, 1.00162491e-01f, -6.65657669e-02f, 8.28706026e-02f, 6.60515279e-02f, 1.80238038e-02f, 1.24387950e-01f, 5.98079711e-02f,
    7.64082968e-02f, 4.80587929e-02f, -7.25576133e-02f, 8.84959847e-02f, -1.67297125e-02f, -6.94405884e-02f, 2.57395506e-02f, -7.91220069e-02f,
    9.35241878e-02f, -5.74247539e-03f, -1.04914770e-01f, 6.11805469e-02f, -6.38324320e-02f, 1.03924081e-01f, 8.91906619e-02f, 2.03947574e-02f,
    -1.13149837e-01f, -1.07395947e-01f, -7.88616538e-02f, -8.44389200e-03f, -2.53531039e-02f, 1.01392195e-01f, -6.78156465e-02f, -1.23147488e-01f,
    1.17094293e-01f, 1.23453945e-01f, 1.07082099e-01f, 1.05809510e-01f, 5.85708916e-02f, 2.13901252e-02f, 5.29569685e-02f, 4.88502383e-02f,
    -9.23215300e-02f, 2.71982551e-02f, 5.67930937e-03f, -1.10134467e-01f, -9.44263339e-02f, -2.60996819e-02f, 1.16376191e-01f, -9.55999047e-02f,
    7.89386034e-02f, 7.75519758e-02f, 8.60083997e-02f, 4.82835472e-02f, -8.82865787e-02f, 4.77986634e-02f, 1.57484412e-03f, 8.42728168e-02f,
    -2.90541351e-03f, 1.00385115e-01f, 6.80491030e-02f, 8.44731033e-02f, -6.15719557e-02f, 9.67578590e-03f, -1.14233911e-01f, 4.80230004e-02f,
    -1.13153502e-01f, -1.04162499e-01f, 7.22679347e-02f, 5.63814491e-02f, 6.28961921e-02f, 1.56202912e-02f, 6.19620979e-02f, -7.70547837e-02f,
    -9.29827690e-02f, -4.19619083e-02f, -3.75138074e-02f, -3.89386714e-03f, -6.66737556e-04f, 9.45202559e-02f, -6.83590025e-02f, 1.23178691e-01f,
    -1.18491843e-01f, 3.20362598e-02f, 1.12456590e-01f, 7.58005232e-02f, 7.90917128e-02f, 5.55749685e-02f, -2.96614915e-02f, 6.89500272e-02f,
    -9.87515748e-02f, -4.46277559e-02f, -1.06584057e-01f, -2.07376927e-02f, -5.79484850e-02f, -3.97540182e-02f, 1.06310219e-01f, 1.07818648e-01f,
    -9.13342983e-02f, -1.07848957e-01f, -1.22189865e-01f, 8.27004910e-02f, -9.46357101e-02f, -2.92707831e-02f, 3.66715342e-02f, -8.00213665e-02f,
    3.27786058e-02f, -1.12579033e-01f, -7.44820535e-02f, 8.55972916e-02f, -2.36106664e-02f, -2.29624659e-02f, -1.24215230e-01f, -8.56079161e-03f,
    -2.01386213e-03f, 8.86769593e-03f, -1.22706741e-02f, 8.32038522e-02f, -9.21445191e-02f, -9.33860242e-03f, -5.41819483e-02f, 4.85899001e-02f,
    -2.69314200e-02f, -6.51767850e-03f, 4.34988886e-02f, 2.24343836e-02f, -1.19141370e-01f, 9.90745872e-02f, 7.56344944e-02f, -7.88255185e-02f,
    1.66555792e-02f, 9.81991589e-02f, 7.77648389e-03f, 4.95813340e-02f, -3.89711857e-02f, -8.89983922e-02f, -1.19217217e-01f, 8.29974413e-02f,
    -3.00490558e-02f, 2.06474066e-02f, -1.12123102e-01f, -9.54109430e-03f, 1.86839849e-02f, 8.72743577e-02f, -3.75886261e-03f, 1.04661390e-01f,
    1.22648686e-01f, -1.23804167e-01f, 7.98932314e-02f, -9.86483693e-02f, 9.53571349e-02f, -7.15959966e-02f, -3.94302607e-03f, -9.47099179e-02f,
    -6.05072230e-02f, 1.06482968e-01f, -1.20870188e-01f, 6.60901070e-02f, 1.08025312e-01f, 1.05611607e-01f, 1.05173737e-01f, -8.44079703e-02f,
    -1.99388415e-02f, 6.70785904e-02f, 9.80294049e-02f, 2.18018442e-02f, -8.17787945e-02f, 1.21350288e-01f, -6.68091625e-02f, -6.63887262e-02f,
    4.00209427e-03f, 6.43982142e-02f, 8.06104392e-02f, -1.22243628e-01f, -6.13388866e-02f, 5.53211719e-02f, 7.57977366e-04f, 9.36875939e-02f,
    1.64627433e-02f, -5.42832911e-02f, -7.25675374e-02f, -8.42476934e-02f, 5.28382510e-02f, 8.40087533e-02f, -9.03792381e-02f, -1.48323774e-02f,
    2.22056061e-02f, -5.02896458e-02f, 1.86750442e-02f, 9.04141963e-02f, 1.90480202e-02f, 5.90930879e-02f, -7.26346374e-02f, -1.23624235e-01f,
    2.61857659e-02f, 9.21335071e-02f, 1.10789731e-01f, 9.89134908e-02f, 9.37096477e-02f, -9.08728391e-02f, 6.53764457e-02f, -7.73616135e-02f,
    2.56224871e-02f, -4.47244346e-02f, 2.76950449e-02f, 6.70199096e-03f, 4.50260788e-02f, -1.50403529e-02f, -7.25537241e-02f, -7.66286850e-02f,
    1.15081936e-01f, 7.83020705e-02f, 4.20925617e-02f, -6.19706959e-02f, 2.18041539e-02f, 3.98522615e-02f, 6.85009211e-02f, 6.51841164e-02f,
    -6.28128499e-02f, -4.91619557e-02f, -2.63638347e-02f, 5.88460267e-02f, -3.85067910e-02f, 1.01825282e-01f, 7.58886188e-02f, -6.93893880e-02f,
    7.63897747e-02f, 1.02615610e-01f, 7.06122071e-02f, 6.65690750e-02f, 8.09941888e-02f, 2.55650729e-02f, 8.95771384e-03f, -9.43869352e-04f,
    2.90982276e-02f, 4.29123640e-04f, 3.09294909e-02f, -5.60425669e-02f, 9.23367590e-02f, 1.16268441e-01f, 7.09037483e-02f, 8.70596915e-02f,
    -1.22529954e-01f, 6.61794543e-02f, 1.19682312e-01f, -7.67551363e-02f, 7.70059079e-02f, -1.11594513e-01f, 3.17392647e-02f, 5.56124747e-03f,
    -1.15605891e-02f, -1.14798352e-01f, -9.48400497e-02f, -9.22742188e-02f, -2.36451775e-02f, -9.31332111e-02f, 1.17528155e-01f, 1.17867142e-01f,
    1.02743804e-01f, -6.50256574e-02f, 7.35300481e-02f, 5.56344390e-02f, -2.63104141e-02f, 4.22133356e-02f, -7.95295984e-02f, 1.15739763e-01f,
    -2.40011513e-03f, -6.31990731e-02f, 1.58862472e-02f, 5.30548990e-02f, -4.93881553e-02f, -1.04789600e-01f, 8.07966888e-02f, 6.68789744e-02f,
    6.14949465e-02f, -7.46652633e-02f, 1.90064758e-02f, 1.18148446e-01f, 7.34300464e-02f, 1.23892710e-01f, -7.66860545e-02f, 4.15322930e-02f,
    -2.77609229e-02f, -1.51290148e-02f, -6.55040741e-02f, -7.14161396e-02f, -2.14912593e-02f, -1.17711648e-01f, 6.92875087e-02f, -2.79815495e-02f,
    -1.00645423e-03f, -8.21311325e-02f, 5.99095225e-02f, -1.76378191e-02f, -8.59863460e-02f, -5.57810068e-04f, 2.76768208e-03f, 4.33423817e-02f,
    9.94454324e-03f, -1.23972028e-01f, -9.54880267e-02f, 7.23003447e-02f, 9.24139619e-02f, -4.02487814e-02f, -3.23103815e-02f, -2.27145702e-02f,
    -1.04987428e-01f, 1.13028660e-01f, -5.81343025e-02f, 6.09751642e-02f, -4.50741947e-02f, 9.90161896e-02f, -3.23174745e-02f, 1.08394980e-01f,
    -1.06687963e-01f, 9.50833112e-02f, -4.09452319e-02f, 4.79350984e-02f, -2.79745609e-02f, 2.97410786e-03f, 2.88783461e-02f, -4.33318764e-02f,
    2.12692767e-02f, 1.06045336e-01f, -1.14267275e-01f, -1.11963391e-01f, 6.72501326e-02f, -1.21044904e-01f, 1.23707175e-01f, 9.71296579e-02f,
    4.12306637e-02f, -1.18268073e-01f, -4.74616736e-02f, -3.64771336e-02f, 8.71945769e-02f, 3.54018956e-02f, 5.38903028e-02f, -7.69095868e-02f,
    -1.45044625e-02f, -1.24321535e-01f, 7.94946849e-02f, 3.31310183e-02f, 2.10428387e-02f, -4.91096675e-02f, -1.10300645e-01f, 9.64839011e-02f,
    4.17504311e-02f, -4.14527357e-02f, 9.50311869e-02f, 3.33315134e-03f, 5.17566502e-03f, 1.17731616e-01f, 1.05678603e-01f, -8.39927644e-02f,
    -6.65563494e-02f, -1.18312985e-02f, -1.74520910e-03f, 7.91425258e-02f, 1.24532878e-02f, 4.30302173e-02f, -3.93979251e-03f, 2.13567913e-03f,
    -8.98566842e-02f, -8.75859857e-02f, 5.19731641e-02f, -9.79821533e-02f, -1.66890621e-02f, 9.65758711e-02f, 1.10180527e-01f, -1.16073146e-01f,
    -5.14352024e-02f, -4.57636863e-02f, -1.90540999e-02f, 9.47738141e-02f, 9.84516293e-02f, -1.77091956e-02f, -8.81934613e-02f, -1.21048719e-01f,
    -6.04159534e-02f, -2.06665695e-02f, 8.95811319e-02f, 9.74575430e-02f, -7.02851862e-02f, 8.19665790e-02f, -1.24049008e-01f, 7.95842856e-02f,
    6.30855560e-02f, 3.68978977e-02f, 5.50407618e-02f, 1.38761550e-02f, -6.87094182e-02f, -6.54735863e-02f, 7.81173408e-02f, 1.21735469e-01f,
    9.86178666e-02f, -1.12831309e-01f, -7.12174326e-02f, -8.42482895e-02f, -3.61011177e-02f, -8.23064148e-02f, -2.33241767e-02f, -2.68223733e-02f,
    -8.31607282e-02f, 1.40578300e-02f, -8.38149339e-02f, -7.84410685e-02f, -1.77741796e-02f, -2.15608031e-02f, 7.28875697e-02f, -8.20112079e-02f,
    -1.28980726e-02f, 6.67021722e-02f, 2.25213021e-02f, 8.48826766e-02f, -1.05000183e-01f, 1.10175014e-02f, 1.01816386e-01f, 5.02800643e-02f,
    -1.63156092e-02f, 5.40590733e-02f, 7.20920563e-02f, 9.52452421e-04f, -1.05849877e-01f, 7.93071985e-02f, 3.55534554e-02f, 9.62363333e-02f,
    5.39168715e-02f, -1.00495204e-01f, 4.46379781e-02f, -9.16596353e-02f, 8.61610770e-02f, 1.03636980e-01f, 1.39555037e-02f, 9.54010785e-02f,
    -5.16106039e-02f, -7.43188858e-02f, -5.40648401e-02f, 9.49544013e-02f, -1.12073585e-01f, -1.01255298e-01f, 9.43569690e-02f, -6.23429120e-02f,
    -3.54425609e-03f, 2.71975100e-02f, 9.73065794e-02f, -1.06128201e-01f, 3.43170613e-02f, -1.02375835e-01f, -8.14936459e-02f, 1.64165348e-02f,
    -5.00493944e-02f, 8.57827514e-02f, 7.32899010e-02f, -5.36752641e-02f, 2.08912343e-02f, 9.73664224e-02f, -6.16482496e-02f, -2.11263299e-02f,
    3.01342010e-02f, 6.46462739e-02f, -6.25912100e-02f, 5.04833013e-02f, 1.21268272e-01f, 5.71568608e-02f, -1.21100590e-01f, -2.80949622e-02f,
    -1.06572688e-01f, 5.63812256e-02f, -1.05446145e-01f, -1.79960877e-02f, -6.12332523e-02f, -1.15228072e-01f, -2.97887921e-02f, -5.69051355e-02f,
    4.74475473e-02f, -1.10120684e-01f, 2.52630711e-02f, -8.48662853e-02f, -4.24440652e-02f, 1.22561008e-01f, 1.19438663e-01f, -1.89410299e-02f,
    9.34141874e-02f, 1.16386622e-01f, 4.88341153e-02f, -8.69930387e-02f, -2.11172849e-02f, 8.13155919e-02f, 3.53445262e-02f, 5.84901571e-02f,
    3.07866633e-02f, 9.71681178e-02f, 1.03632063e-01f, 1.22377843e-01f, 1.91590488e-02f, 9.35282260e-02f, 1.15668401e-01f, 3.89395654e-02f,
    1.21142924e-01f, -1.22246966e-01f, -2.36942321e-02f, -1.22036278e-01f, 2.93359160e-04f, 6.90454990e-02f, 1.15484253e-01f, -9.69869792e-02f,
    4.92658466e-02f, -6.12056255e-02f, 1.15890533e-01f, -6.43475801e-02f, -1.13783881e-01f, -5.47060668e-02f, 6.39873743e-02f, -9.60544646e-02f,
    -2.86194533e-02f, -9.85296071e-03f, 1.24139532e-01f, 6.78439289e-02f, 3.49765867e-02f, -4.66969013e-02f, 3.91870737e-04f, -8.95134360e-02f,
    3.04452479e-02f, 1.14087373e-01f, 1.14717439e-01f, -1.18539616e-01f, -6.04183376e-02f, -3.68823558e-02f, 6.17253631e-02f, -1.13844216e-01f,
    -6.30034655e-02f, 1.83037072e-02f, -5.74142039e-02f, -3.63503247e-02f, -6.84144199e-02f, 6.41459823e-02f, -1.12359181e-01f, 4.65269387e-02f,
    7.24637806e-02f, 3.00766528e-03f, 1.17551088e-01f, -1.73668712e-02f, 8.36094469e-02f, -1.16189048e-01f, -4.95478958e-02f, 3.05038244e-02f,
    1.00288615e-01f, -5.80337644e-03f, -1.02548301e-01f, -5.60401529e-02f, 9.94796306e-02f, 9.20472741e-02f, -4.51142341e-02f, 1.20859519e-01f,
    -7.11202621e-02f, 2.51667202e-03f, 1.06957704e-02f, -4.61241454e-02f, 2.51895934e-02f, 5.16224205e-02f, -1.06594235e-01f, -4.75892276e-02f,
    4.68617380e-02f, -7.74631649e-02f, -2.00629234e-04f, -6.72956556e-02f, -8.36995691e-02f, 1.01715833e-01f, 1.01167664e-01f, 9.74989235e-02f,
    -6.40217066e-02f, 5.88465333e-02f, -8.02597106e-02f, 1.04394585e-01f, -7.97878206e-02f, -4.98403609e-03f, 1.06581256e-01f, 9.43215936e-02f,
    -1.18131638e-01f, 9.66596901e-02f, 1.59099698e-04f, 5.10603189e-04f, 3.96236479e-02f, 2.58730203e-02f, 8.80730152e-03f, 9.79119092e-02f,
    -5.37673980e-02f, 7.78722018e-02f, 1.15986556e-01f, -5.50297946e-02f, 5.46858013e-02f, 1.07312515e-01f, 8.65341723e-02f, 8.52506012e-02f,
    -6.56373203e-02f, 2.95350552e-02f, -8.38753283e-02f, -5.31020463e-02f, -1.64186507e-02f, -5.17775118e-02f, 1.18698373e-01f, -1.08495906e-01f,
    1.09661967e-02f, 1.20541692e-01f, 3.42387259e-02f, -2.60518938e-02f, -1.53409690e-02f, 4.39675748e-02f, 5.76958060e-03f, 5.20543903e-02f,
    -8.58799666e-02f, -1.35415643e-02f, 1.27485693e-02f, -2.81368196e-02f, -7.06302673e-02f, 8.72616917e-02f, -2.45511085e-02f, 7.12001622e-02f,
    5.50480783e-02f, -4.47287858e-02f, -9.04431939e-02f, 1.15749657e-01f, 1.24299005e-01f, -2.63047218e-02f, -1.86604261e-02f, 8.11205804e-03f,
    -1.23049393e-01f, 1.17269158e-01f, 3.50146592e-02f, 3.38028669e-02f, -2.48602927e-02f, 1.23304114e-01f, 3.60126346e-02f, -9.28333402e-02f,
    8.99115354e-02f, -1.14871114e-02f, 2.31438428e-02f, 6.25115633e-03f, -7.09629059e-02f, -1.06646717e-01f, 4.99138236e-03f, 1.07391700e-01f,
    1.16788492e-01f, -3.65382880e-02f, 4.64135557e-02f, -2.15096176e-02f, -5.25592566e-02f, 1.01129517e-01f, -4.55439240e-02f, -8.22176784e-02f,
    1.17046535e-01f, 8.85721445e-02f, -4.58398610e-02f, -1.30538493e-02f, 4.17521596e-02f, 1.18832141e-01f, 3.96763086e-02f, 1.29435956e-02f,
    4.61335927e-02f, -4.66535389e-02f, 7.36561716e-02f, -1.16881967e-01f, -9.58716124e-02f, -5.02781868e-02f, 2.32491195e-02f, 8.10184032e-02f,
    2.71352082e-02f, 3.77390832e-02f, 1.78175867e-02f, 2.58376002e-02f, 1.06319636e-02f, 8.29129964e-02f, -1.15432113e-01f, 8.19331408e-02f,
    8.80707800e-03f, 7.31960386e-02f, -6.65795058e-02f, -4.36038524e-02f, -2.82781720e-02f, -2.48834789e-02f, -6.98282421e-02f, -3.54635566e-02f,
    7.90285319e-02f, -4.06370163e-02f, -3.24237794e-02f, 8.49410892e-04f, 1.47511959e-02f, -1.23480707e-02f, 7.63095021e-02f, 1.61993057e-02f,
    -8.54782462e-02f, -2.03535259e-02f, -9.13887918e-02f, -1.12634599e-02f, 2.83989012e-02f, 1.03676125e-01f, -5.10020554e-03f, 8.10547173e-02f,
    -8.16423148e-02f, -4.35538441e-02f, -5.12600839e-02f, 8.15661699e-02f, -6.55106008e-02f, 8.94171447e-02f, -1.51443779e-02f, 2.78247744e-02f,
    -8.06493014e-02f, -1.29539371e-02f, -8.84766430e-02f, 8.06496739e-02f, -4.82070446e-03f, -8.93983245e-03f, -1.18204728e-01f, 7.70095438e-02f,
    4.04161811e-02f, 3.28226238e-02f, 1.19403154e-01f, 8.87203217e-02f, -2.98568606e-03f, 7.31961429e-03f, -7.98713267e-02f, 8.34868401e-02f,
    -9.55475271e-02f, -4.15364057e-02f, -2.23431885e-02f, -1.20179400e-01f, -2.84254849e-02f, 1.66927278e-02f, 8.22302699e-02f, 5.67638725e-02f,
    -1.15211785e-01f, -6.94044679e-02f, -6.07180893e-02f, -4.35906649e-03f, -1.77260041e-02f, -3.84079665e-02f, 7.02350140e-02f, -3.33350152e-02f,
    7.20752329e-02f, 6.57870471e-02f, 1.16096452e-01f, 4.75864857e-02f, 1.09265491e-01f, -1.72142833e-02f, -7.05960244e-02f, -3.21785510e-02f,
    6.30342364e-02f, -7.84046501e-02f, 1.73798203e-02f, 8.72290879e-02f, 6.70129657e-02f, 7.59562552e-02f, 1.15469366e-01f, -9.01406407e-02f,
    -8.03154707e-03f, 6.24040365e-02f, 6.87170029e-03f, -4.66874093e-02f, -5.59791178e-02f, -1.89522207e-02f, 2.88336873e-02f, -2.64414400e-02f,
    -6.64183348e-02f, 4.51515168e-02f, -6.38646185e-02f, 1.74394250e-02f, -1.66529417e-02f, -5.34505546e-02f, -8.15895796e-02f, -9.86234546e-02f,
    -5.27077764e-02f, -9.30182338e-02f, -1.23009086e-04f, -1.20393693e-01f, -1.09799489e-01f, -3.80028784e-02f, 5.39730787e-02f, -5.07506728e-02f,
    -6.43237978e-02f, 4.48722988e-02f, 5.86161613e-02f, 5.49550951e-02f, -5.00982404e-02f, -4.56717759e-02f, 2.03116238e-02f, -6.37928993e-02f,
    -2.08867043e-02f, 7.07124174e-03f, -9.03561115e-02f, -1.04441836e-01f, -8.98135304e-02f, 1.23712122e-02f, 9.16676819e-02f, -5.68585098e-03f,
    1.22140095e-01f, -4.27998602e-03f, 8.73090774e-02f, 3.63676399e-02f, -6.86942786e-02f, 5.62359393e-02f, -2.21709758e-02f, 1.15014926e-01f,
    -4.64691222e-02f, 5.17595857e-02f, -1.22870594e-01f, -1.12507820e-01f, 7.43120909e-05f, 1.97932273e-02f, -1.09691814e-01f, -5.59311658e-02f,
    2.60919333e-03f, 8.87809992e-02f, -7.10046440e-02f, 8.75635892e-02f, -8.24994147e-02f, -5.88658154e-02f, -1.13446534e-01f, -6.78999573e-02f,
    1.28326416e-02f, 7.69478083e-03f, 2.22002417e-02f, -9.08319801e-02f, 1.14189059e-01f, 4.97189164e-02f, 3.70275378e-02f, 6.72169775e-02f,
    4.36754823e-02f, 4.24097478e-03f, -1.07541293e-01f, -7.05308616e-02f, 3.47417593e-02f, -3.33085656e-03f, -6.11100048e-02f, -5.46377748e-02f,
    -1.19278520e-01f, 1.86352432e-03f, 4.01918888e-02f, 7.31238723e-02f, 9.22553986e-02f, 4.31653708e-02f, -6.85461015e-02f, -1.84834003e-03f,
    -8.73774141e-02f, 1.22786522e-01f, 2.92306095e-02f, 1.02011904e-01f, 5.42784035e-02f, 1.08239308e-01f, -1.08276889e-01f, 3.24253440e-02f,
    -4.32512164e-03f, 1.12238377e-01f, 1.04613453e-02f, 7.35798478e-02f, 3.33549976e-02f, 7.58842528e-02f, -1.12958595e-01f, -3.86012197e-02f,
    -9.21566784e-03f, -3.53621393e-02f, -1.43156946e-02f, 5.74085265e-02f, 7.93988407e-02f, -8.31577182e-03f, 6.13010973e-02f, -3.28465253e-02f,
    -5.06329983e-02f, 2.28912383e-02f, 7.62151182e-03f, -7.93891996e-02f, -3.65197659e-03f, 9.90432501e-03f, -8.54076296e-02f, -1.09402105e-01f,
    1.94011480e-02f, -1.17988691e-01f, -1.93572789e-02f, 5.00620306e-02f, 9.07915384e-02f, -4.35700119e-02f, 4.06641811e-02f, 1.70614868e-02f,
    8.43919963e-02f, -5.11260778e-02f, -7.73955435e-02f, 7.19032437e-02f, 1.03445187e-01f, 1.13590375e-01f, -5.13457060e-02f, -8.62843394e-02f,
    -4.93913889e-03f, -4.08085138e-02f, 9.18402970e-02f, -4.98597324e-03f, 6.22017831e-02f, 4.59669530e-03f, 6.95260316e-02f, 1.70184225e-02f,
    -1.16941735e-01f, -8.80582780e-02f, 1.04372695e-01f, -3.12054753e-02f, -1.06337637e-01f, 7.53005296e-02f, -1.78951025e-02f, -4.72155660e-02f,
    -2.05479115e-02f, 1.24246180e-01f, -5.84533811e-03f, 6.61673844e-02f, 8.21533948e-02f, 8.66702050e-02f, -5.27940542e-02f, 2.86018550e-02f,
    -7.87660480e-02f, 8.85474682e-02f, 4.05932963e-02f, -5.41061163e-03f, 7.55686462e-02f, 9.49749649e-02f, 1.16624832e-02f, -6.62611425e-03f,
    3.77902538e-02f, -4.81048226e-02f, -6.59649819e-02f, -1.00912929e-01f, 5.82323819e-02f, -3.61811221e-02f, -4.30513471e-02f, 4.55450118e-02f,
    -1.02357358e-01f, 6.26249611e-02f, -3.41960788e-02f, -4.99501526e-02f, 1.74964815e-02f, -9.28737074e-02f, -2.14328468e-02f, -2.55958140e-02f,
    -8.92110914e-02f, -7.26478845e-02f, -5.87669611e-02f, -6.14316165e-02f, -4.22998816e-02f, 1.19205654e-01f, 6.93455338e-03f, 5.50722927e-02f,
    -1.54168904e-03f, 1.01412505e-01f, -7.82511234e-02f, 9.98623371e-02f, 6.06604517e-02f, -4.15568054e-02f, -3.53926271e-02f, -9.89602506e-02f,
    5.97784966e-02f, -9.89006162e-02f, -2.39403695e-02f, 1.17601603e-02f, -6.05585426e-02f, 7.68879056e-03f, -4.42260653e-02f, 5.54287583e-02f,
    3.78366560e-02f, -2.66187787e-02f, -8.27258825e-02f, -9.13849026e-02f, 1.01316318e-01f, 3.96511257e-02f, -5.91531396e-02f, -1.84306055e-02f,
    3.55020314e-02f, 3.97889912e-02f, -7.22880661e-02f, 4.03800607e-02f, -1.22556537e-02f, 1.21446282e-01f, -1.16039112e-01f, -6.13270849e-02f,
    5.06739169e-02f, 3.28513533e-02f, 7.68541396e-02f, 3.17844003e-02f, -6.90797120e-02f, 8.88471901e-02f, 8.85318965e-02f, 8.62722993e-02f,
    -7.25452602e-03f, -3.79155725e-02f, -9.55258012e-02f, -1.87906474e-02f, 7.15310872e-02f, 3.54295075e-02f, -8.01694989e-02f, -9.13895667e-03f,
    1.04291588e-02f, -4.47139144e-03f, 6.24992847e-02f, -9.21112597e-02f, 1.08114019e-01f, 1.01217806e-01f, 1.11467704e-01f, 7.33642578e-02f,
    -2.33780444e-02f, -1.17500857e-01f, -1.07726648e-01f, 7.36299902e-02f, -5.54025173e-03f, 3.38779688e-02f, 2.12323964e-02f, -6.96667284e-02f,
    -1.01890951e-01f, -4.69518006e-02f, -9.44174975e-02f, 2.23845243e-04f, 6.17364794e-02f, 9.36638266e-02f, 2.12997347e-02f, 1.10107511e-01f,
    5.59915006e-02f, 5.86938709e-02f, 6.16785288e-02f, -4.98722345e-02f, 6.56767339e-02f, 4.07063812e-02f, -1.22714579e-01f, -1.23547524e-01f,
    3.86420786e-02f, -5.29615581e-02f, 4.39021736e-02f, -6.13439828e-02f, -8.53003561e-02f, 8.28483999e-02f, 7.73348212e-02f, -9.15710777e-02f,
    -1.13754004e-01f, -9.69590396e-02f, -1.19149461e-01f, 3.78784686e-02f, -2.94231176e-02f, -2.53457874e-02f, -1.74105018e-02f, -7.55682141e-02f,
    1.08182356e-01f, -9.06124264e-02f, 3.01333666e-02f, 8.34668577e-02f, -5.50262481e-02f, 1.21694431e-01f, -7.49129802e-02f, -6.92982525e-02f,
    8.50829184e-02f, -1.07856885e-01f, -9.97494310e-02f, 3.64626944e-02f, 1.34722888e-03f, -3.84913087e-02f, 3.06930095e-02f, -8.06552023e-02f,
    -1.18208826e-02f, 7.74858892e-02f, -1.28249228e-02f, -2.94527858e-02f, -5.34792095e-02f, 7.77137578e-02f, 2.33505368e-02f, -7.21337199e-02f,
    1.16288453e-01f, 1.68087482e-02f, 1.02994531e-01f, 3.05183232e-02f, -9.43474919e-02f, -8.88587832e-02f, 9.56908613e-02f, -1.19079545e-01f,
    -5.33206910e-02f, -3.38778645e-02f, 1.53377503e-02f, 1.22942105e-01f, 7.37734735e-02f, 1.18407607e-03f, 3.61866355e-02f, -8.41578245e-02f,
    -5.90950251e-04f, -8.62972289e-02f, 3.73015106e-02f, 7.05783665e-02f, -4.61097956e-02f, -3.92702669e-02f, -3.60987186e-02f, -5.88463247e-03f,
    8.53973031e-02f, -1.18247792e-01f, -3.08202654e-02f, 4.21187282e-02f, 3.79537642e-02f, 2.54931748e-02f, 1.35150552e-02f, -1.02515519e-02f,
    4.80216891e-02f, 5.34985363e-02f, -5.98318279e-02f, 9.25444514e-02f, 1.16192505e-01f, 6.43466413e-02f, -4.16946709e-02f, -2.54494399e-02f,
    -3.12113762e-03f, -1.07053652e-01f, -8.49290341e-02f, -1.36744976e-03f, -8.74317884e-02f, -7.92740732e-02f, 8.11447501e-02f, 5.71956933e-02f,
    7.98577219e-02f, -1.13776594e-01f, 1.04898795e-01f, 8.89794976e-02f, 1.19062737e-01f, 8.27372670e-02f, -5.23693860e-02f, -9.60485041e-02f,
    4.28716540e-02f, -8.13742578e-02f, -9.02839154e-02f, 2.21943855e-02f, -6.01237565e-02f, 2.65661180e-02f, -4.57426012e-02f, 2.49251127e-02f,
    9.60496515e-02f, 6.65815473e-02f, 1.15588844e-01f, 1.55217946e-02f, 3.03027034e-02f, 5.95162362e-02f, 9.64143723e-02f, 1.21070877e-01f,
    4.53636050e-03f, 4.46467847e-02f, 8.18136483e-02f, -7.81623870e-02f, 8.40483904e-02f, -9.37407613e-02f, -6.53401315e-02f, -1.20894149e-01f,
    9.13297981e-02f, -8.97660851e-03f, 9.50226933e-02f, 6.81107640e-02f, -3.80617082e-02f, -3.74566913e-02f, -9.55671072e-03f, 8.16596001e-02f,
    2.21253932e-03f, 5.26656210e-02f, -1.00722298e-01f, -1.00335032e-01f, -8.17104876e-02f, 1.01177692e-01f, 1.89127475e-02f, -2.02782452e-02f,
    1.24300599e-01f, 7.52992034e-02f, -1.04704037e-01f, 4.86934781e-02f, 6.43143654e-02f, -9.09975767e-02f, -2.23934650e-02f, 6.32873923e-02f,
    1.12464756e-01f, -1.09126225e-01f, -1.18012249e-01f, 5.77698648e-03f, -2.02305764e-02f, 1.07671306e-01f, -4.18166220e-02f, -1.00530148e-01f,
    9.58824456e-02f, -3.27769220e-02f, 1.84766054e-02f, -9.22179073e-02f, -7.20702261e-02f, -9.92377549e-02f, -2.21400261e-02f, -9.86825228e-02f,
    1.21115148e-01f, 3.88623476e-02f, -6.20335937e-02f, -5.87403923e-02f, 2.59307474e-02f, -1.05323598e-01f, 3.10132056e-02f, -7.06022978e-02f,
    2.64362991e-02f, 9.67761725e-02f, -1.15342155e-01f, 1.50452703e-02f, -7.23709911e-02f, 9.66107547e-02f, -9.32996124e-02f, 7.89801031e-02f,
    -3.43538821e-02f, 8.40314329e-02f, -7.30748475e-03f, 6.63923174e-02f, 1.30143464e-02f, -5.24828732e-02f, 7.61559308e-02f, -8.54422152e-02f,
    -7.75505751e-02f, 9.57673341e-02f, -4.60745394e-03f, 6.39189780e-02f, -1.23205632e-02f, 9.11875069e-02f, -3.79232615e-02f, 7.24048018e-02f,
    2.69205421e-02f, 7.71486759e-03f, 1.10702515e-01f, -9.12903845e-02f, -1.47192031e-02f, -7.60812163e-02f, -5.59169650e-02f, -3.05215418e-02f,
    -4.95301932e-02f, -3.32934111e-02f, 9.91404057e-04f, -2.11186111e-02f, -2.94234008e-02f, 3.28915864e-02f, -4.22447920e-05f, 1.09242648e-02f,
    5.93541414e-02f, 9.72010493e-02f, -5.15567660e-02f, 9.48238969e-02f, 7.21129924e-02f, -1.39157474e-02f, -5.12444228e-02f, 1.12328976e-01f,
    -9.81943011e-02f, -1.20460540e-01f, -7.99015164e-02f, 5.77912033e-02f, -9.31453109e-02f, 8.53685588e-02f, -7.65561163e-02f, -1.02713630e-01f,
    7.25993514e-03f, -9.97185856e-02f, -3.70042026e-03f, -2.96069980e-02f, 1.47648156e-02f, -1.03149459e-01f, 1.22802958e-01f, -9.64704305e-02f,
    7.26319849e-02f, 1.10142827e-02f, 9.96438563e-02f, -9.24463570e-02f, 2.72092223e-02f, -1.09040245e-01f, 1.23870671e-01f, -2.97067761e-02f,
    4.54265326e-02f, -1.68065727e-03f, 1.00452453e-02f, -1.19493067e-01f, 5.82274497e-02f, 1.01266891e-01f, 3.41615379e-02f, -9.14790332e-02f,
    7.94714987e-02f, 7.31019080e-02f, -2.25412399e-02f, 9.63082463e-02f, -5.27327210e-02f, 2.32197493e-02f, -1.46308541e-02f, -8.83731097e-02f,
    -1.12339437e-01f, 1.09496906e-01f, -1.04298294e-02f, -1.04720548e-01f, 4.94078547e-02f, 8.53021443e-02f, -1.06891736e-01f, -8.41522217e-03f,
    -5.20961583e-02f, 4.82579023e-02f, -9.07709002e-02f, 2.78175473e-02f, -4.93743569e-02f, 1.01384893e-01f, 7.21081644e-02f, -9.16301608e-02f,
    8.51569474e-02f, -9.37492251e-02f, -4.61521596e-02f, 6.81949258e-02f, -8.15569460e-02f, 5.17473668e-02f, -9.23240632e-02f, 7.30235726e-02f,
    -7.87528902e-02f, -4.84216958e-02f, 1.14765912e-02f, -1.70608312e-02f, 1.15016505e-01f, -1.09203815e-01f, 3.87251973e-02f, -1.24993056e-01f,
    9.39123631e-02f, 4.31612134e-02f, -8.06093514e-02f, 2.64873505e-02f, 1.15392864e-01f, -3.17366272e-02f, 1.32193267e-02f, -3.91694158e-02f,
    -3.51085812e-02f, -7.02543706e-02f, -1.03175312e-01f, -8.23828578e-02f, -5.31423986e-02f, -1.18119314e-01f, -4.64847684e-02f, -7.66883343e-02f,
    -3.61360908e-02f, -2.55526602e-02f, -1.15860119e-01f, -9.80332643e-02f, 8.36474299e-02f, 8.53997618e-02f, 3.39867622e-02f, 2.10475773e-02f,
    -4.52651232e-02f, 5.97431809e-02f, 5.19240350e-02f, 1.13802284e-01f, 4.18481082e-02f, 1.23685911e-01f, -4.60591316e-02f, -1.77084506e-02f,
    5.54325730e-02f, -3.66787761e-02f, 3.47933918e-02f, -5.22855818e-02f, 4.31741923e-02f, 9.15214717e-02f, 6.67478591e-02f, -9.80309993e-02f,
    -1.92977190e-02f, -7.74573535e-02f, -1.54555589e-02f, 7.63554871e-03f, -1.19610608e-01f, -1.07181609e-01f, 1.09874621e-01f, -2.50793993e-03f,
    -7.00149983e-02f, 3.47905606e-02f, 7.87815452e-02f, 7.53198266e-02f, 8.73300135e-02f, -4.47386950e-02f, -1.09140933e-01f, -6.38345927e-02f,
    6.88138157e-02f, 9.61688161e-02f, -9.29058343e-02f, -1.22460276e-01f, 2.30474919e-02f, 6.54462874e-02f, 1.14679009e-01f, 9.89440680e-02f,
    -1.08650178e-02f, 4.91647124e-02f, 9.14031863e-02f, 5.19392490e-02f, 5.50600886e-03f, 1.54350400e-02f, 4.63152379e-02f, -1.78058892e-02f,
    -1.06296659e-01f, 1.75063610e-02f, 3.29312682e-02f, -1.03116587e-01f, -8.06865096e-03f, 9.11423713e-02f, -6.04383796e-02f, 6.57135248e-03f,
    9.80575383e-03f, 6.06460869e-03f, -1.41338259e-02f, -1.12280890e-01f, -8.67911130e-02f, 1.03211358e-01f, 7.48395622e-02f, -5.65273464e-02f,
    1.11939207e-01f, -2.90730596e-02f, -6.19760305e-02f, -6.90027028e-02f, 4.39062715e-03f, -1.19438797e-01f, -9.79804844e-02f, -2.75698006e-02f,
    -8.32071304e-02f, -2.68206745e-02f, -5.16578555e-03f, -3.04908752e-02f, -1.15895122e-02f, 2.97048092e-02f, 4.56572324e-02f, 7.91435093e-02f,
    -7.56883472e-02f, 1.61146224e-02f, 4.31007892e-02f, 9.20933932e-02f, 4.35160697e-02f, -1.13870814e-01f, -3.02206427e-02f, -2.72087306e-02f,
    9.52812731e-02f, -1.93873495e-02f, -8.44907910e-02f, 1.09929800e-01f, -9.96679068e-02f, -2.98662633e-02f, -8.87117982e-02f, 9.51908678e-02f,
    9.60604399e-02f, 5.11347800e-02f, -8.05472285e-02f, 2.49593258e-02f, -8.91752988e-02f, -1.17288485e-01f, -2.72326022e-02f, -6.22919649e-02f,
    -8.59143138e-02f, -9.70660001e-02f, 1.22163489e-01f, 4.94085252e-02f, 6.36926293e-02f, 3.84919345e-02f, 2.38303244e-02f, 6.29382282e-02f,
    4.40008044e-02f, 4.58654761e-02f, -7.03838319e-02f, -8.87360871e-02f, 1.13294870e-01f, -1.01593599e-01f, 6.04212731e-02f, -1.00799337e-01f,
    3.16065550e-03f, -4.19178903e-02f, 4.60861474e-02f, -4.19244170e-02f, -9.37098712e-02f, -1.09552801e-01f, 1.81031525e-02f, -1.65214986e-02f,
    -4.11613435e-02f, -2.96031684e-02f, 9.83992219e-03f, -8.78161639e-02f, -6.29342645e-02f, 3.06092054e-02f, 1.12467751e-01f, 5.28038591e-02f,
    -5.28687835e-02f, 2.65956521e-02f, 1.15524530e-02f, -4.44920212e-02f, 9.45138335e-02f, 5.28454781e-04f, 3.30909640e-02f, -4.82006073e-02f,
    -1.22656927e-01f, 4.32931185e-02f, 5.65011799e-03f, 9.48820710e-02f, -1.36902779e-02f, -8.30817819e-02f, -6.74170405e-02f, 8.69307816e-02f,
    1.18987307e-01f, 8.77039880e-02f, -8.51479918e-02f, -4.12462056e-02f, 1.15366697e-01f, 5.55967987e-02f, 9.06560421e-02f, 7.58020580e-02f,
    8.81636292e-02f, 4.38718349e-02f, -1.16733611e-01f, 1.16651803e-01f, -8.41472149e-02f, 4.83183712e-02f, 3.03235650e-02f, -5.45340776e-02f,
    1.01624727e-02f, -5.87572604e-02f, 5.18296957e-02f, -8.78459364e-02f, -7.54429400e-02f, -7.36155659e-02f, 1.02473795e-02f, 7.76818842e-02f,
    4.55037653e-02f, 1.14314124e-01f, 5.44220805e-02f, 4.70964611e-02f, -1.03310063e-01f, -1.90816522e-02f, -8.13816637e-02f, -1.22756317e-01f,
    -1.63666904e-03f, 8.78642499e-02f, -1.16548344e-01f, 5.99145889e-03f, -9.17146504e-02f, 6.01194799e-02f, -9.59647000e-02f, 6.44926727e-02f,
    -1.02447420e-01f, -1.07061490e-01f, 9.12227184e-02f, 9.24445689e-02f, -6.93072677e-02f, -1.06771260e-01f, -8.37135613e-02f, -6.97707236e-02f,
    -8.96575749e-02f, 6.93019181e-02f, -4.57096845e-02f, 7.38810003e-03f, 7.64341652e-03f, 1.61175728e-02f, -5.22960722e-03f, 3.88268679e-02f,
    -1.23337284e-01f, 1.05910271e-01f, -1.24510601e-01f, 8.20646435e-02f, 2.06631124e-02f, 5.56958020e-02f, -3.98302972e-02f, 2.45673209e-02f,
    3.22324485e-02f, 4.83624339e-02f, -6.40345812e-02f, 3.96158546e-02f, 5.98274171e-02f, 4.92518693e-02f, 1.11569017e-01f, -9.66589153e-03f,
    -1.02865309e-01f, -8.92786831e-02f, 1.16352648e-01f, -9.02920961e-02f, -1.10999525e-01f, -1.06477633e-01f, 5.02656400e-02f, 1.87010467e-02f,
    -2.23816931e-03f, -7.32706040e-02f, -1.14142627e-01f, -3.11995447e-02f, 3.15715820e-02f, -4.57970798e-02f, -4.17725742e-03f, -4.89564389e-02f,
    2.91484594e-03f, 6.93583190e-02f, 7.96172172e-02f, 1.06239438e-01f, -9.62172896e-02f, -8.06993693e-02f, -1.18600339e-01f, -6.25261515e-02f,
    7.41407275e-04f, -6.53868467e-02f, -8.27798694e-02f, -9.87837017e-02f, 9.83915329e-02f, -3.86167765e-02f, 1.13833010e-01f, -9.36543643e-02f,
    -1.09227285e-01f, -4.02898192e-02f, 3.76965553e-02f, -5.41175008e-02f, 2.47941017e-02f, 5.28661311e-02f, -1.16755724e-01f, 1.01602614e-01f,
    -7.38539994e-02f, 1.35785490e-02f, -1.51729286e-02f, -2.80919969e-02f, -4.48665917e-02f, -7.44452327e-02f, 5.19348532e-02f, 1.04002014e-01f,
    7.98209459e-02f, -1.96250975e-02f, 2.20843852e-02f, -2.32501328e-03f, 5.81846088e-02f, 8.25000107e-02f, -1.44078881e-02f, 7.94551820e-02f,
    -3.49768698e-02f, -5.37112355e-02f, 7.15922117e-02f, 4.73981947e-02f, 9.09361243e-02f, 8.64604712e-02f, 5.78913689e-02f, 3.36770415e-02f,
    -1.18976906e-01f, -6.73640370e-02f, -6.20528609e-02f, 1.29880309e-02f, -7.36768246e-02f, -3.03275436e-02f, 9.76798385e-02f, 9.39401835e-02f,
    4.38297242e-02f, 9.72426981e-02f, 9.61998850e-02f, 3.69775444e-02f, -3.56265604e-02f, 3.39849442e-02f, -3.43405902e-02f, -9.82201248e-02f,
    -5.84919751e-02f, 1.34965032e-02f, 8.27969760e-02f, 5.49495667e-02f, -2.86939591e-02f, -7.79058337e-02f, 1.89986229e-02f, 2.40127891e-02f,
    -1.03679597e-01f, 7.34713078e-02f, -1.19812593e-01f, -2.44486779e-02f, 6.42541945e-02f, 4.72251028e-02f, 1.03708789e-01f, 2.02664733e-03f,
    -7.28806108e-02f, -6.54570758e-03f, 5.96994460e-02f, 9.23895240e-02f, 9.18647647e-03f, 9.62286144e-02f, -3.79536152e-02f, 6.87898695e-02f,
    -1.26390308e-02f, -6.24151677e-02f, -4.96585071e-02f, -2.97709852e-02f, -1.63281858e-02f, -1.03956938e-01f, -2.71794200e-03f, 6.44526929e-02f,
